{"layerSizes":[400,128,10],"connections":[{"weights":[-0.1164669510928799,0.042604681193021239,-0.012815170970624419,0.021541260559151937,-0.06445596959087953,0.049563240389475748,0.025550198515278834,0.02053432568028085,-0.06426342659007789,-0.01842419214751499,0.007561229144304518,-0.04522842226720988,0.004604450565287213,0.0936781569114395,0.029918007235987998,0.09553719821706666,-0.1006753183326264,0.010247918347589643,-0.05988439233174928,-0.033749876629729138,0.11019929140401735,-0.024775399423443015,-0.11757355554432093,-0.04176788837991181,-0.019150892707233779,-0.06354152572491954,0.05746626311784159,-0.06769117220406727,-0.01793075680331859,0.04376626253373518,0.0007203898273006005,-0.0018908089602046319,-0.025738804576824638,0.025325169484326557,-0.14565444077584847,0.027361166540818054,-0.03399263235851569,-0.10133154966796229,-0.07421483919689308,-0.03138762415205691,0.09669197946104577,-0.05921385265530584,-0.11701003067748654,-0.014470278205294072,-0.029081190355716783,0.015395773933446204,-0.007986433666263008,-0.038865013375287717,-0.03977492279630608,0.08002406212155915,-0.0029838474480910709,-0.047266608559315397,-0.06230632859697808,-0.05987222738405632,-0.05231236703602698,-0.04543026299779508,-0.05525419520883859,0.028404252065969469,0.07223431092817272,0.20602863681819134,0.07739648832149877,-0.00015592141405698954,0.013487993502148247,-0.007942646869661884,-0.1148678636690538,0.0712524827717016,0.15088493712773069,-0.00946522453759144,0.14995825425975235,0.15314673161301169,0.05877270126466734,0.02759749559110355,0.14444393096429823,0.04345479879558175,-0.014638771403967386,-0.0046444422330955028,0.017211852629313793,0.05316902290253293,0.014880159377478645,0.06282887977113445,0.1414256902766378,0.17506258339122825,0.09076827884699243,0.007579664159724384,-0.103380771225544,-0.021343704034826818,0.03746511559370717,0.08966900431249578,0.10869406596389321,-0.03664884132718646,-0.03454651697398883,0.07777334898289359,0.25978350224691978,0.1945802062579018,0.06408704901184738,0.09870254052443393,0.03146712088002931,0.020261350080835618,0.08665874622532878,0.058238133752012029,0.17512896160378994,0.20856688672104324,0.04563968860885362,-0.04234345500368793,-0.03910782685729771,-0.051724380434900438,-0.05511215342150034,-0.11834691663302595,-0.38236819169866767,-0.2930647904550461,-0.2735192911857441,-0.24177175381850495,-0.05809303180310799,0.08474638928100127,0.1484180811167018,0.15944944497683989,0.13924145639583916,0.0729633294786893,0.068842755347025,0.005447361348229032,0.09417959569765307,0.05984948159590069,-0.0028561807829202816,0.09649116545047155,0.04014286913209714,-0.045807506513366947,-0.026084889207184549,-0.44378398864237175,-0.3171978219837092,-0.43520638596717117,-0.3367190939720743,-0.3528613922706117,-0.4773142741458749,-0.17594776029653709,-0.03165105823822643,-0.007839135009250188,-0.019272537916184264,-0.03145601529228895,0.00020516174164972268,-0.04425226444319497,0.06039724481037639,0.012548512127037134,0.06838927912228224,0.07074606459206878,0.028849577726858295,-0.20030003749840373,-0.3645291164659529,-0.3200052860565157,-0.04254920744106981,-0.07584291013023413,-0.06769121274735166,-0.19378323944279023,-0.43989932363243069,-0.3399208311590622,-0.0707837793040633,0.0188081086509436,0.06660032244963411,0.14303623462225865,0.16581744098645433,0.13952832035060046,-0.03965341277908872,-0.04947391725301128,-0.041974297077524317,0.009128156373761203,0.007722771352532935,-0.010427440233878169,-0.1002197434373503,-0.20611291427232213,0.22861534786943109,0.4265416045768352,0.3461243478964221,0.10426991404678304,-0.31078248982948405,-0.19629970973865577,-0.2673817112906107,-0.27935108735777355,-0.08627496517766467,0.035974804232719908,0.1328501440937761,0.03814446888371847,0.009762297289241875,-0.0018821533044026263,0.07820817598965473,0.0814478941721137,-0.05617036313442854,0.06497791367679579,0.17458409735772394,0.0507905209992485,0.4622767412811305,0.3279534734351536,0.11655841964697392,0.2782444905411032,0.2446497441550328,-0.030058515914993118,-0.16879338521635912,-0.08238597778651333,0.009873370262619403,0.245552882433179,0.10200972753680869,0.05886107390950393,0.15252776240457567,-0.021509508265667958,-0.08297207301347479,0.06541307944554084,-0.17170940028757562,0.0679006596485913,-0.035928659437980337,0.04082662129435317,0.23568116460816994,0.2886686498228265,0.15386212562188376,0.07702651482684202,0.19187095376725406,0.1529638831788886,0.19191886489291969,0.16048265866022186,0.15042455325190685,0.2846921858651362,0.12977102806637193,0.04254163263931326,0.01309224896530064,0.03727233682377585,0.029653947102955486,0.054999695277957168,-0.13163684103696958,0.016352017892590003,-0.13101312221382856,-0.0023127881225532547,0.09190804070785097,0.29852315689010369,0.18063817779552586,-0.09263271480243726,-0.13948514487988224,0.08704050477940867,0.15323593963441799,0.18541532680963744,0.08144082590649576,0.19916924945161136,0.11225011748461093,0.08592301404336388,0.055214359433124447,0.12389384044263009,-0.01817447027659844,0.05544998432208215,-0.008858885390668894,-0.008789499117883187,0.15145284834909357,0.10117016135369225,0.09051150537062962,-0.10804078970448056,0.01091434312184895,-0.15160877920637945,-0.24618515853931706,0.19891126659650466,0.04980567028033494,0.15000187334817789,0.07462910626291798,0.3473631784834522,0.1345653466315146,0.06433936705294335,0.06169205135967374,0.011977024223781143,-0.06336360427225303,0.05439522767906188,-0.044739009255920777,-0.06123578140164088,0.033006644980542929,-0.1868297127550444,-0.25558229879050328,-0.2708477565961966,-0.38233665901605448,-0.03958306354544143,-0.054327052549950769,0.03017026954223878,0.03660084714838468,-0.020010624165604328,0.17141535557133937,0.19563289557957398,0.10977799722417438,0.09369772062907746,0.11499651648903316,-0.03275134610752361,0.002728573349641782,0.045639772782493089,-0.0026643962496825208,-0.08104159158623596,-0.25751921067311347,-0.42527589886280978,-0.5067331672370385,-0.25734052022064476,-0.2125430556660675,0.061048630950485707,0.07733408500505314,0.11834092292301454,-0.08469470364007098,-0.023500985430577695,-0.008322146506441648,0.12411856372232655,0.00044631925827885076,0.09127771717618523,-0.056632008149314908,0.041579076877391218,-0.07717641685468912,0.029732179338337169,-0.11618787834930737,-0.1261578127201565,-0.12088424765255342,-0.2624590543320846,-0.21376694164827504,-0.1246477820234588,-0.011948873184575397,-0.11943514517308693,-0.01736884819330761,0.08807568203423845,-0.03533143041305288,-0.04603923409831385,-0.03627209483936164,0.03868360060237243,0.08104635628607196,-0.00854696004356419,-0.015668317686095624,-0.05449492791108234,-0.09672082171158568,-0.13835043560157765,-0.049019949753246676,0.030973849935466367,0.0030803338748634238,-0.00968117676209789,-0.051313168062571089,-0.01791176120461366,-0.16744652397639898,-0.028782801130978004,0.03520468849664987,-0.01496916310642468,0.02003826382251226,0.014502514693954605,-0.0035318599234735257,-0.11988659810305533,-0.015899601213567053,-0.04039909927378338,-0.028309243588895796,-0.020337332247092077,0.02689499550395372,0.005716564372347814,-0.10545304484700018,-0.15078403002563205,-0.0019893210447053299,-0.04963374432839258,-0.17067587280077507,-0.015396308167336297,-0.030619747089401088,0.007381183936367121,0.004574733521909609,-0.04213415504798069,0.11642519589349264,0.07235780577216995,-0.017398897606406988,0.027147171365225526,-0.027963270963165464,0.019422134205684555,-0.0024557524947751766,0.01711655109181246,-0.005184872667620084,0.06135776189086904,-0.02397165815036248,-0.04830561743029684,-0.05631967466218834,0.027741639621074528,0.07680755985464223,0.02431774568466258,-0.030649100709862023,-0.0398285440189921,0.08020735215890108,-0.021485730003179116,-0.04082938564439035,0.05391754565192658,0.05140318344392686,0.055895903504517747,-0.040488956324994187,-0.07966101606345844,0.004738866096640228,-0.04226948816544932,0.08978900369858212,0.01537339685613256,-0.0872189922699944,0.07910835061829529,0.0021080579529367258,0.10530544519053335,0.10881703609962684,-0.15684491409349533,0.038079913271122697,0.042473941800999729,-0.0080693479069295,-0.0019271886451662922,0.04604953417293389,0.0892728317597017,0.01611521735341983,-0.0356042042357388,0.051666981246697867,0.09488704365112309,-0.07906136758050736,-0.05084531897881336,-0.01969955815443048,0.02896875241428987,0.039362935458926859,0.01882196798004328,-0.03301473212381367,0.01073743517383045,-0.0007301979941422394,-0.03213382280312116,0.08681818008860293,0.04612598928528807,-0.08147802336845513,0.1027407693865247,-0.10545148103726845,-0.05604346026139747,-0.028119663324146783,-0.050265271333842207,-0.002477613346999815,0.02169408604275699,0.1600335293622476,0.04449311594578088,-0.09080118391553498,0.0001504749613751756,-0.10783741447654004,-0.009196492754230233,-0.10308634054561819,-0.050228398040841278,0.019002505495953425,-0.030027378841746757,-0.03487723629311082,0.043743214301818007,-0.020454502604436887,-0.05905510193605783,-0.08708578598200073,-0.07138615383443103,-0.08732452804099937,0.008129767585484853,-0.02506003326254319,-0.05823458286039345,0.10433951910495416,0.14128406724793875,0.05166952777054124,-0.11718440455401895,-0.062165783844604669,-0.03892540987900247,-0.049348239886178407,0.010931599363981134,0.06682699527744109,0.0484178786568973,-0.0611882329093093,0.11347550393430102,-0.006406636844493465,-0.10954961426378292,-0.13935218486890248,-0.18422177763243903,-0.047802178690575739,0.026741517082455574,-0.06197613961115062,0.059898655377222918,0.006825545915839671,0.1206877858499743,0.15460916689281907,-0.027232778227982213,-0.1112021764399126,-0.07679437395926374,-0.1646070164050809,-0.12045939314086762,-0.08953789759448024,0.05993484109877408,-0.0537176721984293,0.06064143791313598,0.008036394501156057,-0.10912516187494474,-0.1823083726847468,-0.11639464049892004,-0.1577999930123824,-0.08378636457065818,0.015721982355326144,-0.01476901629539023,0.05625304946935841,0.05999416572194908,0.12808476651326315,0.05607431087325348,-0.1494038023014946,-0.047126948383545998,-0.14964478571802312,-0.06916808767951946,-0.02736730721988389,0.18190018766552974,0.06723011947332507,0.09087637352687247,0.0538771198502851,-0.12637746874554527,-0.25472688600869827,-0.1152302422934201,-0.12428409789562202,-0.0659098904759657,0.0037447916609412406,-0.013378652002809097,-0.05630638875277841,-0.011422959094676121,0.13222584348501577,0.10113361722510629,-0.07680475047702944,-0.03559248939741728,-0.12229455537034564,-0.15538943966507558,0.11045397985491014,0.17240206899950526,0.03059622177825925,-0.015325244054890927,-0.1528788938800168,-0.131600125004879,-0.15905093276934868,-0.1243866361974683,-0.06724803949411462,0.05318418866433798,0.08580855170239461,-0.002423534869074647,0.0267820668661575,0.07277931813106678,0.11072693991335614,0.11680158624291989,-0.03398615929156838,-0.07528622483042337,-0.26565162153599228,0.0031042628189952147,0.1632413052034737,0.01800139828004588,-0.08148965187657882,-0.0724075559350534,0.19400575724552125,-0.09690541772992671,-0.06953096653995707,0.03328438944022778,0.04390007456573231,-0.11765194118116532,0.03980273327276972,-0.07102914309952821,-0.005040078402783887,0.1656638253395614,0.07122933941739897,0.09403916184844639,0.14708561301201768,-0.11365161868557733,-0.17559789403889698,-0.027188798100993229,0.22572340717282708,0.22817785105243233,-0.09745134328965735,-0.07352147116365346,0.0360258801078213,-0.00252783721434102,0.028377876581773797,-0.11099345505251845,0.08742032787804866,0.024477192821145339,0.0005005298567908562,-0.07949642655197174,0.038611021042832659,0.1723278256065543,0.12860152106488957,0.15299695813734325,0.14666623762884885,0.1937331223403692,0.044115424325859357,0.13575062162542915,-0.06930183909001667,0.04764834345469255,0.33675467575338777,0.42931642073313677,0.23358245240567752,0.30471891124956337,0.12825314006695649,0.11751478221049097,-0.05730864062085607,-0.01948313444230642,-0.13925066483587648,-0.04208383349949653,0.018192421412374508,0.1511726368189656,0.1374332426038069,0.1803663666474915,0.33135073659957328,0.29677718655902315,0.09750883689410571,0.20799635296344835,0.07853257359050611,0.028371310026366855,0.04148478037423269,0.08020266843764312,0.16014406627709999,0.2065659505658005,0.19944084814955213,0.2275185816590298,0.0401141527463689,-0.019325972806398234,-0.03970619252311102,0.032339738526485858,0.06738281006667213,0.13546104929183987,0.16579352626376654,0.32679473129200389,0.30631341015833576,0.41911716626444048,0.2546390184240364,0.14409796040325638,0.007279666484660249,-0.04386268257447613,0.007037488147911274,-0.3480352054212893,-0.08134211208799146,-0.19160788836260085,-0.0873811157686098,-0.08348788141752145,-0.058808744768481868,0.2414440542223718,0.10586154294768593,-0.12162743938413218,0.06355731432447245,0.12293432261806742,0.19143897425884619,0.1569859855031503,0.10573449011190638,0.20568551166957164,0.21487620334405886,0.03138902409777118,-0.3492032877697667,-0.20295824450513795,-0.11119245585978178,-0.2994645255424446,0.003210070674568062,-0.09168633092203019,-0.14311240861110609,0.005881157245011392,0.10610255515952047,0.12935346651920996,0.045408275584409987,0.006871597736513053,0.04640439898013172,0.021038542928671166,0.09419634441779151,0.2689243777278572,0.17200132935059249,0.060900188200102327,-0.05906259168190665,-0.355640328070689,-0.467430885955715,-0.22364408128812506,-0.027466094639395843,0.018391634617081207,0.25471767289503496,0.19787279743872433,-0.0351766465425257,-0.03345395670840768,0.10217932155139961,0.008047044439600224,0.0472087972545544,-0.0011690659205324766,0.11689022156385064,-0.0444756149053344,0.008663570801721362,0.060833737992128249,0.05197408019988452,-0.015330137719201449,-0.1830535552797554,-0.28362025226926498,-0.45748281005686988,-0.3571640025188019,-0.19595164508338334,-0.029115732345628848,-0.007915639579631562,0.07147629481166515,0.05290959386277975,0.08577963680855222,0.13068347764438319,0.13956533345653836,0.036296022187261588,0.07539466978083272,0.098477776772697,0.1585668429972188,0.122465549926367,0.07971122456182876,0.12915553545190629,-0.2391550204063818,-0.36617478764951758,-0.23952772744619622,-0.25218951466902458,-0.2550720007929396,-0.2907879884993837,-0.014019329284202038,-0.013153534600293827,-0.10200676310890782,0.066212571153339,0.008034634928315021,0.08973348270045481,-0.0512808230439518,-0.06960599436936857,-0.014343324120119277,0.11107226822385472,-0.06655930348025052,0.05551790626088079,0.12146634720666363,0.08034494376267949,-0.1018269148041666,-0.2867245023846592,-0.2336052476841903,-0.2816943918092341,-0.2546266395894031,-0.10552111847934576,0.0162108044828051,0.18510677444521135,-0.026972098256955108,0.025159403025592214,0.033024838874056477,0.04271120172756776,0.024659962700173116,0.016469301356373708,0.028262699363898776,-0.1888891596821678,-0.013098591396696518,0.0764525625192628,0.14448471744187417,-0.0674968507602062,-0.17009289420502048,-0.16198950710085523,-0.20009219862049827,-0.19434965942518524,-0.06518580008297979,-0.12010512416392799,-0.12491884728924968,0.11496817217911161,0.13528714594305556,0.18318702001987584,-0.03538889822882912,0.09679083045193202,-0.011094170812324063,-0.0070653235865141919,-0.10474104873583938,-0.06113646934031685,0.010205690482300878,-0.028137179239453755,0.02840329983430955,0.11528613204615843,-0.02929858872782465,-0.1915450472282706,-0.08477369692311809,-0.07663644729693288,-0.13844596678146635,-0.050184316463771676,-0.03578038957010729,-0.0801026932712478,0.07522661075712492,0.14501225122420587,0.08110299058812691,-0.00925308277729837,0.11378991671190751,0.034990044704807567,-0.05006202968987773,0.0027427655983155625,0.00043347628227962526,-0.005795486152077262,-0.0622273768580095,0.1246424037010812,-0.06237309945756907,0.03363871802792422,-0.053411590553593329,-0.08205079937148122,-0.04057174581492628,-0.15100565282971785,-0.03136100837582118,0.08203204965454729,-0.012137809749441136,0.03763249941988593,-0.0038551926219322696,-0.1087864007232231,-0.022072127470168326,-0.08149971404135977,0.04793971815600895,0.051177993904557298,0.0011241464332535394,-0.03901059626618611,0.043898196247304028,-0.03987908877460339,0.06704655770491443,0.07582265381446865,-0.022567114462354943,-0.058328184366874268,0.0257449101459976,-0.04541263790781464,-0.12158387403262226,-0.04816070957793817,0.00634756681995086,-0.058382475984133239,0.028637855874911783,-0.09046686822005015,0.012559869217220089,-0.043563942230324299,0.0008115191354000306,0.10472844894216454,0.00006249057486053574,-0.0012126374912928529,0.003339613067230308,0.03966287093688065,-0.07251184540769026,0.10503831796379566,-0.016004022041631248,-0.03946857043899359,-0.024157595456100277,-0.021582322830447324,-0.006648250450919474,-0.01718249659525315,0.019606862175830847,-0.11070660365092149,-0.052092530239020277,-0.01492789188683716,-0.06702464492397212,-0.060404622222966237,-0.10583398770345602,0.06085454359880288,0.06876452914946017,0.05485097955997644,-0.064866361164496,0.014908466152283638,-0.04366406127223835,0.05358695538816371,0.045098466821624,0.019211899234736455,0.038747801252332379,0.04735524243693624,-0.060930416847986269,-0.05121738884977595,-0.0393625934520141,-0.08655828077944815,-0.04379014745851665,-0.11630359107729475,-0.027350636845471025,-0.05472100115194766,0.05306905620381423,-0.07539298871279372,0.11778855169914301,0.0468599631209246,0.08088677201149394,0.05736893551875695,0.0004169034375673884,0.09670371153038095,0.07517339027909843,0.10662640208030355,0.05229839999963483,0.04443128393551086,0.02952453461370155,0.04064052100048,0.051382614006959089,0.07379954974195809,0.11646918799418919,0.0451513313777531,0.006115841795617291,0.01256690413638381,-0.004290412122219593,0.028321020394454858,0.011482820680472069,-0.06960135681744753,0.016158419062895034,0.09868086170783307,0.008471219106668713,0.08345523481156508,-0.0010039450257761198,-0.0098683624170552,-0.15708132624562594,-0.15195979629461912,0.01222767608212216,0.12379253808111805,-0.0598666508665781,-0.02568475898555631,0.10566434980539319,0.07045085006341276,-0.005273816708369746,0.03313281715809074,-0.0365479868450565,0.08546964310878246,0.07791246206269043,0.05678467000606841,0.029802738709269057,0.05253573046137517,0.018860676286718986,0.00400373633896258,-0.05085978366204794,-0.2063387319310792,-0.0935734294513517,-0.16959368914068025,-0.044140479320205237,0.05896066945844968,-0.03638417340316892,-0.05494631330210649,-0.04004464657565571,0.07203517166511998,-0.025692822847816277,-0.017194311513168086,-0.08169979084106631,0.08143154963329583,0.01196574697920374,0.08209754880207879,0.14526227541039636,0.15555345848043995,0.07387864535629402,-0.007773645788129311,0.0145832047329247,-0.1486058960757985,-0.0588076183956611,0.00943945960740185,-0.07234309635351198,-0.02768860168408375,0.07217695459874502,-0.07560296987306425,-0.06603979615519155,-0.03921804529507975,0.028359764978062277,0.03450313076864471,-0.04456602059643008,0.10518807968282065,0.0837739016155601,0.20854337494497444,0.006623179360304917,-0.06843133841613967,0.11023502052913086,0.02936700815232635,0.04090348050777922,-0.0021321275396433759,-0.012821760377109073,-0.012026032255165622,-0.19931488585027616,0.05923540831446401,-0.12272079134949075,-0.011854914725699917,0.08589278424783431,0.003825423516448949,0.062343838379285167,-0.0030623218460140244,-0.052721290628763888,0.0002921036979221354,0.05771327800340654,-0.02722108550816281,0.029082356121731387,0.025234907695715019,0.05459347440649064,0.0709456932332129,-0.15359164883994357,0.1421262713870195,0.01826139163457307,0.09031642027290174,-0.08850694772938862,0.09462725176096242,-0.1847565696894193,-0.08817745938286138,-0.006699576149376466,-0.06159759344637131,-0.05646910678028759,0.1354307583707893,-0.10413915724388634,-0.03127432468693246,0.0877992109597117,-0.034499630268548509,0.04785392273690931,0.01057073060954284,-0.04850736460844504,0.01466680106999817,0.11391618465186525,0.030075153823697969,0.05108379517458058,0.0707296072790205,0.1465409494442101,0.016153694898829893,-0.09161225092427247,0.04023369557445059,0.021287431165534468,-0.04572061104865419,0.037359378747461747,0.056355472044037169,0.03665071677836855,-0.044638978972279339,0.07920700167777914,-0.009392906654785226,0.03883156926235967,0.11013952162148748,-0.09478362036225094,0.023269363488705537,0.08442710480859377,-0.07571082775597907,-0.1303466576929132,0.025353280882459269,0.14196309787332865,0.21910295293127825,0.09889449223494482,0.10685176001978593,0.10199837675600562,-0.05084469510207104,0.0884530733008175,0.0666624965518176,-0.00027857342688554184,0.07214459330023514,0.0006620477134848936,0.053931589318336459,0.05049435030008703,-0.055310613641602748,0.0017669827253709858,0.13342615773947096,0.04487184549465364,-0.0786737312802463,-0.15933923857412636,-0.1529939401453627,0.09389559857247054,0.15925089191018539,-0.0018014359945892254,0.04149722423715239,-0.054902357433387807,-0.006768931364977987,-0.01918296814701422,-0.11139859424945811,-0.022363556617334736,-0.0018019661601471876,-0.04586305621352622,0.0186550977070999,-0.05661280529551463,0.0177267133853971,-0.06487951903450286,-0.03885888677482868,-0.02303450883290615,-0.027072476944081136,0.013477943493895124,0.1267336062056232,0.02974831051293632,-0.0559417157506059,0.13644967045157736,0.09922126413051746,-0.027496283799314043,0.009121335872412895,-0.013298364817985267,-0.08788841286163127,-0.03437314135024819,-0.060996403464516919,0.07477627786163961,0.09926138363978988,-0.014708110623559359,-0.03924639982598595,-0.01818783486937945,0.20732681360514736,0.1469373043807626,0.10428208741500454,-0.04716820115073248,-0.012250549431793535,0.1069557305243879,0.02675724628080841,0.10005056732377545,0.10468970437400668,-0.0582662915355119,0.1033639422772906,0.06549223626666323,0.026254567544284427,-0.14014048914920408,0.05466554030294361,-0.08799465483277219,-0.02886173729303988,0.06396583989572512,-0.025747973169552388,0.08505324851880057,0.20287205665237055,0.05883051777844896,0.04294133392007184,-0.09768303711942832,-0.15119778834935969,-0.1290813115099922,0.07035888602515139,0.1128753544284938,0.08977250158928706,0.048365302282882809,-0.00511210173012082,0.0023928757696689087,0.06482154436150396,-0.1092516221923469,0.06784932825203398,-0.01030686205687141,-0.04224141691375205,-0.0185378580868127,-0.03547970037734575,-0.11397601435983977,0.03298287214150124,0.1382325765650261,-0.0072157538986239119,-0.059145647321854438,-0.19063463639202966,0.03826302602392208,0.0441727012920212,-0.07471880618456711,0.053554500235455108,0.06695961070753101,-0.008002070743926815,0.028341645684602919,0.0071665709642586019,0.0187016585403636,-0.04502801698198858,0.029484705659748157,0.02575597250362895,0.013957689574368857,0.08808502805645895,0.06480112186403489,0.07691303596037554,0.10860255232015372,-0.012814694395428995,0.04487384661468991,0.05900114229452424,0.015137900253452535,0.07513148264765722,0.03833759534758415,-0.019457516364384084,-0.14907303447480306,0.12135997377941034,-0.12702344667837135,0.024366515804601798,-0.0424906530573082,-0.0017817271090036229,0.0011228748965345858,-0.03214909342000167,0.04163647281201205,0.03284709758455271,0.07640117681214824,-0.046161583299346577,-0.031619436383106828,0.02506386233464931,0.0719889994724138,0.004459110520134211,-0.10155200122941834,0.03297574484335197,0.033194223858450087,0.0524136370086566,-0.07895371461874015,0.042306495482631548,-0.06712807567473975,0.028583861835285146,0.06221615370371375,0.010886690046783497,-0.0019022465654733546,0.02410807226791842,0.024624585576807673,-0.047674744401545589,0.00862060110867477,-0.03692688497268151,0.018331841325672166,0.040758084087285807,0.07622376369363188,0.023030004196208946,0.007672833471073153,-0.050611214083996009,0.030397467056440094,-0.08830136092837462,0.08227142062873788,-0.055812050819050707,0.031989990061304107,0.030012017610754096,0.002180881351327081,0.01762691058382391,0.005130553768515239,-0.010528505127482782,-0.05929202067154271,0.010734486172171118,-0.038331885840351,0.03449511824037903,0.10398756231546783,-0.04499160242336347,0.024818374065327395,0.02006237298420365,-0.05991342761692318,-0.052063785960108018,-0.06714002305105103,-0.08316437057757678,-0.12469625700207707,0.06515913846127491,-0.06505187549201214,0.023882081854544935,0.03616987499134943,-0.09933201796536931,0.04016367642825891,-0.03296695453558054,-0.12373889414287001,-0.05834612987932464,-0.0776185524160535,0.047360137787308697,-0.01416491436042886,-0.03971855928299382,0.0387253448014071,-0.018188906747698534,0.04045470283462238,0.029487376535116049,0.035059127940833437,-0.06756142744360833,0.04859875158632578,-0.026199964345887295,0.001962388189313923,-0.047388840985985097,0.015343912774164269,0.10506557499221227,-0.06789131299872144,-0.06314117824755011,0.05914175085366157,-0.10901728754265318,-0.03726090649419769,0.00734095848398,0.0827335531948116,-0.0478342866791171,0.01865704370329561,0.09987353738537956,-0.05670448223725413,-0.038550441528360877,-0.05098508810997252,-0.06754252382851801,-0.04101930343396235,0.030520579236107117,0.07386965196992593,0.03248093928135295,-0.02846913365771922,-0.026066988439258519,0.17174749218368114,0.04934253166572855,0.08359410029778068,0.11298656981572422,0.1282781933049944,0.10007920513782695,-0.016247916078978763,-0.16580542033159588,-0.049781043337339337,-0.15243932300091088,-0.02457108344109306,-0.13010963954773409,-0.2368591112621567,-0.09058158408294313,-0.09643341423745824,-0.09580800527969101,0.005944014319771965,0.03151456263069075,-0.07813026965338625,-0.021540774218965269,0.09316146373655819,-0.013446829072126065,0.09287327725503578,0.22200505183836603,0.07701111415926269,0.05239172674214012,-0.08567464895399074,0.007187502257803628,-0.0878242250500748,-0.08853203862923438,-0.18162194632131699,-0.009914376212027638,-0.14108403753611233,0.004371628775000687,-0.14372575697288057,-0.0716378654217573,-0.086709207987533,-0.08251192014617569,-0.06348894431656084,0.1021804645939554,0.10455835957325872,0.07822200525871225,0.17443173688321068,0.2309674316666578,-0.03948626085799854,-0.0725520075678564,-0.0851775404645975,-0.1684152818622132,-0.08644507698935637,-0.09202060872480172,0.10226551819418585,0.15257437749711895,0.0004456127625647084,0.1448358453029963,0.1754652819712545,-0.014880294821924099,-0.19687950566544724,0.032838085474177398,-0.03928263920302788,0.0022171199420981644,0.1860425160450819,0.22984253397837954,0.22559765933461338,0.17370946083844669,0.054413368662456908,-0.043688977259167708,-0.021981065746622114,-0.05994082774804794,-0.12993024762542008,-0.09894028866106461,0.16938464931681239,0.3160992150341649,0.21434539381578397,0.1733221058498018,0.1323295964004132,0.07718546229305616,-0.08986534744901621,-0.03344476281605044,0.034768362732485739,0.12245807584250679,0.253007920798255,0.1844691140687594,0.14255889194091196,0.15419155393869819,-0.0914087243002109,0.017610803296468446,0.0883587046052177,0.04614749627075811,-0.1492828029910044,0.1492760088364868,0.03304744613273863,0.27749451155041468,0.46559860710058229,0.30483150925072557,0.18885592912910169,0.07482206335603047,0.000885581552869578,0.045711182092120477,0.06085621702981202,0.1759155711471427,0.17930247035262973,0.19784598452313013,0.20807563942086738,0.17539271589144615,0.014350610349871503,0.23691306612693684,0.02668605486234685,-0.16680301887727043,0.2038269741026504,0.28097197188145436,0.0063354504427795559,0.20117398191044648,0.2023102113668247,0.16993304127478646,0.29091947131757686,0.17379771139765919,0.07967018974300502,0.02637492276209674,0.07300474572021486,0.03351502964908177,0.01366506566697891,0.17025091801155355,0.10660660783222149,0.1511590402168234,-0.02494417111333924,-0.11107224716225063,-0.12596533263387639,0.3632186776859933,0.47225112682712835,0.30223504302098355,0.45524149688335188,0.1394186718361926,0.002984089126063707,0.06490467797214845,0.048170950243590259,0.21452872218249342,0.16542039944032986,0.19560095454923433,0.05377318285637271,0.05827935584850457,0.05224379440200079,0.011140522581259511,-0.025936439917554744,0.061057016466073438,0.1114822181934614,-0.03403926874572864,0.18716018061014673,0.07559689244808797,0.3348109336031536,0.7750143624064819,0.5452071752756198,0.2365057646162718,-0.0124740871545591,0.06878222412422788,0.027028598913198904,-0.009538647516357043,0.17224980229812179,0.15396996472483455,0.07918592162461635,-0.10345067160039243,0.07946817966605321,0.14216794097286593,-0.04655596680359234,0.209270512657767,-0.0679399137222666,-0.1282251336218971,-0.29075730347475567,-0.22908603816053983,0.4141923361728115,0.4868838139732388,0.2935106253573765,0.04183383776835404,-0.06358347324633944,-0.08860653671651257,-0.15413126542797304,-0.09178941883460476,-0.06501275978367544,0.1175460091977719,0.030742367628291465,0.04678435987808338,0.1572957658114604,0.08556381010931141,0.13458568994020329,0.10668012034963585,-0.054341990893561727,-0.31164671739045937,-0.09652419979329176,0.26452923714273265,-0.0026524322708692258,0.17564070627893633,-0.17794635347437025,-0.37252492246900179,-0.15598533649305205,-0.1668219555225707,-0.2966946403123068,-0.28148166345811539,-0.19122963163706895,0.08039465567633322,-0.0681325859176915,0.035245062226513319,0.025508435067997674,0.04183133907812757,-0.08483009674994577,0.12054850872642561,0.15477306449540557,-0.04913978937626888,-0.06715195203716278,0.04627442646425108,-0.3370312621782758,-0.4327479093511028,-0.5739534929429575,-0.3485575038713567,-0.1356720600590653,0.005507831001217208,-0.2895763587287702,-0.22538330693138979,-0.10340422576713981,-0.002360485530767631,0.09719944933212842,0.01679228599911271,0.010926858655531766,-0.022900004069426908,-0.0012602578920834197,0.021152460568330333,0.1830593119894641,0.21146051743700809,0.015518984850889286,0.0415927947971615,-0.2700734016417075,-0.35976463563490576,-0.31496168924667186,-0.4772037439401088,-0.09739567887018953,0.05383089010561058,-0.42411532049676517,-0.23279602870370642,-0.13981080520704565,-0.07858504085247006,0.016569530977964425,0.12933309269446653,0.023213611256164728,0.10263485351075999,0.10351546882024565,0.2624279183176917,0.2359136441708268,0.15565662246541019,0.13025397089282848,-0.017377633296375509,-0.2236597551376055,-0.11988699680067946,-0.22633537745773486,-0.2547917853949478,-0.06387763861142758,-0.26584478104997985,-0.24360426384053164,-0.16041854786941657,-0.12888455677102454,0.00032886776529927176,-0.04259299055689293,0.024173442920538008,-0.016324989408923939,0.08997233609889399,0.13858000781442784,0.15704212932440338,0.027286397859289166,0.02233189278249896,0.1906237889438579,0.11242520002851855,-0.06762520145829211,-0.1641421487549601,-0.27588488150842346,-0.20875019934064735,-0.13311187830563543,-0.22387773547690827,-0.26289605543523666,-0.28962011304993048,-0.13062799914919469,-0.14322425515923999,-0.10929873256318092,0.028082082896518414,-0.030503494054892889,0.01844059690951306,0.20725143328575425,0.15432313160056566,0.015292694412567849,0.09904760258435598,0.16358343023638315,0.07449689955106942,0.06789381403736449,-0.23874516006870018,-0.2867793473043468,-0.3091178058431676,-0.30578831798800246,-0.39314081956010579,-0.2212626670291344,-0.11972110187834553,-0.15585057078732249,-0.1453482095243009,0.08539613275310365,-0.02633843795799467,0.06594485542260403,-0.05251815064978176,0.14651072205659888,0.040607819741958737,0.292350823804003,0.11974067043408415,0.09610927989314792,0.19053413592488828,-0.04358152169980762,-0.08026985179042699,-0.2253190415969425,-0.1998338434030136,-0.3707400235448888,-0.25387527840852677,-0.28858174552623869,-0.20484640256997695,-0.1286962886050902,-0.02528705683764671,-0.03022279654175274,0.09586044999220514,0.13067302589905523,0.00174234619223259,-0.059810489918879179,0.014125406291151288,0.1999035951928877,0.2686828055589649,0.10066191382635136,0.12204175837108801,0.12409872540853595,-0.029735054455266826,-0.1099518347310893,-0.2859048882323615,-0.21442505505993143,-0.13092688390035496,-0.17408567419741687,-0.1098155696250884,-0.09604735985204389,-0.052018392759481679,-0.05385906582294175,0.08363148184665552,0.1557983853559929,0.12514286224095387,0.025656638374557524,0.03792879105126679,0.014141751379597364,0.22472137095901768,0.11740648687987511,0.05965927652950784,0.010250636032211762,-0.0495920516950681,-0.08863580005007396,-0.14094536239744838,-0.1772183662726671,-0.16047568684730685,-0.0630673540413258,-0.11455064671956893,-0.13507536876542892,-0.061726225627186378,0.021849581713402429,-0.058810996877965208,-0.057347610721986328,0.020283767002704665,-0.004508474869939389,-0.050350323996469509,0.04421399994635676,0.007574500912919175,0.059668600865275627,-0.07426942987763845,0.011549487574512048,-0.06865599488631262,-0.1180867692769652,-0.0784147866494083,-0.04279919838404499,-0.05661093232775216,-0.1359027805543181,-0.028109873435459538,-0.07043102524605199,-0.18492018403015254,-0.01779489293265165,-0.17368484210194766,0.029671763015262477,0.048813266646232329,0.11511088000597221,-0.06127992858235272,0.0023416363352485025,-0.03525742866763948,-0.11295053018829432,-0.024069224720543425,-0.11113245826193206,-0.0625017960532176,0.05949215940005263,0.09326626785512976,0.040278780591504418,0.003053237010198427,0.11096531025032766,0.021188861487570037,0.12623936148226315,-0.04336638693320523,-0.09357311612663784,-0.16502915361663685,-0.028856837494945037,0.022251754477454829,0.18383244823401349,0.06978178714809295,-0.026303490691654446,-0.07330787121996123,0.024109804874496284,0.012880078900040409,0.07547590829036957,-0.051518329092355086,-0.01874183874191208,-0.08972983164562512,0.05059975508826652,0.013444273278941063,0.05749580131109772,0.08582421322326128,0.14451717142240939,0.029374930456893278,-0.01668147576565998,0.037292858105295017,0.0659056580432454,0.006678839444784991,0.056396446978917349,-0.0691284456723532,0.07240719911878187,-0.16207050514074293,0.02974260489156266,-0.03575786593367882,0.018236657693146437,0.006494661318233941,-0.16893177908362357,-0.12955666352724566,0.010890695537617275,0.10731857993155168,0.1277817786073548,0.17253349054457432,0.10606701328136821,0.049197545599034327,0.04324758201628383,0.03938872134198303,-0.03764226132195056,0.10615433358393384,-0.060924488166780827,-0.08759360953297908,-0.013041375168193512,-0.024962490049751226,-0.07947413584700236,-0.07835465439092643,0.09529052625608478,0.09519166373359329,-0.14325218301443005,-0.16869154610437593,-0.12473726396818591,-0.12882502793403767,-0.045080707250410339,0.14208614279504479,0.11445195178838816,-0.030498536009116847,-0.09115545966087276,-0.026221708020102095,0.01753668421939595,0.10574303725308866,-0.07040416557151909,0.039536548871406538,-0.10986251776177278,-0.1264368121047745,0.061962017018691247,-0.005546218280828649,-0.14330038193469994,0.26938811887796479,0.0565165000852554,-0.15832907116444829,-0.21028298700373067,-0.14695510196001536,-0.11018392882623554,0.09746052042516937,0.10217579264932701,0.12833883977911615,-0.1033732801423323,-0.228341921467256,-0.08227624229523165,0.0396176932372178,0.05705722949393248,0.0728458730292735,-0.10731221412272499,-0.008355109424477725,-0.19835826612084984,-0.17617730306024138,-0.03356425032287997,0.3171862586460572,0.4139072963543296,0.37276042705668729,-0.1692735140516473,-0.3533527636196963,-0.3510716930121968,-0.012780806060528774,0.16804058542406578,0.02328724922871042,-0.09928506323719359,0.004710929513148805,0.09989721545391585,0.05131900350802731,0.09125649976250303,0.4314292225916705,0.001017240653861037,-0.028924393707202558,0.015105776732630349,0.06696392585667445,0.11329367418362804,0.10665096976351056,0.4843796800204981,0.3713975652696932,-0.04782558664409062,-0.4107177075877199,-0.3711371306741741,-0.03302649699398809,0.1596637863817249,0.13714101219450607,0.019905606555191418,0.02945128152584798,0.15772315902063523,-0.10717904551400394,0.08169733584964696,0.045115174373608669,0.065741139094451,0.07036155040129554,0.09660877308437319,-0.04748574696061188,-0.3527623285728306,0.0009195804695366934,0.24320077355119608,0.44760496194688939,0.24881871382824134,-0.2805921561112238,-0.5646112575210848,-0.1374725194373354,0.24726902772984217,0.16052746652400594,0.00189560272077499,0.011918540541811454,-0.048128543408212338,-0.06923784935404566,0.06607352060238563,-0.11195923263432642,-0.2725839903719603,0.05581481931220708,0.08763129645321984,0.33388689216060959,-0.2271201063167715,-0.570201709159082,-0.2010834103598255,0.36670670699419458,0.4110046740921836,-0.32049897890797698,-0.8035618203102316,-0.21794052160383857,0.17640765875730975,0.19627652418590134,-0.030382936747498446,0.1051729706790399,0.13361430160261468,-0.049415519719229947,-0.09037829085950516,-0.1779546224518519,0.17049982381990193,0.40692544731985599,0.19030216851306959,0.036969102497307827,-0.24090187450827248,-0.46398476534448898,-0.25215476212067519,0.09842362259361051,0.5296617690626667,-0.7600430694699807,-0.912191702491482,-0.12568150078837274,0.3369751810664495,0.12288626435575302,0.08608736557768637,-0.017974278369110556,-0.13064407043809343,-0.17602309055940844,-0.1853948767430553,0.018488839708723546,0.09294261813869143,0.47100052201833206,0.15480312868288768,-0.26257977841914278,0.20310403092123939,0.07698295592378667,0.3522985633928895,0.3114383447741495,0.08650132293087142,-0.7751075297641054,-0.6714801076855032,-0.07150375101046157,0.37527446259884286,0.08732273017373076,-0.07096186799412099,0.0005677410768331138,-0.1281078777692737,-0.17392390337295098,0.09216499789650906,0.08041796078974226,-0.019793926839627868,0.46597627645016578,0.22635982034939057,-0.1646055937092486,0.1863584164156892,0.05771251082207117,0.37990443045784147,0.40756287988419395,-0.022398412451466885,-0.7319339862681157,-0.32224255496011,0.04255772512459804,0.23192441489717395,0.17393863539815575,0.2223514604931798,-0.09652685046941369,0.03849433705899632,-0.05877097872068796,-0.03409875582035916,-0.24655819776978539,-0.23947808536377294,-0.20583886794030954,-0.19271446553448749,-0.15600501281153934,0.031053063213156874,0.4680533292557822,0.5614770669081436,0.11328448113516444,-0.5843594221645533,-0.5512988693202091,-0.24136791630437877,0.21339561616798773,0.3343728461810808,0.023782459262574195,-0.02654724373051282,-0.1364372276453248,-0.1428389953002833,-0.13341857520578899,-0.09999851735862181,-0.14648302251312773,-0.3814117548788064,-0.46164237270659189,-0.19974574787431138,0.07430422107850814,-0.043090101725271109,0.39009175653590047,0.18705520820639807,0.046217313847659289,-0.2653770459104929,-0.3357578468406691,0.07658256786208459,0.13277238553710084,0.13481430525415986,-0.03483903875778527,-0.06327927327401521,-0.10333520949760024,0.018546134404618804,-0.02497748367657402,-0.10109954996845656,-0.1311591708482129,-0.28888521896989557,-0.3486455605926516,-0.12171249997729691,0.051241042969862888,0.1418463719154183,0.11863878965234781,-0.1250035399735525,-0.28813047084430157,-0.21839718217063593,0.010386126610280733,0.19883568279032355,0.21442004314046909,0.19161974345835965,0.059304796871483368,0.008575810620270585,0.0641337994584005,-0.021954418988001064,0.1171821621694225,0.01560431008251151,-0.0023660336514179875,-0.16149717262646053,-0.0908153639568688,0.022199676326103838,0.10508254223587316,-0.19687220983811799,-0.06407054251988605,-0.22431792252702449,-0.2823980613600731,-0.1511220664103942,0.046960979534737167,0.15214762413455636,0.09514553237757298,0.0705195430860327,0.035160357416942619,0.005760911589286562,0.10036241377110707,-0.07265979988744308,0.01503120221795627,0.12409566379123527,0.03280215804703406,-0.024971458661540496,-0.10783137589281315,0.02965121079963831,-0.07698034336316472,-0.0758024436881643,-0.16837244889660925,-0.06752326734863443,-0.08725636580193114,-0.07738692043034677,-0.06360627196317902,0.07246090152410118,0.022159002280787277,0.15077761803951118,-0.025261493035236897,0.048612843705483809,0.057990976159640199,0.00045341664278292573,0.05226856345852244,-0.033745265092538469,0.03965687677625209,-0.007837297455560822,-0.029996136303732769,0.0031900546460502498,-0.018340945596514687,-0.016330544363842359,0.08113973035859044,0.028635780506509498,-0.09874217238142215,-0.022059324366616067,-0.08122166574931014,0.13782910193179075,0.21787777299629375,0.04771369863803539,0.03320954910900312,0.006923503473058154,0.025225243087664309,-0.026483932135066038,-0.01834933100724844,-0.036287816774290927,-0.14394603825466366,0.09308614289977446,-0.02151223037358243,0.06657345591575448,0.016151804586015857,0.02329346565161649,-0.05959795535076659,-0.05982246737806398,-0.027109484971993778,0.05843100241258835,0.12295708926555003,0.14128831897665265,0.09314606433809121,0.009963237574439762,-0.0060198270143711949,-0.022779320028825154,0.05396171239663896,0.056776617867057368,0.10772993118575153,0.0678059230228429,-0.035635836917383558,-0.011512174757762504,-0.022699053520472843,-0.04434743510221085,-0.015790614868006607,-0.0378432848555718,0.06691834481404409,0.09271553519195464,-0.08671526744831702,-0.0487928501837226,0.06898104269788345,0.07708803918916156,-0.003018251247149552,-0.09490530488779682,-0.08454160073187793,0.05497883505807306,-0.1222010141681437,-0.1595994703953477,0.07693618114989075,0.08143259557049409,0.04217896242058357,0.06007709303341175,0.13171607090143248,0.0425643729589001,0.0824243589470496,0.047372051792477037,0.06596037546680929,-0.07891522619265586,0.0060475513933471798,0.007455053468873029,0.13055090959378452,0.10866541917410794,-0.009281608483753822,0.07442672899669346,0.15302868949140564,0.043985930725446788,0.01548218591500299,-0.015474585010766925,-0.012287123573740608,0.007118479134404112,-0.08200234103057802,0.006214119192530579,0.07563585609633696,-0.059968930291794477,0.25903548053192246,0.1141590499074463,0.21997940449482154,0.11576404836941604,0.1658122307246728,0.030086550707535809,0.06871213680199503,-0.04468941885393577,0.039611639227868807,0.10482458136978423,0.06359396757740495,0.06594845731511301,0.06253994716687128,0.04394895146171514,-0.04178571654656451,-0.05885397280886471,0.053229181102993839,0.003921061551887461,0.04803940926680059,0.08937684322994535,0.06638509899454293,0.1777354896264767,0.16561272299065178,0.07432905065738622,0.04343464673511668,0.20687203642079769,-0.0284485059308804,-0.03379661415842238,0.006892310478371721,0.054676238085477269,0.015194114654842767,0.03393830665419475,-0.07379314193396577,0.10579529890562474,-0.05507589431244013,-0.011482394244155398,-0.05991034922817813,-0.04481811955045586,-0.06230164719597578,-0.12099944893795642,0.0009686178847807712,0.26577665764604266,0.08273300967042276,-0.08892500335046046,-0.04557530526520112,-0.01213260818337387,-0.024952689410601308,-0.21846409511786628,-0.03549567505247094,0.0751337016611524,0.14085605136185093,0.006896970419860692,-0.12406897109726702,-0.09880637358992964,-0.06790210166936792,-0.18958261219438839,-0.267307519559862,-0.19165383152959579,-0.14520407832130217,-0.027850385386689975,0.07346313423064752,0.23508886800291618,0.21987621227423299,0.12745671975860496,-0.024615340062147895,-0.037019928666846588,0.10286741460472983,-0.0678243852431316,-0.059925708416360568,0.012549449342387883,0.07473078491763408,0.019725215902885675,-0.045127953892492637,-0.13307322703283107,-0.048180688463035938,-0.14523574282861177,-0.2361204214115814,-0.25961254672785996,-0.05740622896974287,-0.03726765836372578,0.17876119881501344,0.25425829916759326,0.1521442090313951,-0.16911757725272839,-0.1911129188238394,-0.15812049779855168,0.1326794760656339,0.15215125671094582,-0.01705657052858779,-0.08306001056702232,-0.058849452596256349,-0.015828619626342703,-0.028462648456046275,-0.14586066690364239,-0.06841677751296264,-0.1494543819755125,-0.16859559006878808,-0.1812490530212331,-0.3469975460793875,-0.16941897521319627,0.5547591089708149,0.20089607542644387,0.05937315207110037,0.13115677895823986,-0.08174461713524037,-0.06655952055335161,0.17595030776147303,0.009466071779908322,-0.16200104540419037,-0.10987508165372381,-0.043998863470674959,-0.008077223706090696,0.028098397635674085,-0.012534988499369744,-0.1857489222240288,-0.30829302819036727,-0.2078045498451538,-0.2454934972134424,-0.25216166869458819,-0.23948681849724039,-0.040787917933218207,-0.10467255181523334,0.13442591946266753,-0.029854713578615367,-0.0992975874116211,0.006815310919964676,0.1263146469565926,0.06529941880753085,-0.08490471140196976,-0.12836542889537365,-0.0995089870951732,0.021933696696321445,0.06108139255848917,0.018405453294373786,0.06520765861598917,-0.1542765770261386,0.04482471900390487,-0.3423908479570595,-0.43937325409223856,-0.667584318162817,-0.2608816118193318,-0.2734397565404764,-0.1583287753157429,0.18322064795089586,-0.12387376493353347,0.19556584660007746,0.12140391307523839,0.07279829654270773,0.006446335506601863,-0.11342262853302618,-0.1741756215177858,-0.06905585693660943,0.16635431981753666,0.11038418975613838,-0.07633255976305926,-0.05639523978858336,-0.028282340086292859,-0.06074436960154282,-0.3448558881940641,-0.4077891998360252,-0.060689022842364079,-0.23938484461705787,-0.3631567431537563,-0.13240016627496088,-0.023882805343627149,-0.12244451787215836,-0.03578978791090612,-0.06643210518094489,-0.0758352903521038,-0.033193422742455919,-0.039812387394195267,0.045400486921550988,0.027152618240670426,-0.06643720497623849,0.021836828395976037,0.14552617431283389,0.2940095918477049,0.1455041792074766,0.2301614797469938,0.28794749738008226,0.029908819632500969,0.006801066920882283,-0.11448991411467753,-0.3634344739543963,-0.24506403478423653,-0.4662723468151932,-0.4169004568175278,-0.3830683360721248,0.007016901043009472,0.10997673261820416,0.04441733799524965,-0.030157154039197319,-0.021191807541736299,0.002169480047637082,0.09281510912374716,0.15565077044252599,0.35947847673126018,0.4076900639100226,0.504169946385272,0.3165792249957351,0.3259462725995228,-0.047368507612242278,0.002927143825802723,-0.007895137726953616,-0.13970852325215919,-0.3510062457267409,-0.1699091858753478,-0.08534207415010059,-0.04476893173890888,-0.021299154313650417,-0.0973546341555755,0.04971816038104129,0.0009473714132603594,0.016239126893955914,0.049551195705986008,0.17215391701673389,0.3490363052517135,0.3763550046175729,0.34394620210531098,0.22890854720187388,0.0034206282264201859,0.14099786988609337,0.12166313803519673,-0.1105471932012643,-0.03816936698971779,-0.12835429434674096,0.01708878039243707,-0.05756060719350075,-0.1217327962206091,-0.025442219518100604,-0.13537708223858795,-0.013214759833112468,-0.008317074392956573,0.013330329596212165,0.008661214551215453,0.033407037988233,0.12084862278152059,0.23965801773797933,0.07005357541533328,0.03986704999231665,-0.02794300691423148,0.03357932945231877,-0.11640838869869476,-0.1288700862427633,-0.10535762235275773,-0.059344876994392118,-0.005042906359036243,-0.07258657947441404,-0.04973783488197953,-0.04708188960067814,-0.05880359143888534,0.04568337314174306,0.019973217383319486,0.0391394882633328,0.1354480237727841,0.2166031497946206,0.15930681680965473,0.13579861479586959,0.23377967802708414,-0.11266218563178858,-0.22686307362748182,-0.1488090377900789,-0.010728486290134634,-0.07903950707507585,-0.24632796799282317,-0.033180167263939238,0.04017653156847495,-0.08649268661089336,-0.12445058200090706,-0.15559619598576147,0.17406199775024035,-0.043370850077695168,0.08472723159074931,-0.036911633959126787,0.17166346113716172,0.03560048090228716,0.2275120189227118,0.16864541192029307,-0.052494980406624539,-0.09620974200747998,-0.10476750818602652,0.11510024326036675,0.08855976617394482,0.011617996064776433,0.0019388710654574765,-0.07486677173498453,0.1713139028090054,-0.016052443478477907,0.014277381899034688,-0.036371863036435799,-0.032588484459479479,0.007409405327731745,-0.07498233206986975,-0.03870347307789333,0.025330052133570269,0.11766449857157557,0.2051110710841343,-0.007017389707694556,-0.034521608601109528,-0.08314033945419107,-0.05306680087690509,-0.01025796306287095,-0.01074319169618776,0.17591239620178618,0.06393171268831559,0.16941478060914273,0.04388639713323322,0.13443308816647568,0.018255820245273555,0.05714199740690455,0.044393852116962399,0.06819773006137992,-0.01839487339940873,0.07653843700746505,0.06462258893624931,0.035863810068914089,0.10653853940345626,-0.020492114302886834,-0.05170665249746778,-0.018189013165049896,-0.06500670350424255,-0.21321680115584197,0.005717007828198344,0.1679334522873658,0.16316397455774779,0.15753934380772934,0.148768896761863,0.1896526789269763,0.17653352844482218,0.013404104102301005,0.026393889004154116,0.06733228967215087,-0.04628180468104064,0.08427457272154405,0.07284133621204654,0.10072913783029225,0.07896558090316708,-0.004966784064089937,-0.004872676361764705,-0.135154059409692,-0.09219076170948233,-0.03340156225794965,-0.038832488536986769,0.04686628878565944,0.09405106261462477,0.09894986509011969,-0.010332535470249158,0.06938321445501156,0.08869107888063026,0.09995237497927993,0.14583638800471256,-0.021524518781036288,-0.03967495112835809,-0.004561504052479842,0.13064887622510183,0.0180432807044607,0.052261368557325379,0.08821327803785745,0.06939085103737738,0.007710523113380672,0.004287185755981131,0.03989649782274394,0.09740160047344408,0.10761484388533804,0.0332140549317402,0.07909390938568814,0.08902512963571598,0.09938386453093258,0.06529334549465472,0.15664368257917472,0.00673562066079658,0.01638796145595625,0.04870438418670991,-0.024237503475979608,-0.13205571625745556,0.05919010806134311,-0.1661510147818692,0.01117948764552666,-0.0467459703489635,0.06659097966787509,-0.03920135823197278,-0.03627726324351688,0.04483905100163121,0.10068860789072187,-0.04793043137304338,-0.0424232989266578,-0.0009524266399668626,-0.0672169787107847,-0.004945630018179585,0.044432534313128799,0.06866256704773144,0.07017798116236905,-0.026848587269709329,0.03425887609816607,-0.04093205997363423,-0.050378157505247388,0.0021826358912900719,-0.07840436747733776,-0.03345248462591207,0.010031163550778847,0.1098452608107758,-0.01499586061568014,0.001270168148255702,0.0002600582902879437,-0.06659746418114263,0.04166001375104259,-0.12117644515562406,0.0019361169378940182,-0.019721842558566108,0.015270110184710235,0.10029871090534444,-0.0021995787764958784,0.05189816447532858,0.0098102193362722,-0.0400886523005423,0.002800549057247927,-0.057024261650706706,-0.04453952148820027,-0.07373414588990023,-0.05661649697994165,-0.0015703121096213883,-0.010531828125392837,-0.12544922791456016,-0.032755266282189627,-0.07697575047654849,0.04564463721319868,0.008790178362909263,0.07805153527081525,-0.034752741726353477,0.006406415327594866,0.020276869289352789,-0.0348896789899297,-0.010779742415890338,-0.012246740983598005,-0.10177011845300593,0.04208557822606882,0.02430165330492434,0.07249750350810144,0.0755265940112986,-0.04606279748596169,-0.02810751916234693,-0.11680112506111486,-0.09683942771567698,-0.034209728379183197,0.05855449842755611,0.023160245363612904,-0.06933051564030907,0.0386429486944004,-0.09574383596232766,-0.10019712538878667,0.0725575913527158,0.04149066807384073,-0.08901784097786021,0.007791831778249296,0.008938226644379205,-0.02416073495673945,-0.12850404905311875,0.033332220980585077,-0.034160335330497757,-0.12448828180924816,-0.02245187997656717,-0.05601920686277667,-0.06985753346091978,0.02793808174069906,-0.01647882109460773,-0.00021398802605314271,-0.009825614855475024,-0.1295697432712544,-0.09133389968299713,0.039342844309590997,0.006039314618230225,0.014035143510971597,0.10869628830526677,0.04105591805177573,-0.11226253197357104,0.02717858513543357,-0.0380669786278559,-0.011364117948261824,-0.08916063060925092,-0.19953659198881269,-0.0547405671069662,-0.046058667155719188,0.027803083825566196,0.12358333222105508,0.14097463958849683,0.0408349927501081,-0.017770395552532755,-0.06782388751319497,-0.14048528079363924,-0.018911894309120753,-0.03984531495413317,-0.034808230532111007,0.06000385785791834,-0.008043994985368104,-0.054303527400092557,-0.022191007151320626,0.01647657095381875,-0.024996983950986305,-0.06421191695464133,-0.07585978240572106,0.040109289866113267,0.04163386807091448,0.054807087402220778,0.09838901592373135,0.01818366383170464,0.1504523104871189,-0.04866635180718371,-0.05471542866049648,-0.03673050839435437,-0.012381474061951857,-0.042858895492201818,0.01570519387930168,-0.0006086522083878923,0.01945432899605975,-0.09126810653923316,-0.016837415430439513,-0.019205753139567354,-0.03960512294067227,-0.0128122393780591,-0.017672894065293055,-0.03754757991472776,-0.022570218658803807,0.13776816916620855,-0.07630639463782059,-0.0024314056606182345,0.13145214160283925,-0.032044845478716058,0.0798984837130467,-0.03842896734424789,-0.04774793174046342,-0.016836916024760459,-0.04866002585930611,-0.05267786223117108,-0.08303764350854502,-0.04944863524448561,0.021070654485651449,0.01241269664265085,0.0579365996191706,0.08483910818662727,0.20607488493961505,0.23344536441190545,0.20173396111840118,-0.011245874497326758,-0.06734896724669531,-0.14216287699379188,0.0016384969496666474,0.1206217193161254,-0.006710243401195593,-0.016387245744058436,-0.008343225430367172,0.04048559679672274,-0.012070016462907034,0.02455434011792014,-0.1076224867462112,-0.06613579064246797,0.0014107185679492739,0.0706488663454515,-0.041531380538515,-0.07171341303423895,-0.0050929494121678309,0.10914156617068026,-0.022276018415088508,-0.1313067839936794,-0.10152225361929046,-0.050748799339163808,0.012217366439392879,0.18448889141152254,0.07411214392920718,-0.03601398542851255,0.026399778590280925,0.01179042500496839,0.028533144539107669,-0.05461902815482062,-0.12359724981953427,-0.017890845480514677,0.029355264043823247,-0.01738093952433084,-0.02875530099171616,-0.12361851608565237,0.030257049067985078,0.027784869823295968,-0.03310408179857294,-0.1527785710682481,-0.11794439534419084,0.04948856713084963,0.15713040059644907,0.1695406614305149,0.05026514437349665,-0.013783284597724558,-0.002242078432925384,0.06864871121320529,0.05103640758957488,0.023700661194087388,-0.05090939460522321,-0.14937447221598938,0.0046085206389052889,-0.0326996700411282,-0.05274189639348218,-0.05107431286014063,-0.0590033804863906,0.11572731335859558,-0.07123780273626947,-0.1274779897147803,-0.27115344562202589,-0.020344819101944239,0.09928821433968667,0.11130665291583088,0.10229522126161657,-0.0009086770982488576,0.05772017616403659,-0.0018307263161610589,0.0036517426881165855,0.030778341068352756,-0.03328159747270973,-0.007297893912561272,-0.03436549434195656,-0.05947478773978278,-0.0047437928667716168,-0.05369068079051604,-0.020314063020274735,0.019177428732053304,-0.04029777499348023,-0.09729852805434354,-0.15266887108780809,-0.010756320948913353,0.07202636171436919,0.06704210679679841,0.03913188455058063,0.03179756486651033,0.007624517710230466,-0.029455396942847824,-0.013889655101753253,0.05672857669462203,0.0027378700160984755,-0.08288534224367882,-0.06716992228605075,-0.0885084315624475,-0.03939476701429077,0.08319273629544483,-0.02768346288445571,0.07288768366429277,0.046244015495357119,-0.010933215935421169,-0.048695474161084457,0.0546986203384373,0.04800564143699638,-0.052985178799645208,-0.011972635244323217,-0.012650334319884287,-0.010672886660953753,-0.0063374976263804879,-0.05969411784008923,-0.06030681640272265,0.030416343742622206,0.017095753385333646,-0.017469974496072937,-0.1650569821038212,-0.013654399833939802,-0.008869917655602293,0.007214982551331884,0.057962765116892547,0.02708820197829252,0.11905641608707955,0.051890302644106846,0.07790202947903084,0.05709738569971504,-0.0710872994840821,0.003681695632634481,-0.06895804680860568,-0.044985868724930638,0.03878136567290727,0.014948729683989797,-0.043648637008519789,0.008147159562026456,-0.013262277830134275,-0.027209583286771884,0.009280829796982027,-0.09211426976455464,-0.025849737124014076,-0.01861988528703676,0.042326559134197239,0.08320492952484418,0.08059322813739867,0.06748924199578639,0.02650877957792901,0.03638177895002915,-0.09410047608975643,-0.06190057558732293,-0.06343700033939402,-0.03869662864835589,-0.0039756936920758,0.016934277421197118,0.022771164204624034,0.02451526386563832,-0.003951414664500857,-0.012399826519592449,-0.02847668080432859,-0.16250814873544887,-0.01446469204856568,-0.006220372721107467,0.021576997865518686,0.0844756314069771,-0.06867152942400494,0.11334304871800202,0.03398089475364183,-0.15956587349567376,0.012154392302508088,-0.010266089605352578,0.056497713245463297,-0.027049293165266085,-0.0722162417102052,-0.029443577929611669,-0.03513809515012742,-0.05603932133281255,-0.06578355372069718,-0.0335670521605483,0.04852777628664202,-0.008457908608500299,-0.044932240022921999,-0.01733927164132077,-0.05672801051678549,0.05217902863737482,-0.018221463313246378,-0.0020339529249671685,0.002966471869843729,0.021458214418012157,-0.016268445652747995,0.022338813180588347,0.0549950897614737,-0.043997801268410099,-0.025595162131075864,-0.05980854325891814,-0.01735707851616242,-0.010587406740509722,0.005610219814039624,0.03727772004658369,0.07367454782811667,-0.04425894696048658,-0.047712005536281559,0.003166932695099623,-0.030808173649741856,-0.033582483566599308,0.062338110122842498,-0.00938909937507593,0.08788583390257852,-0.04713097264192323,-0.006277369657295651,-0.0550335210799581,-0.0717751399334895,-0.07726249698591817,0.006319154602863915,0.07277912816857632,-0.03905531795673224,-0.011651553932305867,-0.04086438045967619,0.0063432135744719429,0.017204855909426589,-0.024732549294799408,0.03515999685348205,0.08445819777834848,-0.0543516099935638,0.04888366456083786,0.05218323932613487,0.0071047363321866548,-0.033383796496408057,0.05811870174177218,-0.055149501470922689,-0.016168815491760109,-0.12275700394719133,0.06610688276874606,0.033816701103604799,0.004614130567321231,0.0005446905945519873,0.10213900930493518,0.05296659969886329,-0.12223780033176143,0.03673709986888326,0.04470656731377847,-0.013022843132100443,0.021887472206920209,-0.05757036366526266,0.061480887947128647,-0.06057994053500909,-0.03613734126420609,-0.027753222485628835,0.033218173218203968,0.014275151059207899,0.03236814685677064,-0.04743235750467546,0.051414736950350797,0.014842574875226212,-0.009434186789199649,0.10359164703754263,-0.058077268960231357,-0.0758402309773603,-0.04036080064363969,0.02414281941619316,0.046866951280489229,0.001921144026044546,0.09439936705469802,-0.027549022131587568,0.0798800918167506,-0.053271171272311287,0.043208210895882569,-0.13308167149827947,0.08080631803573228,-0.07982937635061609,-0.1442960048984956,-0.1510207457895411,-0.1359004074077895,0.10123895770862165,0.05194982045607165,0.08329577874732659,-0.07870806435288623,0.056810646593665598,-0.022054162806905764,-0.09857131727674873,0.1342896070530857,-0.009295241674848432,-0.060978478462203149,-0.0015415101086835885,-0.00851042062349168,-0.026211076814187184,-0.07349129632255329,-0.031039427844079545,-0.032660982714308537,-0.012156532917334279,-0.06164659724485099,-0.09603864538081493,-0.16454889561421247,0.05040395296856037,-0.03703746176076024,-0.09494097798711254,-0.05491298266668843,0.0014813000512340234,-0.11894352879652068,-0.05844501292038826,0.05718545244456292,0.06936760515909647,0.05339951862158431,0.050318290471966859,-0.04519260405916352,0.06977932915433688,0.08316795165098977,-0.11457352833583215,0.12231823988373522,-0.07730612663548312,-0.07038317567740443,-0.07640236723234195,-0.15383309480901448,-0.03577658417380236,0.045452033455661757,0.038384689349615568,0.09136727364776767,0.10901025712648184,0.04763082377502699,0.07502026461966453,0.2367635083227118,0.08098133156217331,0.2104636704930939,0.2147097629521063,0.059639608432360487,0.02905508780210739,-0.2182023295349778,0.11647440681287201,-0.049504995457132588,0.011934684263696165,0.03226394529592357,-0.0643570189239046,-0.05023872004074116,-0.069019259189482,-0.03456575298457081,-0.04737712703689106,-0.001154339256962492,0.03934813549546555,0.07605151633858878,0.06519858713204271,0.07587196717437947,0.18662465948050808,0.23969565682427694,0.11536944635488725,-0.0614176510567946,0.0819656369460034,0.0755584191622646,0.10185607869791383,0.04256997129778644,-0.026054363538983308,-0.0016576178278313356,0.03181226760376322,-0.08899057703910222,-0.08622635616153517,0.08480534693593769,-0.05733695934846815,-0.0009178145323265476,-0.05595079320459043,0.0984150247951072,0.35845212399903017,0.14920894685589748,0.17010488874379144,0.08259616681757348,-0.046125052647583809,0.01572086189093815,0.21624441574970128,0.22861423251390926,0.07447529176903987,0.20961470309306244,0.03415259597993144,0.023148636927768759,-0.06505597682016734,-0.11804484233220114,0.007108035938347074,0.0016998829746314678,0.052300610254082949,-0.03593108681904973,0.027513830208527099,0.23362270226775623,0.3938203701033081,0.24712073728235255,-0.12120691661259547,-0.07047008798696798,-0.2766066029719074,-0.056550952624304779,-0.07504662993057006,-0.024099066750952505,0.15320172296832067,0.2719687049964418,0.2822600580839306,0.004991901887214432,0.10162816302320056,0.06197676127184358,-0.015681187749300865,-0.0866592204106262,0.033994179572524988,-0.11688882275751968,0.12512781416804642,0.2079775331051598,0.30913352526988188,0.243142582339766,-0.35475620035275787,-0.42047041704754226,-0.42436726044325,-0.1825347694726055,-0.28002086160171227,-0.23337934659384797,0.1383877033089871,0.303650246119276,0.2180507076268219,0.2231917162379457,0.045745390338157439,-0.055684254224756018,-0.06364481081504835,0.026225083178827166,0.10514048803287952,-0.029463022679691678,0.06404877058117527,0.21255310495987896,0.27358141529216198,0.08071635864632075,-0.48217400400906626,-0.4711720045347875,-0.25749919227909276,0.034447557184885829,-0.2864941172800222,-0.21060892956685668,-0.0820129493981242,0.08283251915823277,0.23152692154807542,0.37732324618673249,0.11594862432730241,0.13854607222382679,0.009643262686006328,0.14308919708938606,0.08491988641115932,0.2055732586297959,0.16072931066759967,0.23455714616637836,0.11951198250010925,0.03702824703264316,-0.22891922079560099,-0.28842385819831348,-0.2218348076867561,-0.20025723717261516,-0.1605516006460196,-0.04358529318714534,-0.2176308696787302,-0.2866336656067243,-0.00967786655627618,0.40509530342632196,0.12105102904902905,0.016438066147129984,0.10823015852274543,0.09008102039171157,0.027346005721608194,0.09817727222544492,0.12464270962925503,0.185078910714888,0.2769430429050774,0.031233934372912565,-0.08888590935475988,-0.11331761409217388,-0.12074267818459042,-0.06363532321264684,0.1071504290374256,0.12912876881538477,-0.21237503526732347,-0.42914182705163686,-0.039822244533416737,0.09123603890936019,0.001977550775185675,0.08968911289358178,0.025241838358492413,-0.0337808224105265,-0.11116630070871211,0.006088709079309387,0.13033556436480638,0.30689174550580847,0.2671380518947074,0.21509922548043995,-0.09362643499119529,-0.17490940406542397,-0.046560561852011888,-0.19845072474637519,0.20627486639185403,-0.09481035126014131,-0.3345556725404366,-0.2748367062505111,0.07865254424321976,0.2623246142283252,0.1455427331658129,0.03578228551191421,0.001509412507441367,0.07812496281347578,-0.09495860288553204,-0.08947139662738006,0.09044617060844682,0.1616932128212233,0.31328701911075365,0.22137904360827455,0.018452544632318325,0.0040843122452916629,-0.28379185410074977,-0.051929150160099368,-0.05791171876309313,-0.2607795937540735,-0.3473757020119492,-0.17561022638875999,0.10289405539473298,0.17969444954086734,0.06828422036298068,-0.0698388616896018,-0.019647522229317896,0.03140854222227526,0.01373494976044526,-0.008676887822250408,-0.026563241090250119,0.17658644899354934,0.19769841813894405,0.19144894261972679,0.03803009527976958,0.057905658591084947,-0.1318687082259575,-0.17936478467375245,-0.19615754326268726,-0.31639563765145869,-0.17084790934597889,-0.07771454961780503,0.2222942439843558,0.007633504807067227,0.10918589267380703,0.06611303888292872,-0.07169753356644485,0.090775130956739,0.08783239797859859,0.02572584310194546,0.005522843869358373,0.1138614450241774,0.0028837429098533937,-0.013077019569798683,0.05620938287125777,0.15821139518226794,-0.1197849521456279,-0.14855855485574868,-0.1671877307080614,-0.1309860717428376,-0.2109626133780214,-0.15226268008971784,-0.05753996848023873,-0.026097243199138345,-0.03127570897736347,0.0918175584393316,0.08928114384714753,0.16446927870623488,-0.14346821763888405,-0.031837081093446208,-0.009183188278632326,-0.07127007385189377,0.024400027051430754,0.04598727109760356,0.04999641848393023,0.09852171272216939,0.07443556627872909,-0.1848016865942097,-0.05434658867332054,-0.19073168244645193,-0.18149015571260186,-0.12461727258095022,-0.10003943855842004,-0.07107593274991049,0.04680873550124962,-0.13194654626814879,-0.07051222823233135,0.01680386014785712,-0.14747362472685869,0.0005738925672995578,0.0211222064912124,-0.11263606613124644,-0.0831634364892213,0.0350852521947448,0.05335944815276967,0.1228699712806459,-0.0008457725835091937,0.09281326629851625,-0.06013468114178131,-0.09736654713164568,-0.18943876270350794,-0.14161978467501178,-0.1008884347132979,-0.09031913360682144,-0.09476360118833258,-0.04158594938572603,-0.07989567476118424,-0.12553828902292919,0.071607538809306,-0.04989994759161285,-0.014057326009955846,-0.03615672395463184,0.04785718982764952,0.06412859508783778,0.020231558785403178,-0.04546676597528483,0.015398880242126734,0.10565913949793378,-0.07968283393130532,-0.025470040767257668,0.03796101058305994,-0.20752857274261345,0.002954187440583534,-0.018488277341679423,-0.09898630816397115,-0.01627706217475299,-0.08151024574723874,0.03109365106909879,-0.014356419295721528,0.006721526652033759,0.06154650910997425,-0.017222221024183239,0.11635538989441421,0.03196700688109796,0.060472506354408848,0.011845381308578414,0.01669868041659491,-0.016764551735940455,0.054415559956610768,0.03147802072310805,-0.03751593545032498,0.04848690749071864,-0.11374363448316334,0.049525560740257438,-0.027425328456377616,0.09263548864305987,-0.03948564902197402,-0.02189810772552564,-0.010727566714723487,-0.03529055448047292,-0.08162509737577598,0.027913736642474236,0.1985591240005526,0.051838227725366708,0.048726623346711548,-0.02427605722880746,0.0093902567709046,0.022396922017679647,-0.03759849673111443,-0.08559385404775386,-0.03645603303388646,0.05990994459843138,-0.13548072516721025,0.05459740600675366,-0.0455701572352347,0.0005961414328466517,0.0320354748598751,0.039203270220743529,-0.03329037065578023,0.00945248707924125,0.06410702511714629,-0.04614340637915663,-0.021839872064470028,-0.003336089079453612,-0.06542176222754252,-0.015547564318136,0.05712802224567321,-0.10218468694085395,-0.00771680942970725,-0.09956162611409267,-0.027125851894142816,0.07061917099788083,-0.0800197240147297,0.0064015197046137458,-0.027007943275762403,0.1492187098165032,0.03369715771690109,-0.057002253286323117,0.04071924010040229,-0.06597924186563795,-0.03587482603520098,0.009488284366808781,-0.01719911939932427,0.0010139082000768486,0.03110273128494862,-0.014470028966140364,-0.07978083917430222,-0.08557833320847831,-0.051440289636847987,0.008874204353723242,0.03482473688539435,0.009434060248353914,-0.037374886738370149,-0.00922684332648036,-0.020075555748574639,0.0419465526972888,-0.06872926674439385,-0.027560512725885116,0.019738350648118534,-0.06025029157489176,0.008508560859332501,-0.06873915989819689,-0.01140982145201692,0.02656450562286018,0.0016226967351234683,0.008897250240652072,0.06786783256044411,-0.01247039128850849,0.10893524509557023,0.00782799967797665,0.030754509903629588,0.059538183615414377,0.03792182591502346,0.007476041238575911,-0.019541156439979749,-0.03080483357905375,0.001093819977683711,0.011682557189316278,0.042729858206477139,-0.03938098041570869,0.023943944164344607,0.009790191768928022,-0.03288150036311782,-0.023345318852024564,0.05242236301124275,0.02969704240888045,0.06713034564836282,-0.04610222505144617,0.06270651793670443,-0.0019537354418401977,0.02282553668426192,-0.01469699849443143,-0.12068052108409257,0.04736861256402386,0.09945866154753239,0.060898537055691637,0.003797909461812338,-0.009493150409999823,-0.039070975523917219,0.01343949816248563,-0.10311697127219281,-0.055847002069444828,0.06693659252507534,0.02327880805320799,-0.05477635960973824,-0.102275942815675,-0.0676043115912588,0.018209276200379846,0.025274141103860699,-0.035338284746086367,0.015554215821678923,0.01830642142597474,-0.01012745277547788,0.05743409775923933,0.02435417782472517,-0.02511838567801313,-0.033051164802438189,-0.09092567232687408,0.010376350271139683,0.0653329518609233,-0.061435346228788139,-0.06108701420324999,-0.006550859880776944,0.011725365874965734,-0.04966877123479962,-0.17475100918836185,0.030838669721456614,0.04825313238205984,-0.10413841187876466,0.03209424742176968,0.044319769617694338,-0.008730849666151898,-0.0453201024661158,-0.02035191644095303,-0.023963834987934204,0.05629584309366414,-0.1306345781795995,-0.00951734018564501,0.011371539000651306,0.006708345255760852,-0.06740055874123552,-0.03945286301114619,0.010095864685323952,0.002348996686690719,0.07634926006327325,0.047869731921977468,0.03698929911156897,-0.01685134443949473,-0.024893616271826143,-0.0421583119328008,0.0048931719559572989,-0.0027858726627068175,0.005551006830980109,0.028484312282381256,0.0021436306690608014,0.004885024146859999,-0.041323452232608758,0.05502542386329344,0.048332673445641117,-0.021854726758950624,-0.004483314315992003,0.04258895664794464,-0.027370086033451269,0.023789326495859396,-0.016642463645024386,0.04688751891516273,-0.012430229551109135,0.04353510122971721,-0.03276955256251871,0.022994419646566543,0.02124963154546076,-0.012133136650942303,-0.004414861960838854,0.002685730484836012,0.00429059181450325,0.023313652873410259,0.002620681737235729,-0.11010437890064452,-0.00035738786505760554,-0.07083890981915908,-0.037728039107304437,-0.012696345843097208,-0.07111032381787554,-0.05204249530381907,-0.05193731159463753,0.015690093667268143,0.03157074725432569,-0.1303542791955073,-0.013522940887324366,-0.050669243139451636,0.014363929490680914,0.07413179750361486,-0.017788718840382926,-0.021696037868137845,-0.006072832253097857,0.03479280152079057,0.005316383289178712,0.0526084523186741,-0.04202314780115638,0.022692554150249668,-0.016105396091644253,-0.018797162413349608,-0.061684619100029,-0.043834680595098058,-0.06554662374462525,-0.049650948792927387,-0.0048326669179413,-0.11052677335179812,-0.011077987879656089,-0.00023705114151394808,-0.09008213790875643,-0.05524526790817539,-0.03899219008117942,-0.024325217993776239,0.043593615650517229,0.002134646183422217,-0.06454041904167483,0.018564076050124929,0.10299950514217256,-0.04548590531076608,-0.05621193042286739,-0.04694708578363646,0.04193635071958462,0.010022102319477701,0.024781909190993425,-0.029174050194827683,0.04063511451844863,-0.038132651862177447,-0.06468379986247902,0.04835850495413338,-0.08152805080556155,0.04939294352556722,-0.017234427577073259,0.0008210923467819096,-0.028372368206107266,-0.0633342542964108,0.03354648118445904,-0.04917314487947619,0.012529422708413448,-0.04624796058269778,0.029536341532349108,-0.023929389937269033,0.007071454202066868,-0.017708022141534969,-0.003596300705345965,-0.014584120316161123,-0.06849935947966987,0.05488769625393352,-0.045558901486740358,0.10155169571311548,0.04585162586553718,-0.1204700755133402,0.055653206058887298,-0.04152227070183997,0.014876708363524659,0.006441207683176098,0.03643334463902399,-0.060336310430485009,-0.048656748263368587,-0.05362853329058292,-0.06866310703308173,0.08479440955949896,-0.02493066061069651,0.0891213560390856,-0.0392290973838264,-0.047875700974162268,0.0032690468416904465,0.05383279799380702,-0.022647960234181455,-0.10109676374940772,-0.09299880438861395,-0.04895877384282696,0.026434532196288424,-0.030848855132229969,-0.02669337630105913,0.07835347030403187,-0.036029816288429838,-0.018501524719994057,0.019611288731989433,0.04312489816717504,-0.02308420325761817,0.022916675612696736,-0.06006468428305758,0.029556975755529573,0.015182959210123625,0.010704137782751967,0.05305911493620309,0.022647709472855449,-0.014881402458739216,-0.10920658018668116,-0.11404240671287111,0.01894500235302589,0.02773357709997099,-0.01647879615124498,-0.010749054010922358,0.015013895306536124,-0.004591439073155533,-0.021876165403736687,-0.012964193634377883,0.03015768617275615,0.007936110818898062,0.0067592194432382949,0.07831679711608278,0.006201922092391206,0.030258329695360524,0.03287393344273336,-0.09263862308152439,-0.04207832839381012,-0.024829593441891536,0.015233134955731354,0.035298056654232159,-0.040382359251930618,-0.010137249016548954,0.0012639306390529284,-0.047233396967751108,-0.03166799123074293,0.0646940932373434,-0.0026398160573601928,-0.08117983761482095,-0.008948188427913432,0.020018860418199039,0.014830380245431128,0.005729504351891357,0.004512323107857935,0.011561975108729243,-0.02761052610833099,-0.05140182695801109,-0.06221650787309201,-0.057193925260848429,-0.059623451355254427,0.010086473782462004,-0.054916315998336889,-0.002434525327857171,0.008411600699539807,-0.05206548010352034,-0.07609320865744279,-0.06033634030894442,-0.08659729981234135,-0.04846022734554303,0.01960712571814959,0.015599066684027058,0.03322883324339978,0.0012118529267515998,-0.006987668801666333,-0.061510553273821929,-0.027757760899612014,-0.019858243311959454,-0.10457805807654691,0.008371845482091179,-0.007150714403751118,-0.0777180179901039,0.09147855642497895,-0.01549681632911656,0.09325667303179183,0.03619187806989325,0.03126680656591713,-0.024690758439154863,0.027600808166719956,-0.04789152628876859,-0.0052064971474565639,0.05148308229505416,0.036244938154473969,-0.021243619880237747,0.030436403997644795,-0.04064007074467743,0.01222900485496626,0.0423589307382595,-0.05377824370694034,-0.006800617525675282,-0.09597727313242496,0.06078862141463714,-0.0566106579068322,0.007427406231489031,-0.004963594055929504,0.048895845715302758,-0.0013039670608974664,0.10819229290349462,0.023094203870717458,0.026187786927123984,-0.002626886101828568,0.10664796629118617,-0.0008803748316486744,0.015352323314825377,0.05975739301026512,-0.0008013606703704218,0.017677132637595334,-0.003892752426164492,-0.0488420582595321,0.025027523821926316,0.06292721691163129,-0.019480223709584654,-0.05019339222785403,-0.03499024499176781,-0.02723603584160202,-0.02230321030676976,0.006183565171963443,0.05586725623972591,0.037442873486387289,-0.01696336562907174,0.010646792626785055,0.04441280939761547,-0.017324288548924966,0.011332754986278575,0.022428367713543529,0.026867115663161246,-0.039667414362952128,-0.0452626782401836,-0.07016726526668592,0.02204287601458458,-0.052727551137531847,-0.028193528409080756,-0.0869277020059696,-0.03438641330000295,-0.007711929784788377,-0.029234404699826859,0.00024867664691286684,-0.07895105672173923,0.07190014901638686,-0.05263723807931401,0.0007476589771982543,0.12042772465145847,0.0088680419905522,0.048706314426908838,0.0056678002644913309,0.020390307559184734,0.0115705253614914,-0.04782174420092947,0.013281822968963129,0.0059429265709343048,-0.016772998994841836,-0.0022148903203573885,0.030239287001552718,0.05908234635660166,0.045393766640472798,0.03337961421997182,0.012930924816885407,-0.039146385447648538,0.02758695746805052,-0.087466408245334,0.01425531007895636,0.016528951201319469,0.057650114552938457,0.03361371529187685,0.020111511164798914,-0.03409909435947663,-0.06874625218234544,-0.07904537556624239,-0.0029164341176176856,0.012640828787227733,-0.012221773591258397,-0.04060772484946993,-0.05742639826407962,0.010547172416056098,0.07740521168846855,0.008245863645808609,0.07442006269827063,0.010145875298851868,-0.029335325392548705,0.0031797310409167626,-0.09611676773170609,0.05853224802894451,-0.016138459081744717,0.04046610714416139,0.03730599030246729,0.12432622213053939,-0.05889873864965897,0.0785846931795503,0.004242224433254555,-0.12886858133847418,-0.03949268222872947,0.05300628308790773,0.027431431775528486,0.03584129384087803,0.09304337095606913,0.1323340690089699,0.04175826227007196,0.023418436965437208,-0.04863347627878054,-0.011050843276712894,-0.03143632539345598,-0.05379626451804778,0.003957901877615413,0.04003034842922781,-0.08248692743301198,0.07064915008945602,-0.08451058508980958,0.0668956853142165,0.05330290377646612,0.012685476448039258,-0.005230529697165307,-0.05368586632984699,0.124616156097786,0.2133647044446219,-0.01334210301981944,0.04357906425591589,0.07041949370051499,0.036215089159245938,0.1860028951143578,0.012457735821902417,0.01155334047669567,0.05176379005090074,-0.039939348073224228,-0.05864696927584936,-0.23432247280736347,0.05090819521542191,0.1536895001045203,0.12838160953151749,-0.023230257272502408,-0.03280126010773205,-0.11213417508113152,-0.02414609469558239,0.05201457717721922,0.04271868425010121,0.04756524857402324,0.10098514093621577,0.1734599349836047,-0.008427938181097633,0.067846803227187,-0.08027980892552805,0.042952097447816157,0.03322717881040839,-0.1251277723337244,-0.15589501716974572,-0.09543597037086553,0.020788856281386809,0.06753445875928518,-0.026371534356388835,-0.18193963586360319,-0.061859227759308018,-0.06648378727175265,-0.053187841972663799,-0.04153601676197055,0.044444117602552988,-0.1212580218367902,0.04979180136954256,0.10979536953655184,0.14647915132398868,-0.008395080277517916,-0.00014117100583336666,0.06472412859753568,-0.015531606511443345,0.09646528955042695,-0.15063294629022917,0.0015612523079702253,0.10478425618803633,-0.06177725214482283,-0.12659045037202888,-0.10958801412484681,0.010778615354343926,0.034328672797930778,-0.02056994066407027,-0.05516571284245885,-0.05934769768513846,0.14037546887709569,0.061219803333232927,0.01782410825010273,0.08790775181401928,0.028526294495450027,-0.011505667123432323,-0.003881330917187262,-0.0008977073701535473,-0.09875005223055043,-0.24221066136778586,-0.07899844895807798,0.03766723579135639,-0.12329497491861898,-0.3704619863044594,-0.03760314597441148,0.07404646417134239,0.07445245376166829,0.15811109066669613,-0.28041346027049876,-0.08324829155233882,0.10110764191540955,0.19977333074289509,0.10040868696518604,0.03500470126459888,0.06459172357656905,0.04495482508615272,-0.015608851727084155,0.01489923009814186,0.0022384218018583685,-0.13470753588532045,0.052169522154171237,0.12290359681343322,-0.10322580981146322,-0.30429440350637668,0.017823154221553188,0.13413807135266574,0.2650077969914564,0.0789187569408913,-0.004394892443018252,0.03922793959509042,0.17633496712367276,0.18318457464171543,0.02957131916834647,0.061321625868487748,0.0019507513686741257,0.028571400657568175,0.01699914047358578,0.050041085901291217,-0.08823229738535848,-0.15472493739490429,-0.05205858006074149,0.17713291883633015,-0.08248258403744567,-0.2966654938492647,-0.015758167015257224,0.0009867844634874539,0.07406730691431522,-0.037866497770636827,0.038041897425123347,-0.0013614976611551358,0.21728562321303417,0.1422624251494084,0.10876620561182854,-0.014070789554797124,0.04318401155752913,0.10601611599134334,0.04155184215007938,0.13575898797723874,-0.07663205908148269,-0.032508361200801919,-0.23327137184906264,0.006166669175843659,-0.10966012773522678,-0.29133019429428627,-0.19025997627381292,0.012233088137521949,-0.03491696465004505,0.07256827830721081,0.08740783587386589,0.1747521330597559,0.19798664272271569,0.08086941668449775,0.04062069832596734,-0.008717966777415876,-0.019040944330830743,0.1564258837454552,0.04686536890272051,0.12072790557868044,0.0330186836654314,0.04428927577983258,-0.1875738368139867,-0.138034801541761,-0.13041576992275956,-0.042509376860804897,0.01721127049892081,0.1029139426320293,0.28600464270811679,0.10088171337535938,0.15834397328671674,0.03207391231730978,0.1316923942627514,0.08638543945154627,-0.04824150770508297,0.0018945530150969693,0.10739468065097159,0.07286338213878167,0.029833829704339185,-0.047554216658289977,0.03978919325496588,0.10469929539467919,-0.0030300312661709529,-0.1746912408991468,-0.07405001956997581,0.2315679795923818,0.2742582479232514,0.1767998988213379,0.21109660343394943,0.1928181207734265,0.005993062201550225,0.014867413873247965,0.1303764290105247,0.01747914035932136,-0.01924665193471289,-0.05820114661353336,-0.0054315523771586,-0.0504264848073063,0.09344385611726686,0.008179502294385962,0.020823165813116639,0.008644505221557499,0.08564298341719662,0.08138677875190577,0.09278017111346557,0.18728133827284644,0.028398945274670064,0.09077568274553002,0.14364413716165995,0.08546908239046895,0.03142633572043553,-0.03413193394252208,-0.0585645335511597,-0.012972612469617017,0.03041745483823824,-0.047968047595054939,0.022206263754029198,0.07181565863602688,-0.019732600904429334,0.013962499415943375,-0.05075391315130261,0.051493121017496489,0.025435678652810265,0.20976572806502528,0.1924021756672904,0.09522281731385755,0.19780732575630972,0.08363481716313197,0.1719270240310004,0.18879612181635647,-0.008017927072378605,0.004555783384441541,0.06725488028303779,0.1044177288050119,-0.02493435209653409,-0.004113805766164898,0.12202033826378768,0.18551932746747328,0.05197116158022333,-0.01009358526851962,0.04335206855548263,0.0006551594289023095,0.06807055156674086,0.2041138568063404,0.13126461141980565,0.07089916625327358,0.21723145392111119,0.15916850830227206,0.01901810296119418,-0.01487364985602648,-0.17975181983927844,-0.022143780258771646,-0.03147221009798172,0.04865141928090301,0.0027034501328914758,0.06187362276876468,-0.011009340002859924,0.1196587256653832,0.07753885977640167,0.025616153868538974,0.01866147206285091,0.035237049733697779,-0.005731327463904529,0.15146863543911405,0.10719425469242197,0.07048946699842757,0.09082823464822834,0.15174592558216169,-0.058000707165402617,-0.16508941573488396,-0.00045146032264773366,-0.001468730662715539,0.00665558497412969,-0.007775797057145342,0.04916252864079177,0.03570765465133385,0.024442941999960774,0.12039531157912376,0.07705201865724776,0.06598975396225002,0.0342676816717645,-0.024895651680823865,-0.05930762559857477,0.0575744725199685,0.016847467945460209,0.0074438246116446328,0.05583537562808687,0.03554382947253758,-0.03240388540773429,-0.12068725212693583,0.010017839698372713,-0.01658104973080236,0.05836779222122206,-0.03407629029378044,-0.07948844324141592,0.013316422738163249,0.03536700027812761,0.006975063740901965,-0.09445570973104385,-0.0984423002448654,0.03675149958433729,-0.04507132174799504,0.024872646798126859,-0.11613271050462322,-0.08879289748461508,-0.017909536028425375,-0.0014372958028175966,0.0157638404474967,-0.04253397422457498,0.0405622538726825,0.0618034250201943,-0.009053113479776123,-0.027152540930562468,-0.01245347507263861,-0.01225327175416733,-0.06117259455830869,-0.06364940535047487,-0.04026494922907423,0.0446592870412517,0.06299929392757914,0.0014833773634106186,0.09267818356085528,0.11053699305560726,-0.013388415166987454,0.07021798578260914,0.028472608885624835,0.05530512200012692,-0.029913303468067966,0.007632805661400866,-0.023499931613688998,-0.015219176991493217,-0.06767262161221444,0.03668994716118961,0.06669463041043314,0.023380376613495785,0.020691773027527357,-0.008673810188130451,0.09885737114302161,0.013860607582622876,0.15498666892766436,0.1269998132689437,0.07253034006714199,0.03957093229661367,0.04173425277318195,0.11267794995720709,0.06468513936248571,0.07359084190751487,-0.062089212725215347,0.05522803519608693,-0.06604117313036237,0.0006612620022533171,0.01210484395872313,-0.00037526843813601114,0.05701839801730696,0.1588573392948271,0.01996607489221614,0.06430810965769013,0.09605307914899185,0.09983769529856333,-0.013644571482150819,0.039058952409721747,0.0021829348878316019,-0.032783860604368459,0.042218643525145319,-0.023581649531019649,0.038708059906261169,-0.0030308076162983029,0.0010990674596218099,-0.036955188446489487,0.03120274369863794,0.02384518247995906,-0.04050845921679609,0.13194352402400609,0.019043714323847738,0.09610605241206094,0.10859899763956134,-0.08624005785211361,-0.11450817640726936,0.05405464955412396,-0.015567690984411142,-0.03585049138323667,-0.006278725684322243,0.08806153804334832,-0.01730229840087091,-0.043709667110609178,-0.030335904125262757,-0.07194172048680304,-0.06591138742925532,-0.09372882201675757,-0.09215985295871084,-0.057922323905649438,0.14488271939987258,0.1282488084949504,0.07701980480197605,0.03597127190223072,0.07435657268094438,-0.043737104218065429,-0.06845605859866376,-0.014024061882548428,-0.08687847882991863,-0.02874556586447513,0.08413418433788669,-0.06592237573256273,-0.09257596931583204,-0.055348235550221069,-0.05472391442498362,-0.10581606094173915,-0.06339150081348584,0.02925583555892871,-0.0009240886169744529,-0.012673860964500577,0.08533739211946494,0.09590997036915941,0.07242295339698489,0.02319645618337755,-0.017321131854373296,-0.014993970019944826,0.011010366575521133,0.02107590659031312,0.039330046458770109,0.04410228831156523,0.06332451455504722,0.10598316842304267,-0.03164465692090609,-0.027715232753720958,0.09334346953634815,0.06273942082174254,0.0030145191023838466,-0.10794785702148147,-0.04116557405120686,0.027332650237753103,0.012124687598326542,0.11636108702648587,0.10741126535659314,0.07436034624563082,-0.07092446672697019,0.061170066648750059,0.05509882080122689,-0.016588322874316824,-0.006169853457265813,-0.011300611982666973,0.0440566155503363,0.10958402788179213,-0.01894354190237748,-0.006439823494521487,0.15278897087324434,0.2001702788901175,0.28128004679416088,-0.06989794580446021,-0.06011904615425783,-0.01985603235432504,0.018697491201638048,0.07309856267084651,0.04672918149937634,0.02664175947961604,-0.011546510698094676,-0.08037621255641359,-0.014072328544661391,0.045257198319855748,-0.039917881475922869,0.012685274251426371,0.016403559354093147,0.07510640677372733,0.01395984100691555,0.07539284943085123,0.09297539557129636,0.09510428248207419,0.137375375941498,-0.05368750328652039,-0.1760679262244981,-0.2568305178767907,-0.03628420610204896,-0.03479230393958798,0.13021492388780737,0.0451810974245708,0.00816861442169436,-0.027749849562244787,-0.0021101833850626138,0.07753838152056454,0.04424534660032915,0.11654942903173103,0.0016172789650642332,-0.1347391346431061,-0.11449981668204056,-0.008723831275713348,0.12746890638930659,0.05940113024641776,-0.028967860673733405,0.02104381350217073,-0.2292488451646868,-0.21917363247694017,-0.04764600311730183,-0.05866685197342437,0.050141142956947108,0.06156172901302621,0.010487952707955915,-0.04817353398199067,0.07659102965319267,-0.0026266414198563776,-0.008225362214355315,-0.10066058676223018,-0.004253259026650994,-0.15022554663028124,-0.17379328805645467,0.015519547706758612,0.026179772004715185,-0.10916366678014264,-0.058193086590696548,-0.17692282848429292,-0.12118512385826239,-0.2917277209460552,-0.1014361455752683,0.08258626089594563,-0.017508517971124166,-0.11134976669809271,-0.13750636489949728,-0.050678483107084577,-0.16322189622950768,-0.06133315963543346,-0.05796055650870606,-0.05646088883779706,-0.0014002578296942036,-0.1383557148692639,-0.003984206555158249,-0.03554678741191445,0.04173480200124308,-0.08423869097162061,-0.11020101402369025,-0.17693424632675976,-0.17399570756541919,-0.19288160296837288,-0.07314990379127054,-0.11261004587255574,-0.06470607113204516,-0.047263898442601998,-0.033108914662829957,-0.054763801964993277,-0.023859508130889455,-0.04137078049361539,0.019388025498421576,-0.035378212692994178,0.007595422666669119,0.02754972944131009,0.10431478252300083,0.025676783958739768,0.16729668364596307,0.023656078869334138,0.10800762139240748,-0.01959746332745917,-0.014651279115996567,0.0793717165807723,0.12380287350330796,0.05535214356342229,-0.06102621620245813,-0.017594537776651599,-0.06581452843939356,-0.0252990503709638,-0.084943776485469,0.0534394435440164,-0.03477138200448019,-0.13802165831278519,-0.03350346203934027,0.11816624315853926,0.12269465426035385,0.08212286625693223,0.06899494257741697,0.139993597416067,0.21545885140182725,0.12923976433063665,0.17365012806213629,-0.0009502912955341198,0.09865648488607877,-0.02977211391156254,-0.0867329930244796,-0.06458022905103458,-0.12462667083848991,-0.057423821193734837,0.0832083126150789,0.030719378547508517,-0.04288891333917093,0.02736054177214351,-0.07400513099713319,0.12882531148055435,0.08161213683717243,0.03950414307031446,-0.018485473719228947,0.036375194833500778,0.217581154212036,0.14728578633675555,0.1216436490118908,-0.007385649088091495,-0.0460346903064303,-0.02880592008122308,-0.0780152813113348,-0.03353424117327146,-0.02990219298672765,0.04527127535685742,-0.027087942939586587,-0.007332065465680365,-0.05634016737833783,-0.022813478788500074,0.009810564841909108,0.043383485021251059,0.01018891789166854,0.02801055850019178,-0.02118875740407583,-0.10214267791537996,0.027353172228900718,0.13078366527139333,0.03291228386621889,-0.05977135844052276,-0.0013358399007065039,-0.09116576834148563,-0.09473588587357235,-0.007251493905610936,0.05975499626633032,-0.05179951508260751,0.03632374638787399,-0.059598827897178758,-0.01602896721838383,0.07322355126410832,0.0907302599243519,-0.030147655998477134,0.011407296385748422,0.10702813334413693,-0.12074917349647752,0.019146695722133824,-0.05191621766117138,0.04147686024567755,0.08753649144959255,0.07329704994194435,-0.048062205100528419,0.01739832001345299,0.04300354967962226,0.01598696053361278,-0.05156540775067429,-0.011873940639850294,0.010045083697992216,-0.011034487113482057,0.020130887264284616,0.04699123382130717,0.025077962284456174,-0.015319824905780004,0.060836970018856077,-0.014020316303923742,-0.0585831127271844,-0.023258506981774883,0.03104398163032457,0.06952890567634718,0.13107490232170874,0.13464532284170706,0.09028871001766545,0.017413499594991674,0.05137116184980179,0.07242469332514737,0.04071810258740638,0.08099140947997656,0.0017299664312464627,0.03992104714856761,0.030985469100850657,-0.026482492390578463,-0.021222612078908993,0.01700261068609589,0.07342030695405251,-0.021259154990580229,-0.04475775128778535,0.040532529241584108,-0.007315755786426119,-0.023889235504308244,0.04925819472666674,0.03991561025023694,-0.011215342532509852,0.0233982696348008,0.046553773646344529,0.014358699739292434,0.029501624255905798,0.050826539726745948,0.04327166883475653,0.033463415924547188,0.05312118512986982,-0.020367908499874057,0.07114925874430951,0.019696789787801696,0.026333088183103597,-0.07611314870092495,0.0645215689242984,-0.10464996316533346,-0.07232006180449907,-0.007006377952574411,0.04379755221273288,0.025998045884931089,0.05214583318293947,0.017249361155216488,0.11429178201108868,0.046073974788574088,0.007008467035460017,0.07920351992846366,0.03259047250914344,-0.029195978179802567,0.05207979743073682,-0.023453038118505643,0.012221972750332296,0.008212342022490976,0.062338346171237259,0.03925247744477141,0.0969979107057471,-0.06392150899513446,0.005006127591629192,0.07537657393760598,0.00905600314355944,0.037463190296084209,-0.030895288155734888,-0.04860877298753558,0.007199843431031495,0.004318231040505518,0.016737058652209165,-0.07525996940251778,-0.0155132398520017,0.06293978256880956,0.07527644058151102,0.004135704813143638,-0.08770349999760878,0.03732377261869096,-0.045614797536687467,0.006633615126809947,-0.0298077118047888,0.0800400832793263,-0.04875154757514414,-0.09516335924879023,0.02287922692079099,-0.08644422007083148,0.02738171757023562,0.19823124451445763,0.04825385343166584,0.023456453691070208,0.028851931317009223,-0.05355553733062824,-0.08462276732427557,0.17563065208819973,0.18416880692398403,0.004568026755816755,-0.007410764371768579,0.01255357152563136,0.07854044566656297,-0.011359472056702845,-0.027711105131023304,0.021840849384561858,0.043381090407339378,-0.03708189767607228,0.004661005646298541,0.10538923156698493,0.21936122978829149,0.10966268728635093,0.09096374202688043,0.08413387822707137,-0.012187150178155415,0.09212693161274316,0.032161306205693598,0.2207616981738527,0.10936404910100016,0.05796032341001722,-0.033671318792215989,-0.07700373873986538,0.06593185559435992,0.03446191321261864,0.0390033541101046,-0.038077992764513107,-0.04774279029881015,-0.12006156860027131,-0.03565749122511922,0.1431211597540894,0.11367149701980771,0.16088941927218726,0.032205703650244287,0.10841035054760584,-0.03745897968394189,-0.04217242072443512,0.06533226979115683,0.07773924159234272,0.0540672967227022,0.014765269233237044,0.009299214177145186,-0.09041413159824202,0.04223088292962703,0.07065051142029105,-0.01279618986365247,-0.045923740519884997,-0.207606747756289,-0.23388338378005239,-0.09816145067673517,-0.013039561749434348,0.16465381900280336,0.19376020230450936,0.19058572909982267,0.05618113021646281,0.011835705254142506,-0.13632647843523258,-0.05289290661066553,-0.005961961638337624,0.016388043703459897,-0.00027355193272744104,0.015562742828985938,-0.024583919700647599,0.15836194080277428,0.043396178206818927,-0.032327823255905937,-0.03988243722535704,-0.20616127333461449,-0.30664010354836648,-0.06882668224861509,-0.03976627845484223,0.06843884889942768,0.12262152402137783,0.10032818479302468,0.019370646540498066,-0.026122353248239334,0.00520601469082227,0.06645902110324063,0.06932323517096015,-0.009962601211442797,-0.03232996647608558,0.028318676718136507,-0.036349379960579058,-0.03454192007420586,0.05830360065421603,-0.0238922770952459,-0.032123676256950218,-0.060196917726647949,-0.1941121863429181,-0.2564882517667281,-0.30437445366293178,-0.1117855892973258,-0.10465284541223377,-0.0289303814546875,0.1053595046327006,-0.10092680786624708,0.04072362441817362,0.08136731644306122,-0.006308228908892211,-0.05356523220707215,0.06553834189133665,0.15937636785966304,0.13458788520660459,0.06301375361708192,-0.029989470043782327,-0.0696536860257261,-0.06523835363622757,0.0884526812461015,0.0038699991198452496,-0.3215241668372139,-0.19545234126101419,-0.03946716908971855,-0.09644662319000708,0.10929362964475385,0.17942189303892853,0.029802179144183886,0.06169878745665975,0.013610835370340198,-0.01969722710447361,-0.03622360006502803,0.1451418763567587,0.19059992255003503,0.4088091274740687,0.24278712677466239,-0.04634417923587432,0.09589866288263564,-0.06414323245601665,-0.13143378183742714,0.012034387107082961,-0.02979239294424443,-0.21152547982572543,-0.07839964699108576,-0.05192048469630777,0.13020408147936528,0.16470899793177574,0.08342569693281434,-0.03625454669848911,-0.14369914298551199,-0.13610853844028548,-0.1264774570501018,0.01761313346911509,0.20399780839347604,0.324652970422913,0.13719811053782855,-0.03228613944604417,0.2771482864198391,0.09040612885837775,0.013898401565648207,-0.12750218667609729,-0.09125247656606106,-0.10564581879347222,-0.1455899553433436,-0.0403060915760589,0.19867240131850154,0.05431688938050746,0.2705167467482921,0.022168334345826374,-0.03954580707360887,-0.07767172191310053,-0.08248903099262857,0.03315350272364053,0.07894834175011796,0.29836654437537077,0.3713484458742994,0.04841976255951093,0.1524853215260769,0.004575366340105631,-0.1260706179893265,-0.23876949388200106,-0.10533036061024372,-0.39546275693099205,-0.20998364364389564,0.13416802417918845,0.13485795707046534,0.1065973837885585,0.13617419996781514,-0.023918145855404764,-0.05503439123890575,-0.14992074109513063,-0.016665696655992058,-0.1941488185976886,0.2013465462523747,0.3048894556985792,0.25947933390034169,-0.056230598084809287,0.03395874456784983,-0.10198863299757143,-0.2718743094722975,-0.014120281264746427,0.09012825251773622,-0.4084099613263542,-0.3082904169150059,0.07193578896278147,0.10964582178222106,-0.015271775394788502,0.06560275438491936,0.03736692220281156,-0.06764406998808598,-0.09932029643062027,-0.01305831683941125,0.015641761172299444,0.13539037697471147,0.07130257831969232,0.050826340517482668,0.04805898438455928,0.20226768482526254,-0.09162868261301455,-0.33138851637554797,0.10481161668772844,0.13276388073623916,-0.4053598544700728,-0.3883753543780676,0.04257745285924571,0.045623910737041629,0.07937062195138577,0.06919363568655422,-0.05669365867432692,-0.0875167337858616,0.025542095396418279,0.024328373624204447,-0.014543303595453116,0.20002116763669104,-0.07130799920396633,-0.058962738476615077,0.20089771339562813,0.16098123894984649,-0.011753389974505457,0.10685848810881352,0.2872041316380221,-0.1262043496094616,-0.506113044279138,-0.2668215236424346,0.061048423191663838,0.0914440890556811,-0.009461605995699877,-0.0557183583180293,0.05671238139452358,-0.11871230712427254,0.029958286065948214,0.06676388988762559,0.0607377156817326,0.16118146335026929,0.1252882545355279,0.07374001759994768,0.3609701563600426,0.2834197934913132,0.32463538393958715,0.364261294480907,0.1554863568927362,-0.24610050517790126,-0.4982184561695118,-0.0951815891611604,0.1601633596477925,0.08673595968628439,-0.005141224034836983,-0.1243815771327317,0.1434900957606085,-0.11179444597205572,-0.1421288217427004,-0.1519647530988919,-0.020561653758833288,0.0007447142469259124,0.18561023182470716,0.06515355089820937,0.24872626570904494,0.2282501151113607,0.334683268995155,0.2907240280355483,-0.0016272670521182752,-0.1672953712207877,-0.1826941364720806,0.015586117872683216,0.09685291373432366,0.025209973176153253,0.024450654149588099,0.06293746319309862,0.044531727859615437,-0.01932819032136092,-0.1680582959387832,-0.08338434649615546,-0.026239848656892649,-0.05483119799178889,-0.05385304803997412,0.05677841425822004,0.07877825840561018,0.1065890259905696,0.31952496624486279,0.20377367081365906,0.1279983714424742,-0.13318834381604084,-0.12175190927719408,0.016639982509556347,0.07790453216824137,0.17736085300175506,0.10523524603209683,0.024278366132758464,-0.02357062462754171,0.12299940995189773,0.048186294863446988,-0.02633405417600564,-0.0048320454316266889,-0.011769054766281626,-0.043825426397809948,0.07778179132593202,0.1735219779580938,0.09629028613436483,0.16270291393087056,0.20221628574092405,0.1314323372543444,-0.06644938112308253,-0.14964634760857335,-0.04550907619450067,0.13896201113454718,0.06900391496469344,-0.0031374560997627415,0.08321916868912358,0.018484756089102874,0.06824092352385723,0.0998001209785768,-0.05683936936264504,-0.044962335537421706,-0.12307754587553568,0.008142257417376084,0.1570012736756979,0.061814805490073298,0.10561130653107814,0.2098323589672153,0.1266689839488862,0.06479582223438339,-0.06167330100973433,-0.1659480059273258,-0.05054620754343991,-0.023410890388705826,-0.016023548813499139,0.038874509443720148,-0.02038958418368556,-0.05281097058076805,0.16128320772443159,0.06999697420239978,0.02092611939525214,-0.14521615428248176,-0.08936065684032114,0.006989822991695048,0.04427705499600808,-0.10160358907295207,0.026296404390298724,-0.024928515464151175,0.026532949887270227,0.09095458348906774,-0.05225688815244,-0.1050683397547125,-0.15799555009801717,-0.03344363245921525,0.013097821013559662,0.012777247971885555,-0.05853205009059383,0.035507529607697669,0.12580278087204406,0.021274963106639168,-0.07888873520458834,0.04100041865738033,-0.029122464707891466,0.004559215816812845,0.10447472087805016,0.033443275944685029,0.037298606649508788,-0.0552464292741429,-0.05793947051736176,-0.08584364535722825,0.03123086837375638,0.01988076948833534,0.09047043546111373,-0.0028904382563909928,0.08458540305948605,-0.07654301118989782,0.007733816461606056,-0.06152331034232505,-0.04585534875593189,0.008188634373087679,-0.04412927544385697,-0.07725065844349986,0.056392918593081247,0.020119501964685504,-0.06197306037699965,0.08962475153848773,-0.1310911683298843,-0.13578941127378517,-0.030571402543745193,-0.03790521602244155,-0.22314153816760097,-0.02450786332905512,-0.10133744493209862,-0.1209791000156838,-0.10084458826847029,-0.055179875744747187,-0.031344307614277849,0.033606732591586859,-0.11560138736799149,0.014692294803532267,-0.1708075367093155,-0.178297273416977,-0.1886983416900107,-0.06570262572433784,0.0015232029749859093,-0.17053136112996476,-0.16384554203016978,-0.07959761075982341,0.005122171632534878,-0.2802103599230809,-0.1988822002721729,-0.19893979359079343,-0.225473513041628,-0.20065168103204804,-0.030349625004252834,-0.12781960622038697,