{"layerSizes":[400,128,10],"connections":[{"weights":[-0.02188633172422918,0.0006289612000009698,-0.007928138084298728,0.029776483442491749,0.08428569395475283,-0.012506906302182541,0.05575673166857239,-0.013721852420402584,0.03916625585660713,0.027845432900945847,0.015617063643337599,0.06828385736617392,0.004234639677100801,0.07244871312035026,0.0851086246960329,0.005747774013241866,-0.062196927920325429,-0.016808704204923594,0.07494000965112885,-0.006128961483834765,-0.02041114738384474,0.09180804284906442,-0.05458874470067248,-0.024547412830587965,0.029254802712946807,-0.10708118657441492,0.019843064277479378,-0.004062905181199846,0.010360966973870014,0.06773255174235045,-0.02363156838840961,-0.027631019107258699,0.036265407132513517,0.08711579315428793,0.10852607669209086,0.061278942204696238,-0.0012479275378704494,-0.042781674324701587,-0.041434447258180389,0.02162436012266574,0.050484339824234728,0.030533015536079484,-0.08928359278299648,-0.011292982479387086,0.007540452291532714,-0.08777975484221018,-0.03576945770369285,-0.10396590939586698,-0.011378309771611403,-0.05992853868762532,-0.0006528368425009414,-0.000825496076556453,0.07435632229610796,0.055775728494210658,0.014610760984727602,0.024234604296439839,0.019251197334075506,-0.038906477409602357,-0.03728818193161601,-0.070944781059064,0.01931301512060619,0.049812394597348517,-0.002535178474850439,-0.018172586627097976,-0.09925381351314597,-0.040740471083995127,-0.08236822225525477,0.03412232410520296,0.03488418763773681,0.011167729390784792,0.0917380236691157,0.054220839308106078,0.11207743328526025,0.06536077652031769,0.09760763284659711,0.05591334155214618,0.055038539306052947,0.040616285216600139,-0.08920076796512958,-0.007332640409761851,0.007773165918413884,0.017009762684235539,0.06777128519522599,-0.022392419974141793,-0.057104184712070248,-0.11498261044764985,-0.06030074450796776,-0.008724598835018237,0.11253057929796576,0.07254066815406503,0.020997422932566263,0.017812069726942729,0.08667132027844318,0.021662514570544444,-0.020842404807178268,0.0787112878684311,0.03479039719319356,0.032670365554254527,0.007117284488681552,-0.039410095144842959,-0.03848684789298164,-0.0012614069878956443,-0.0133442561632117,-0.0027906842711202764,-0.06468894285788744,-0.07612822993184436,0.04627296254641948,0.000006668706160851834,0.08941686439692218,0.09868020997462954,0.10313571077423248,0.048652524362621647,0.02973549101887953,0.024516681036398724,0.024176923893604743,0.0387804416962214,0.061152574757325679,0.1096662166654623,-0.026965987257495807,-0.020835838885629469,0.021059791473983178,0.027238103313482546,0.045310984494555128,-0.11572131704316412,-0.05385065842724382,-0.03813315881540049,-0.0524722445772146,0.009941157714068581,0.04805400291687099,0.12885400489791719,0.06177867710791614,0.09715595572001759,0.14874781060854964,0.11253739190598243,-0.0032697443961628728,-0.0476638156447726,-0.030480561439359914,-0.06918483260325556,0.04939267998241353,-0.1259772010677489,-0.022482833887968798,0.01978844276197623,-0.00009056700724217217,-0.05558594161804796,-0.08175672884969834,-0.050631016291202788,-0.10306943403166273,-0.042574296513499847,0.059901885141835208,0.08143314090482892,0.07689917622913462,0.024654969799267028,0.02596749261589661,-0.011762897451824654,-0.04685956187932634,-0.01367482869716161,0.014078622022940885,0.0258140917847157,0.04620874486850381,-0.03942311434349207,0.03331929058567235,0.004234596151797874,-0.14745391019892963,-0.129999323917432,-0.13644330963882166,-0.09090095240658139,-0.06306642047385663,0.03706052865059039,0.09565652776394732,0.08936024347965527,0.039369668899788847,-0.0069394356054207529,0.04544206410872011,-0.020511391552292047,-0.04964671400323781,-0.08769621677556416,-0.023128876472707756,0.030456430103739379,0.03494881836350019,-0.030456518766795717,0.03689222474206219,0.1261823499118059,-0.09218994075969449,-0.026370731879204594,0.013820190451075878,0.051062643590270569,-0.017809448218042095,0.011732976039692986,0.07246065968149693,0.03636647065753598,-0.020392159423788814,0.07361566601081429,0.20163437324770715,0.11336738732418984,0.013318790374802436,-0.07141691662165137,-0.045358186099620018,0.02337105043589817,-0.06810446875016596,-0.06396217803627558,0.009356698428467809,0.004648033739506691,-0.10082455587155444,-0.050186220477278099,-0.014387631232456505,0.032338136805869468,0.10077741084196275,0.04085549073028506,0.12619971134591793,-0.005571496110923276,0.04512010596211193,0.10187552753809892,0.12952927903185025,0.12188598654372567,-0.02674278461669969,-0.10098423760636292,-0.016310344060881424,-0.009888041857657996,-0.06460917683317248,-0.1384419274981239,-0.061091156352276586,0.08313145070930087,0.09729249067844168,0.1292553445608247,-0.03614593309369033,0.01932535709388564,0.08849394865293527,0.09362044121271882,0.048306632526723559,-0.008873377218330479,0.056274052544362188,0.07500258759681203,0.17310119232727048,-0.15316481326068283,-0.0021671425164884459,0.012068871342029546,0.06963720956791274,-0.0488292824281609,-0.036924347793037878,-0.022780249957535988,0.006566164795005968,0.08963725756180058,0.002576892472778525,0.016918405991494427,0.055521350022988889,-0.02678243820469409,0.12406578920685045,0.05726857233555659,-0.0042745612581570079,-0.015417523369769457,0.09446099143705389,0.033883318508061758,-0.006875180149014107,-0.0036805032471478734,0.14064248167586244,0.13124992341400303,0.055948595867246,-0.09572426638145124,-0.10150741663998324,-0.07963217077976864,0.030497900210560596,0.016246729884768903,-0.02625367939548552,0.05999502374911974,0.05600776259779726,-0.06509799304626086,0.053135153253091777,-0.008249616696142116,-0.04332849099838756,-0.058782543720876347,0.03245444405173169,0.0066353045314736769,0.01778648021711595,-0.024519817655528458,0.03918311493555546,0.09275375568635903,0.001375890924599827,-0.05386407953375749,-0.13732550173722264,-0.035069443665169338,-0.0071657246521206539,-0.0535358646668933,-0.054041586585894699,-0.020600805152045,-0.017878992992365333,-0.02790242276924105,-0.03603462476541714,-0.11454885352831193,-0.025819142300469595,0.004143965202094468,-0.02425039524793811,-0.013802979597277898,0.0048210370928034609,0.03748093200927398,0.05784167260389834,0.002320513358045062,0.023241203366358069,-0.027596169903992854,-0.024110713965011189,0.014065865897298313,-0.03274005928530977,0.008027742363628759,-0.048998212111035038,-0.10055653238841797,-0.07834564209545585,-0.014767930243935003,-0.0687164856342031,-0.05746353798087177,0.02322118071787541,-0.07803574990264262,0.05596800104529875,0.014778295321838253,0.045745952981235748,0.08226709518149182,0.028611879802656387,0.05585930605988009,0.06287435401434724,0.03444340108762666,0.0540058728279209,-0.0034295673447668924,-0.02908765822925948,0.008838000724088958,-0.01511057119587782,0.024133329378672878,-0.08767244124941158,-0.0452034013014362,-0.010489594156265495,0.0006141150704931146,0.012398946067477535,-0.042022135283569909,0.04939946922193214,-0.01069896412575494,0.01098272342420739,0.10075903920859812,0.11362206136099978,-0.012798042443881384,0.09274116271456728,0.05479284173102049,0.08737625272395508,-0.014531956363624902,-0.04987037975696929,-0.041073049839599,0.00585964645320217,0.09562343940632555,-0.009612416778051995,-0.11398182466562168,0.03473464698409859,-0.07442037714080413,-0.0013753836216588412,-0.09410890110522,0.053306520308314998,0.04621911737107557,-0.017920177117571616,0.0505764569792423,-0.046802044343915698,0.017584319113132044,-0.0036796610442980345,0.06347622795591503,-0.03100426686015807,-0.024727059932861417,-0.039777189601515067,0.02638345865719108,0.07346442612932978,0.10375423919091995,0.07426073045764688,0.010595696596153177,0.03082302910318077,0.04980296502128217,0.036655608988518679,0.024595660894437919,0.10059397466015384,0.08967921210245433,0.07511933802984108,0.004352702659439735,-0.01299165740041597,-0.03166005250623479,0.024679052926411813,-0.0033197869054385428,0.02661915977147586,-0.06606893021028218,0.07121719590261726,-0.028366532545083688,-0.061796598891103868,0.01847701858547005,0.014633628282538865,0.022351471933405355,0.004724386885642655,-0.0359259599207656,0.0380426169182013,0.040880669283609127,0.03091032484077026,-0.00046161180646295903,0.045838790139781027,0.0391042383003424,-0.06640602943187181,0.028062768965941375,0.012793139262311949,0.006194055659470296,-0.0024646287169433646,-0.03216085074917082,0.01085300858807619,0.05251154931733957,0.10631887494581209,0.008731062656282615,-0.0021805992309183884,-0.08988810916055641,-0.08857926259422228,-0.03153294178805564,0.053112901362647287,-0.005306999839518611,-0.02006766805613034,0.020815423063238325,-0.02480631142833938,-0.0007953385624256565,-0.05936449922058997,-0.04193110951926404,-0.022921857804359064,0.009196439608893419,-0.05738471192802446,-0.05994204897893051,0.09044658633400207,0.04661747997558126,0.1430844616960377,0.04299645183941551,-0.025917931566655819,-0.14099271387087795,-0.14056826634373544,-0.1054456195878714,-0.021312312923625299,0.07767115786869579,0.11868128785554406,0.1607467456637885,0.12680955539520276,0.07561741162605418,-0.031214946572468189,0.01934166302670657,-0.03228061811545522,-0.08394543020090994,-0.08958111082656199,-0.034814029663853659,0.1816578522087407,0.1166970088622371,0.07696924817813816,-0.00034207223503760083,-0.017523443310755384,-0.18637975055413293,-0.15470050770358108,-0.1525083572310755,-0.09028932115698309,0.009864361683898678,-0.010978074645032459,0.03681663711053112,-0.027144601082144869,0.02094538269914809,0.04886806301220281,0.030658680291027544,-0.010959281321556452,-0.05473657334600357,-0.08403866096444242,-0.021963812006906167,0.13788894171895284,0.010779156090581544,0.09157706436587555,-0.013707596974857304,0.03231586853141028,-0.13779669672976214,-0.1359094869878992,-0.03241012017262848,-0.13776617361737363,0.047968234293533539,0.09347804292190028,0.010337821607156642,0.03744278517851244,0.029225732917605775,-0.0903398664145176,0.08617071159357938,-0.13043248588424373,-0.14755597690554596,-0.07394050853095681,-0.031092084467414725,0.1395518260084869,0.07479515332476594,0.1280853465799248,0.07390013817742622,-0.10990267315786125,-0.11370714988545044,-0.12392271121334742,-0.10317960634602522,0.024768542657936409,0.06105794637189501,0.017183929622393798,0.046118115846615907,0.09384141868220102,-0.016897094992105869,-0.07989164417021108,-0.12666641441413688,-0.05428447425356652,-0.04673763127157013,-0.0038531329840627819,-0.06266805157951591,0.1391000683582603,0.11527169054577938,0.15650079827611908,0.13745867190417455,0.049594461066046997,-0.16271272039673607,-0.20331474509571857,-0.1117907044184919,-0.04387934581712264,0.12480235876200353,0.1337709517584427,-0.049198367589978368,-0.028896314859479648,-0.13399109853947206,0.024408200826526766,-0.0957473040340553,-0.05584242162394611,-0.07426179585186758,-0.024719189709527853,0.008851921665316206,-0.013682013271366665,0.051277472781832419,0.17539777420540809,0.11948657533052007,0.0773621404836376,-0.019653225471573209,-0.27419349970895187,-0.14209808110335027,-0.07708584294694278,0.10952146868582673,0.04087409548862418,-0.024208120901911307,0.05434782294293888,-0.049777207327513939,-0.009219046573995442,-0.001727493188509934,-0.0851845977280979,-0.11168264100072854,-0.024275339663131187,-0.02491316600099163,0.03943025996697546,-0.024835897156490574,0.13502932162489124,0.033243506828319269,0.053588038605190759,-0.09024355376201727,-0.37132637510620999,-0.17055883392497504,0.1238729249233184,0.009476121211201129,0.007554301364099732,-0.013306154761779283,0.033381287444184119,-0.009484769704231618,-0.0069636555951483589,-0.01895391811801599,-0.09513540675856992,-0.03290951131872342,0.037660334324016848,-0.055570041879027847,0.06769760163218537,0.012619952619536542,0.07728565162485506,0.11546264365950612,0.07297426532192697,-0.16611802753385164,-0.22095960963307346,-0.10528811272938696,-0.010907068353338738,-0.08749728438939088,0.09869710919499318,-0.022243910288930716,-0.10782195956520092,-0.045276754487242627,0.020064251021314658,0.007987676734313308,-0.06399603191008842,0.01340084993021707,-0.023786207353908133,-0.01163649312066195,0.14678892115198789,0.11802995603078144,0.1125598129103172,0.21735072572088189,0.10949394867152003,-0.06611619782131516,-0.1154470909043835,0.013354410138958242,0.060324336753158559,0.0773437449998074,0.034558571543441569,0.01823302147523649,0.07982829771545884,-0.08317167656752604,0.008526649423925172,0.03378546351371341,-0.04088082889572744,0.01681131694560679,-0.021122829311158787,-0.0009911168641249203,0.03260476833322162,0.05699165390624094,0.018452111908890183,0.11043778755259527,-0.009265048819214672,-0.11372548406487886,-0.13390264712668585,-0.08407034022633674,0.021480333672651249,-0.06533548920261181,-0.11284927124994827,-0.06404960167858855,0.026430542398720625,-0.014904864520812972,0.06147089255404392,0.12428337933214073,-0.008597466668087441,0.01407616024809408,-0.06461733133749026,-0.004029251675135489,0.02775551656471839,0.02345453987584194,0.18613750648143188,0.09884892367337583,0.03944579387458543,-0.07915978745513343,-0.18951894988805668,0.053102814495741088,-0.10990427183523556,-0.009217326730276039,-0.028762719981942306,-0.15736255595213759,-0.09772239596926348,-0.008638253920686458,0.017203389323714549,0.029342908033412619,0.08337261017587877,0.0901134216620373,-0.04379868336724927,0.011524297554338519,-0.009226619417917574,0.02394719427876591,0.054885204516955308,0.11171107225509343,0.07081441245198751,0.0020066140635979967,0.0728005367212592,0.036708108985347109,0.0008104451529559939,-0.08483796412393757,-0.061338435956872248,0.03657484121527468,0.05694734126826065,-0.038281860491633217,0.11896358207139635,-0.007330095942661528,-0.07914985619591383,0.07076750294368232,0.09238776132802006,0.07093961362430129,0.03189264568119265,0.06600800907236847,-0.018494355980088339,0.13643949627064387,0.12880952658466533,0.020183193054920235,-0.03377305437367512,0.04727265919834536,0.06123769551700739,-0.0068327547899622,-0.013534753225324485,-0.019921869300086566,-0.06983654943369294,-0.14678292964987217,0.05557534175361615,-0.016190102965695398,-0.12186960256174656,-0.06109614775201471,0.047579397429741047,0.056367304807171027,0.051288269504594228,-0.017781402219457185,-0.006133888029148627,0.12098092978144229,0.040850274143803187,-0.14786520232145174,0.13195085352615402,0.08529247550023826,0.007696287653800198,0.003600936384736352,-0.030745048629460465,-0.07421833622154853,-0.07288891585941093,-0.21838070980575903,0.022760518044332838,0.009422097518829559,-0.016137072531715665,-0.014296879223425933,0.06170602653192892,0.029984084553013429,0.028806848925769816,-0.02934695780589135,-0.050299073353540089,0.042506425647440549,0.006689746098260751,-0.02911507919878627,-0.020600061442836046,0.0067533065163225759,0.06930738526117092,-0.0044296410663001209,0.040674760874306169,-0.03956793930562659,-0.08943642005274168,-0.10818146876575977,0.04972965360114233,-0.0190600525590016,-0.02282834491804171,-0.05139338512292391,0.04488048423925173,-0.013849785632189091,0.032465450151595878,0.035226410224988537,0.05190509842844277,-0.005078960075109919,-0.02304546624098866,0.01902664216621322,0.07265543514120182,0.08904596321653234,0.010431110555262972,0.05991845872627421,0.08617706304127622,-0.11232978633766699,-0.03810514927791595,-0.04550599199909867,0.017378601911990766,-0.0382930402836997,0.08111350104902056,0.029600546542613908,0.05062668167727119,-0.05482470921975083,-0.007287648749612166,0.048862904177703777,0.06862815960892659,-0.044950631588660017,0.04721133973500748,-0.05221540765591946,-0.06336258699250264,0.061026672098195299,0.1745379366889287,0.10914005877960495,0.11361190790986949,0.03315877861060667,-0.023731108666130698,0.0033773163023784848,-0.015746776974143018,-0.12422790045909217,0.031318291992104469,0.008085144249861027,0.010814772408337255,-0.04040212233389262,0.008476804575039384,0.07033876348037269,0.01843843209687997,0.027390741494717209,-0.03332920252773163,0.006981857181638185,0.024764811402273155,-0.04155852878003508,0.07299718750973113,0.010616591513950143,-0.018028209343264286,-0.0029993653408752235,-0.09086896703597829,-0.06912885453145866,-0.09522684544543489,-0.06536652831725996,-0.027523897243439133,0.0019450773773151578,-0.02723966629156051,-0.04619693610496483,0.0087813917390341,-0.03248345560004145,0.019418897818814355,0.016797548370426235,0.01060703308554265,0.04819376917549749,0.0421331835757248,0.002049097996649522,-0.03887965445000425,-0.01803928627466848,-0.046660519768827877,0.043970410100340879,-0.07207200207458645,0.006595623275166613,-0.010815919876097074,-0.01601565354656334,0.022501672230467189,0.0020467493159342759,0.0641821343256854,0.0052604168697747929,-0.026439711004857103,-0.05760474629899592,-0.017688068901498417,0.008984585231428776,-0.04392253938648131,-0.024589678766273286,-0.024737134679976747,0.005284175380774483,0.003163837052675515,0.11134162204259644,-0.036530813972780917,0.03674717945332801,0.023417070563091136,-0.008724876555955394,-0.03354061568576889,0.03655626261160907,-0.025203498539633729,-0.02882755744057269,-0.006698549083354681,0.005687960085764144,-0.00205224042301865,-0.005812136175385197,-0.05362828206848664,-0.09124862679696978,0.020447309746588716,-0.0036369797336604726,-0.06665086263464752,0.07210678890027463,-0.02124194166774884,0.05567962593864014,-0.019308377965852397,0.019577842872808235,0.01887133727119044,-0.016560902852320603,-0.10938326479136007,0.019171774901058325,0.00630990822556464,0.055247962256614099,0.05736314539767063,-0.03931572426361973,0.03144936300913082,-0.007389763303210768,-0.0578261490550143,-0.07592659149715737,-0.006473860453589947,-0.04378828482806237,-0.030553954988069753,-0.08902178784672128,-0.05930839795171681,-0.06854984055318198,0.026196516569388443,-0.13919338601789375,-0.016915101509943767,-0.10768699876435468,-0.0870025212113373,0.029229475840424018,0.07831859251574976,0.10830812498315393,0.07746031182650069,0.00024596342778945043,0.047793356278611798,-0.00910697971162485,-0.03372073505326863,-0.030531986278057124,-0.03312729781520094,0.06850463867766589,-0.11024439896305652,-0.04124132598205497,-0.028316083722592954,-0.071995688398893,-0.08695074889158484,-0.08543444399045386,-0.025273454239588157,-0.048168686722558449,0.06355439742306672,0.03456525014383549,0.022996096993437903,0.009347239675129592,0.059773120429092229,0.06795175590815171,0.0019573923755595134,0.09469067139408041,0.08498425662740962,0.0752820578168685,0.02572254170828126,0.08578073583293718,0.052103244541373588,-0.054192256523985297,-0.0550626022456914,-0.14073564313507917,-0.11534431179856683,0.006071849387914971,-0.03378364618308842,-0.06647962586534967,0.07531455498527089,-0.007281756687944568,0.05775815603076339,0.04154018855777167,0.0019646229127250767,0.011571916855934547,0.05543761756588107,0.09942867747100523,-0.008206400204316405,0.024136552002765177,0.06623858541544196,0.10332538927133345,0.12199428858793755,0.023567350122073947,-0.054008336463956797,-0.10712917014458837,-0.023798801437627208,-0.08061136106200519,-0.0561267582552791,-0.12465696273192825,0.035551173244169387,0.05005992075964759,0.03742589293459002,-0.009379753046829342,0.07291049996932224,0.04214714139346958,0.12152028414558462,0.09610653451072134,0.08605746338197097,0.015945116035333667,0.048095485637709867,0.040769664941311709,0.035528541351765498,0.137951274423009,0.0052277675309042,-0.1288179839152045,-0.08945200513371891,-0.11500409411675303,-0.07285721009806788,0.013949151761498523,0.036988590219093269,0.05624733362669253,0.11203352737652586,-0.03872534051691661,0.12466299615008174,-0.009229825066283537,0.07108611527956528,0.06290914094553657,0.06239487632372457,-0.01588599141729415,-0.08081169333106993,0.02805159580577942,0.0358717589374663,0.09157685628984462,0.09328483687057629,-0.007852112013737423,-0.16627848917268812,-0.17133719763318484,-0.0665556798096955,0.09342104811070368,-0.02686113278671669,0.11377915483464334,0.07906456016819151,-0.006201256309780029,0.06645509642246415,0.0014474321857795895,-0.012890308181017083,0.04237675758242899,-0.02166290965712887,0.013828496761664733,0.002310553273756753,-0.01810081292886709,0.08764498664235382,0.1020055165710437,0.13189437702709515,0.04530619130138568,-0.0011733783291873496,-0.09616225052306725,0.020789631878347794,-0.04995540624128476,0.05496748196598181,0.04859033297091607,0.05391431132399564,-0.009003669905971023,0.02284609990693263,-0.06694529798725139,0.09938711994227817,0.035946339669376218,0.01518836889544248,-0.04621632909184573,0.027252357321566828,0.04370419615432032,0.0074724495261032628,-0.033274172258744277,-0.042738153201195779,0.0749906306681288,0.07986487921609315,0.0570121028984588,-0.005578244752578946,0.020795328396680546,0.0588243498979631,0.002228837283561606,0.012220270989083418,-0.016241839443481028,-0.04658023585845565,-0.033709294258992248,-0.008193400305506582,0.06254834471127442,0.002876822824579782,-0.02187937131250033,0.03783227763648293,-0.010441898945430625,0.037671735671707329,0.06329090741706148,0.04447220857541977,0.0020085054187019399,0.06511503847003492,0.11314144541211893,-0.0804296215768295,-0.030011399341596337,0.01762586050727536,0.01696833661216674,0.043822927146869309,0.028573260991583778,0.03467061369789897,0.013373437890002465,-0.041842823871498829,0.04352047895544824,0.08737523182339682,0.10268947261168449,0.07322738480381279,0.030207229469593496,0.09417905024002317,0.031171176146179408,0.04972797643488752,-0.07509976421013591,0.029552629482447438,0.05911720676094338,0.05352520714572429,0.024594344452489267,0.08746779758530773,-0.04442992948053929,0.10499146781036682,0.06306312613494882,-0.0030159498510285655,-0.038361667191747,-0.06665052279939482,0.004407401677522259,-0.04161861281099436,0.08421083498562318,0.025322379678624719,-0.01775093037167442,0.002248915812199571,0.041222237718719089,0.002625341819304022,0.03386172444369915,0.12311261354751659,0.04450290116759648,-0.06904810239133763,0.07203522524793178,0.05704911813177914,0.14595681728399155,-0.016377202152253239,0.011341876870988708,-0.046702591874111309,-0.01638494057187872,-0.06250741595569372,0.06657040413173936,0.024506094385385807,-0.08541408352653549,0.020293521950029176,-0.05939472617834243,-0.010935706454610197,-0.06414513758637144,-0.06546006236451349,-0.08751309340013529,-0.010480977567440925,0.07388209310925903,0.011922988341702027,0.07182994030201673,0.1462085535844793,0.19005009751665442,0.04200163458387288,-0.046832119692965978,-0.004359444505436437,-0.04479672093753322,-0.03301159429366122,-0.08563802184524254,0.0210984081507711,0.0022276499143531137,0.02242332566978613,0.016084437243413027,-0.09474627801221106,-0.09700656312751109,-0.07525093229732115,-0.04252768302386457,-0.02659980495779946,0.05382128451711334,0.08074774364499013,0.04986281775147643,0.07561564874209725,0.1300740824243811,-0.021951978107020516,0.04742130353454099,0.00265947430278746,0.020830744333776284,0.030592089566668896,-0.0798390420055929,-0.040557077868331067,0.03574589165129091,0.030317838863477395,0.03789576947418502,-0.11648445552368174,-0.10020526399946646,-0.04876113523500658,-0.019429164330391357,-0.06241196400886821,0.0690773131377795,0.11527436634486012,0.08313357290358159,0.06220723406312661,0.023969394798245153,0.06817694696188241,0.0640179883020732,0.058225419114509877,-0.010740103229071206,0.0029197247160735637,-0.05631202476049268,-0.0972341410217119,-0.10088044114387869,-0.04784653083335436,-0.03819388776639573,-0.06880627488225533,-0.041232814605677559,-0.08263352301885585,-0.10763664572796501,-0.05393025659926796,-0.015437624909725329,0.04937265564396917,0.06784382901544565,0.0679942575748573,0.12104102413068702,0.0577839010984544,0.04876035976756156,-0.019336288336465475,0.04647537726347568,0.03211244699245227,-0.06745534801344615,-0.02967165052279096,-0.06268706765553292,-0.08625978881391007,-0.03584922295880006,-0.0259320158553599,-0.012499564870431269,-0.060141080875883639,-0.045362006930656017,-0.07636643445918448,-0.011174352258106537,0.017242360549539067,0.04687942673728788,0.0012275349312563889,0.056793913751450587,0.05913181094725193,0.002941993766086402,-0.04510206382433041,-0.015487362353632319,0.007103434762209168,-0.05034401516781357,0.0026486967719881735,0.0213488262009376,0.03499427408404139,-0.06262453843847478,-0.09333747915410319,-0.013172245921651064,-0.046932229003474459,-0.053060957052434607,-0.05656027364383179,0.01896706602413486,0.0319602573969746,0.02105395250469521,0.04524808668735328,0.034775689536870147,0.0905052374174138,0.004162766316415656,0.04108162333234272,0.03229862721117626,0.022404085780248385,-0.011043148621614607,0.03184716645408639,-0.03101300217162576,-0.02048370521106964,0.02801766161655002,-0.026903290466562019,-0.007381765355958932,0.009866566332360999,0.06162210013124917,-0.012145604189360384,-0.012143702147100406,0.08031983060828928,0.0058576913153847039,-0.0016421928761063616,-0.012164656351912957,0.0568185541731331,0.02516509587519434,0.010808996359626443,0.033686836286713418,0.021381572610492368,-0.10015092787659515,-0.02683464755586958,0.01838451799345415,-0.07340344645966879,0.052600745789291369,-0.12340846977784929,-0.003806984208906866,0.08465464760868487,0.022500554629612144,0.04088908920377215,0.08077643637095954,0.06308371568135392,0.03484739217785412,0.05373758421203439,-0.022317982434728966,0.03289490423118278,0.028837814969207698,-0.02320786120153357,0.015895617678267295,-0.054241027212211839,-0.018919734834891626,0.04935258660345289,-0.0939635253109798,0.016281617164862016,0.04322844254397222,0.0027677811866049959,0.0328786285340652,0.06183048520223409,0.026554740911788323,0.05937750435308728,0.03578202484164158,0.06922145481526027,0.11017497055740598,-0.01905376103043929,-0.03937586445251684,-0.058329607246668368,0.07321322000609602,-0.012777461985514162,0.03097744206220867,-0.015884281287167305,-0.014600909117148039,0.04300465254002395,0.004013019484047363,0.0456965702531641,-0.0119255145378214,0.04190455648776776,-0.027028396865277965,-0.026533899509363084,-0.04951913961005325,0.006019513204153931,0.06412468366159856,0.014665646442314393,0.05921431042461495,0.026991106475931418,0.15644025670773446,0.048390740571232809,-0.03883766445870793,0.01826194215399451,-0.060505011896660739,-0.0023659966917056786,0.009554232577277489,0.11972390516597252,0.0915808978495198,-0.06025536044112434,-0.0423223896290071,0.01762871111444507,-0.084636669507804,-0.06469187208639522,-0.01269439303630363,-0.07314924751344497,-0.08806483705023355,-0.09136957953907758,0.03599911854570338,0.011667912281767508,0.02600224652860512,-0.02588766005928353,-0.0688625879931093,0.07480384687565357,0.010618062899382487,-0.05693800411122032,-0.054653737742575408,0.11473398329615566,0.08454399264956988,0.056158398205115419,0.1151543267279044,0.02350980208153719,-0.06335373556352875,-0.03522510815223562,0.005287006840741286,-0.15353070473720513,0.008916967588545886,-0.01826060952216926,0.027205490247637116,-0.009264813110662308,-0.04698558742934632,0.059744111063209568,0.059692611196423318,0.02961016820847103,-0.003966629160814423,0.0072971459535855118,0.044831828682405459,0.041031037244799579,0.005942742933753514,-0.06415754791311389,0.07198168406557544,-0.13579065432069255,-0.04518958308259472,-0.031660629968917029,-0.06891753358026175,-0.044326647409699219,0.01299970759344221,-0.08347481022476941,-0.05433335172535515,-0.13498829955039302,0.01986695367871312,-0.02170112933454057,-0.01655875798866983,0.0010740125109096827,-0.05257596797356243,-0.020437014772561495,0.12415263005765703,0.03664894133257501,-0.11076702348709679,-0.10001265952322063,0.06634469525296363,-0.03701635048367977,-0.05308879682577091,-0.037005646551703508,0.1090406344174187,0.018027738036447507,0.06807135931180142,-0.03000513832753651,-0.04261421108879193,-0.0645882446307509,0.03456154309208614,0.0775868341461561,-0.04209093187460459,0.008515774021514915,-0.13162201758004636,-0.06824820262725612,0.1534364775573428,0.1775780357061887,-0.01061707231739474,0.05308213512399735,-0.09021644447238087,0.02350826558697148,0.08167221064541457,0.05005057559968106,0.1550230686216608,0.09972414059704737,0.08046784401360648,0.05514574566300024,0.022769047339853543,0.06847406863832395,-0.028684952258287424,-0.010931047893127049,-0.052747444261054068,0.0038062916887144397,-0.06342005098874644,-0.11630744091080399,0.06867715207611973,0.06445965956086593,0.043693102365402667,0.10235917350445052,-0.013699180271427513,-0.05567744989668714,-0.09767838601273063,-0.1550990608266164,-0.07478830910479595,-0.12113811819509327,-0.12773639265405546,-0.15279063261304985,-0.10119292375631851,-0.061450274782407939,-0.022031219935910567,0.09323896272010234,-0.010681136449968003,-0.14875327990249374,0.0041592428191323678,-0.019530246098958507,0.06475933006536662,0.19100216196391313,0.004119071869243199,0.04163045274305909,0.020844969665663759,-0.055921765774741259,-0.0413261574215842,-0.11515242074458176,-0.08009702890185266,-0.04407424243890091,-0.028215302389813816,-0.13630623013522495,-0.008384115131615695,0.03690648243332077,0.03174713536515027,-0.016870776919352714,0.014026215485504378,-0.05089952784306136,-0.03924367110590838,-0.022202640380765329,0.11976793251407317,0.10050623377245953,0.1504437243371028,0.04452313049545064,0.10996348712269805,-0.07383293030784262,-0.03154610232474764,0.007128741402254636,0.055178487527568129,-0.029135825238208864,-0.09410321599487545,-0.029541808944847603,0.005016923569257732,0.012317730369410699,-0.005678116809884798,0.029255174764681745,0.014147732048705514,-0.08745781319601379,0.010371406019529175,0.0049482371033436789,0.026109685540626948,0.0054734195776233239,-0.04832939259585536,0.06410626483352455,0.03210903975012146,0.06909542676354672,0.055007259841359058,0.0002663470011575072,0.041178799523540417,-0.03779641766765473,-0.022749071846058755,-0.026568991546879494,0.02598919584131218,-0.023005881806790707,0.01578561464283708,-0.04107336842037268,-0.06444034216681614,-0.013878933126409706,0.04664853895908426,0.01545044239854866,0.1731121093041755,0.05027407441711974,0.01054902850812271,0.08591461815351675,0.04187025914193554,0.07978046996014293,0.016095637153332785,-0.09456015753946197,0.0009269643892610038,-0.03476955730381691,-0.09598284441271415,-0.062225259786769657,-0.0615664473353169,0.020344653278244166,-0.10134483651553253,-0.05465658840123496,-0.04669850637960518,0.012915950394785225,0.11722777486764048,0.04155145467292976,0.08122163303541649,0.07021184609972388,-0.02936000869588877,0.056772219736225478,-0.029840825112347394,0.04437889072558544,0.028405203435560697,-0.1046824538210505,-0.06943354232208998,-0.12437890727875523,-0.10145837273502007,-0.046181687772277209,-0.017826079364880216,0.003946665775293577,-0.021755388037181076,-0.07763467803752938,0.005612053427206,0.025496145942419669,0.02462193845199396,0.02807368785140992,0.08562639861260456,0.1223132376768335,0.06936983749312384,-0.04495109075080917,-0.059032749181786688,0.07883237725324187,0.042605774830806557,0.025375130876400463,-0.026709566983404374,-0.050975806058956758,0.03330526242822958,0.03413615136574141,0.012297296248803555,-0.06726678843566662,0.014853455852691048,-0.040288351139703099,0.0027085048952032776,-0.08308774905827073,0.02125503747378874,-0.03894357731683166,-0.06067355255948161,0.08128096970554104,-0.0054094296823209539,0.053069318807015649,-0.05501772671049712,0.03237954272031988,0.038749531173782009,0.0009870386024294935,-0.059694482503463829,-0.016785038329968545,0.09848073161594877,-0.02021175941466049,0.021903821061681415,-0.01794855400789112,0.03200977300394826,-0.021067502385053988,-0.011954541658356463,-0.023998850583036785,0.020445238006516737,-0.023304642605175793,-0.05756810727857548,0.001150529612321625,0.12704890382365909,0.08357149558347817,0.006872571326965534,-0.07895138064946272,0.0378867424569054,-0.018540978018509219,0.028674887308051193,-0.030859505149592786,0.020540719746016315,0.017142856131786054,-0.023634612479551444,-0.023367787933550139,0.0748676955961364,0.029633148299762638,-0.031509398070178776,-0.05993531455871136,0.00903801276920042,-0.03793088234398595,-0.03552114239313114,-0.0002550688153820233,-0.021234011928279715,-0.020137458498227569,0.05951485020031753,-0.009456741419852927,0.061589467252451717,0.0861748334810424,0.04522905571339436,0.06239959930642592,0.016649636828880398,0.003238717820834019,0.000288309723597682,-0.007409984914455376,-0.04039227903791729,-0.008305902034651019,-0.05518903032094694,0.022950022591820455,0.019037519118694707,-0.0020925111316452765,0.013871846066407935,-0.0418679701323232,-0.07970539511358474,-0.05865553885998629,0.07944434677836337,-0.017503760894701887,-0.024369706861441084,0.0027697371699126084,0.06609602950095527,0.009828160989219941,0.003951039616549168,-0.03638937734663858,0.007616086453939982,0.036534164967532287,-0.04173886397474224,-0.02605745784167507,-0.024025519158715107,0.012527977627417737,0.007732338741876994,-0.0477088643755127,0.0019153883688994452,-0.058168398602051796,0.008524082067217897,-0.0209320180935763,-0.011449838953710632,0.0014381181111308599,-0.07241228952656585,-0.042465827970587437,-0.01007621995701749,-0.001037495008894769,0.014754744761210326,-0.01999375600335606,-0.0020647451555009679,0.016263663805776174,0.024658350960324234,-0.004305448098413515,-0.029826350637700045,-0.03237984132951532,-0.011714103510460202,-0.011929424732915214,0.06350962586530122,-0.11047353142243516,-0.011143950129184313,0.0313599192914971,0.10375322482822243,0.10191537998104822,0.004133378915674687,0.06444645600283185,0.00029917036260452087,-0.0015335526271731174,0.018806850813339747,0.016386741379064808,-0.0844497985571722,-0.0182273461114743,0.004024379520791503,-0.10169141357573405,-0.026805303839392705,-0.03413499614934398,-0.03491800413529215,-0.012156355376845786,-0.013951810548384809,-0.0363548240909842,0.051669090778030248,0.09983186221315788,0.1314314944558404,0.0940708447471815,0.006933282813574568,0.04104145266378654,0.04127052445095296,0.06945298276090785,-0.00035838470994296195,-0.010750776098351917,-0.04327255577125368,-0.10259930239351961,-0.041941589302657549,-0.11346661511782107,-0.08481879726634859,-0.11986597481470397,-0.07626115574619531,-0.04818744540228068,-0.027500272036342815,0.010192163007558675,0.04337944518314253,0.10303915229473253,0.17480392523031797,0.09347717990218203,0.1286400917065211,-0.021694103519213478,0.14525028885813519,0.1695598478138324,0.08318774597402466,0.03523395341937922,0.03564967031867104,-0.011686484736371983,-0.0015862002628409648,0.1168467530314727,0.005412102584101479,-0.10855173765469263,-0.03988017649821396,-0.027440135475468899,0.10110775366274443,0.05275170571413392,0.05644658061577704,0.11140584013917966,0.08776019990382722,0.06059085832647762,0.08569869344584928,0.17207014059008084,0.10897991096406845,0.17720403165530267,0.05512618056429285,0.17135544610850524,0.12221203880893093,0.1368963611451901,0.0754851889627282,0.07587463084637052,0.034746775853071839,-0.01972338055913596,-0.01906372740505531,-0.03529888970311694,0.07557556998405142,0.06820441416256563,0.12055327174579936,0.16886484012254633,0.12902715081920916,0.11039114619589721,0.14675009377832555,0.12042429997071878,0.08149080147440248,0.07778101541971579,0.04377533094501469,-0.02282799524736416,0.07844548420670807,0.09393826562062339,0.008895112686360327,0.009853947135666558,0.06106893897199149,-0.03731237814211741,-0.004934917020398167,-0.05003913777234782,0.08215686489859028,0.09536681617087274,0.05624311134002934,0.004433505391834037,0.029917898015403518,0.061069999219764189,0.07355343294175428,0.08518196718258336,0.10789215189513725,0.056436476913932397,0.0306253703503357,0.14999899767914183,0.08567518384814026,0.08141710122421668,0.012457305038357318,0.03585320328013485,0.12299883537339167,0.03420896904439438,-0.007293158335137885,0.016702082621719073,0.08738792721487129,0.05549296266164831,0.04170029470324311,0.0657377731668704,-0.02569204564226883,-0.06109747835402199,-0.06840921952994104,0.0202112575105422,-0.004614401720325764,0.06098491575500408,0.06446270129442391,0.08446966064935585,-0.02285810657874413,0.10983769463782989,0.10579312811695538,0.195526021896955,0.13083302683762838,0.016984857890485339,0.013797285132307765,0.09160742842791352,0.13668052942333323,-0.009533283712110798,0.05424189048356285,0.06957142837899397,-0.04320482284061724,-0.07311419083059971,-0.14445384548628746,-0.08825967075394212,-0.047355390474498468,0.027128580095373876,0.08597501027126095,0.0805630430503342,0.2129768855160522,-0.06248277981067617,0.14668150135953668,-0.02390494955984242,0.04862599474217933,0.054288513988884009,0.010163524095834086,0.07380865089406626,0.10940663787938436,0.098839479436459,-0.06274521726488028,-0.05832056939870227,-0.09236984604680737,-0.19119408748862294,-0.22491785302013676,-0.12447612290204568,-0.07897898576848983,-0.035425137268222,-0.03844377234234477,0.1285709381113256,0.13637502534351579,0.12989440708026216,0.04433558661685671,-0.07543238974696524,-0.09080456913831775,0.011399965847883347,0.05900985673699885,-0.01714409310865663,-0.04396816228081886,0.058811917983048,-0.027999056936408814,-0.015939005591151628,-0.01809447632698318,-0.14945708402705036,-0.14889616581619145,-0.13837138972554795,-0.008402388886175165,-0.03798339436878054,-0.07293558938231679,-0.03524707577177784,0.08925034162397364,0.07266752057889803,-0.014597105262251097,-0.02245460606719579,-0.047067751642836188,-0.08290029295664418,-0.01575525119784364,-0.0625280974519874,0.10583334309617849,-0.006098337146956018,-0.03432330969931216,0.00794763129158732,-0.0360067186321148,-0.11861014702720492,-0.09845332979910279,-0.1390305114006368,-0.06982832737776136,-0.09435928217481693,-0.0980522263299604,-0.11761911041200567,0.04814053303061739,-0.04707684509337966,0.08774772755677043,0.05766939630724594,0.10690635665457492,-0.013646269229188645,-0.07926918694504177,0.08508956855802665,0.044728135694804996,0.004768176689985615,0.006278394617277869,-0.05488397960170086,-0.011281859924467303,0.06492272964988018,-0.0888392547274307,-0.12128152725286606,-0.17173570765559077,-0.021161167630330558,-0.04150656229056338,0.07863515564836142,0.07731419448677517,0.154425592765641,0.019143039887092724,0.03996281747775057,0.051750299606181337,-0.011759623407332682,-0.12704357082662283,-0.01860954450016848,-0.03884547453457499,0.0793262136107975,0.05015772076262137,-0.09444913161214377,-0.07890990676264846,0.01198693143022791,0.0014341402990677947,-0.0898188283606273,-0.08708391198115143,-0.003770659351281077,0.06383354273520575,-0.06950083992025814,-0.0063787591784489759,0.007031328672969509,-0.01674395640061965,0.028157521093560759,-0.03870932506981977,-0.05791725289608884,-0.03457143292219992,-0.10266203220672904,-0.022630629363778376,0.01595444689033129,0.04567801726159036,-0.026254600413539936,0.0026562688160237386,-0.03910563499601308,0.03793706328039771,-0.03358199084779405,-0.06200691709078461,-0.04934730668246746,-0.03720959796941917,-0.10965600355910624,-0.053973943719037329,-0.07218393042237365,0.025435127687238373,0.08834985536862554,-0.012847048785704266,0.04810392186195749,-0.09455677745529838,-0.015961348863445969,-0.04789133636837722,-0.007334394391981934,0.05469635872963875,0.06601184139604004,-0.011325105638922348,0.004908535779111491,-0.02279216846087883,-0.04418621491064389,-0.02873589430763248,-0.0263361760941881,-0.010618257096683562,-0.028071201630332979,0.008389977261244752,0.0055792013888976209,0.03811660190861053,0.010119056202440098,-0.023304691109638784,-0.02920931841719619,-0.029901830813721398,-0.0058497813647577939,0.032310471491869777,0.007135339271016714,-0.0011990471822040336,-0.01856059723725445,0.02871894271712005,-0.013689569470948184,0.0428253649223947,0.055711162974459129,0.004038566089435975,0.020758371010240533,-0.016588370913243674,-0.03574599132020054,0.009239045257919947,0.05598093639479931,0.005602897964228211,-0.044431281042327529,0.04375980672688766,0.06449653092817688,0.017191540385986718,-0.029758092433649739,-0.027368733139262307,0.006535578151423841,-0.022023198525339517,-0.06199458774999992,0.007149702303158197,0.01631713406756621,-0.015383547390005914,-0.028778188285512424,0.0050547031659202048,-0.01369359452030922,-0.01697303898749749,0.030185556074164848,-0.008697608675175155,0.01720304229559275,0.05460780809429221,0.01458942879195861,-0.04230697969111683,0.030937446090355728,0.005632590671618771,-0.045958293958042389,-0.000363625806464618,0.024196976802464008,-0.022837396129661074,-0.014752831666949304,0.017373489507616168,0.0062311518126375539,-0.026077616302139916,-0.01453789015113848,-0.02787917518968185,0.0014479517836447167,0.005584495154759191,0.00873333554683152,0.03277412566507898,0.03340137021843009,0.0408391684768242,0.011866641128301454,-0.013478289473242207,-0.0005955446646446106,-0.0072654462161822418,-0.03175341275582629,-0.013398254606057233,0.05963867344100243,-0.00008054543897215302,0.02580613502315851,0.036820509095211628,0.005577507217361373,0.008468691977629948,-0.03565540006111404,-0.028997823579738226,-0.04937443789010316,-0.006276985250021563,-0.006662162320564947,0.04693058003305165,-0.043718566075807468,0.05343819386450095,0.010862105342674679,-0.013150020540445812,-0.009472665641922136,0.03152550548498826,0.03347187216440018,-0.044568708496636629,-0.03383989269914647,-0.01639538460938775,-0.030139085820452363,0.00017255732311045841,-0.004225289816115837,-0.04083210518282085,0.021695616923980027,-0.009645676701254372,0.014955839392333637,-0.0015461950924725516,-0.05362661644316549,0.007185942330792884,0.03622026154061118,-0.02770909319695147,0.023771579060339864,-0.03433918822697758,-0.03516484897904351,-0.024180850845856817,-0.008961908352206309,-0.09618695513627404,-0.07974787044147062,-0.03964923012909569,-0.0424987749515187,-0.020731108686495273,0.08398754871071222,0.013507342734456134,-0.0070343871724855519,-0.08305520995328877,0.0021875075991666947,-0.012800050742844476,-0.07603762729412866,-0.02082020824735363,0.08905963231269346,0.06304568725245657,0.09283832353971568,-0.013323448646990267,-0.029293301647403268,0.010919220723104185,-0.10713598848814908,-0.10400948136597292,-0.021513518727228038,0.04360270857473628,0.0951495050752968,0.08892289903318392,0.0780676385665851,0.03531108949783516,-0.07618942098542139,-0.048121726942608387,-0.0831820606246894,-0.05452836239575653,-0.04251104994190943,-0.05125676784050859,0.04550665270770735,-0.008740856112045588,-0.019709608825034285,-0.09435058589902126,-0.06893882485029768,-0.07018542143106323,-0.10855085062842684,-0.01813012509508068,0.010272641928585312,-0.019687106704115617,0.017190591383097387,0.004991286362266039,0.023097844326811086,-0.04841848917727457,-0.07927853585948715,-0.08064694247974914,0.0028849759643854897,0.0621125252168681,0.15284462968057059,0.04074877624999244,-0.0799020239743461,-0.08097029010756375,-0.04817442590510253,-0.1192393239944604,-0.0937310602577716,-0.027703561486743714,-0.011519555665139138,0.037009948770924169,0.0023290781097092484,0.028718076296375719,-0.049748431677513169,0.045059762797799659,0.04353793606775673,-0.06052636313746069,0.08394781328846214,-0.17638734387358116,-0.02165962604727632,-0.05313956835776042,0.11673682889348609,0.061173870794795307,-0.04362446409208175,-0.10201122634379308,-0.017647797348896236,-0.1078039922716031,-0.08152777419440552,-0.032188792588329167,-0.03986843634262298,0.04257950917965963,0.07935996116686356,-0.02997423779213597,0.03719058166658631,0.06506169373124193,0.031323471674449588,-0.02946720788009201,0.039874342415056367,-0.030249786491995825,-0.06336550026485835,0.030733744491515705,0.03994685321296423,0.03354794884204609,-0.0043464432862037279,-0.05117361703132395,-0.08490696095602252,-0.1294520594870169,-0.09087553326857767,-0.0471664512396023,-0.1529443999910517,0.00954596735852347,-0.06090478910910592,-0.08410273486966573,-0.0736120454635849,0.04130011804260414,0.23828369714416273,0.10089333758052815,0.16207520886912417,0.004680127317026488,0.04928227582447216,0.07228686697317438,-0.052946638087637689,0.008650381427881661,-0.14922280346750856,-0.072254886003129,-0.11052199101373804,-0.14054040235443836,-0.1305878962495807,-0.1421153053452991,0.030309358194911215,0.1168762811879118,0.026334567130884964,-0.026773407555890015,0.04738430860782098,-0.024301923708755697,0.21287784664006255,0.09805271210391026,0.10301401051585008,0.06602457035495958,0.13489835814428209,0.20562028006936584,0.03638268513203474,0.0273010226782154,-0.0711234694951745,0.005775357071715173,-0.1472725386588081,-0.19261730150523469,-0.19360903284987297,-0.100544763116784,-0.0737403630370231,0.04725147953941792,-0.006502188180043385,-0.002560176506953115,0.04112838601644489,0.22922796668685148,0.3202686346450498,0.17871586846663324,0.031712164384684948,0.09457554934626383,0.18271746681666416,0.09890957849035406,0.06599312919382003,-0.17508545296865658,-0.13582186437341405,-0.08367046018463244,-0.1213364841922907,-0.11327516570147014,-0.20234085901027128,-0.14240837577327748,-0.07170745907540152,0.1134680449826057,0.14968215818130205,0.15471600798695379,-0.001642619696065354,0.18125455209079964,0.12956096217704056,0.177434054462963,0.0964365618375835,0.19305371324062108,0.10025217466792257,0.21292346663625326,-0.002143328344560298,-0.10689989385648209,-0.1625842161375523,-0.27377764735176127,-0.1166966045261808,-0.06792917423357933,-0.09721060378661385,-0.09119105965929375,-0.036467102958758167,-0.007246009629384306,0.1102421699117714,0.04878269424231041,0.04432864128102053,-0.06848844829264377,0.04807960761029595,0.03874647724116771,0.026647775091075595,0.07446239061903452,0.07008687369393252,0.13550582843484963,0.045571348476062357,0.09358257860425076,-0.08805600399553815,-0.21748908504150808,-0.1720039756765918,-0.09619599562119347,-0.07069938059799957,-0.05013115694371858,-0.053552482887978859,0.016411001924212026,0.1046442648416524,0.015772090740498725,0.16914775695454904,0.047883711893313748,0.1249241097217459,0.26242345122907109,0.07500365145864847,0.1046559183030578,0.18357093532761285,0.14839371415430115,0.1320398328142308,0.08078948421986007,-0.03028100141492275,-0.11127564709053983,-0.08666202630519417,-0.0922876399466338,-0.1698979104194692,-0.05256525727720378,-0.032718542513096058,-0.0011936556716949758,0.08764300746118727,0.10379935762625925,0.07118180193851817,0.04174205644346035,0.1405527769676428,0.05695498760931185,0.22238722734780648,0.03795783886764706,-0.0020529301719553968,0.18147588973923546,0.135646568537419,0.03589361040773242,-0.10192571755617197,-0.1490699228209262,-0.14580257535051814,-0.1532875576497714,-0.04062593392223307,-0.033849578548038609,-0.052606413510133617,0.12898621230761873,0.13588345838824027,0.1113993256152312,0.03221537949702413,-0.07002111268716115,-0.02776156501184772,0.08199575254298965,0.14781157100893986,0.24416932795321709,0.12792179836819596,0.047255778705462898,0.03717496932553559,0.07259719934208875,-0.033410585756804399,-0.17047656803290629,-0.04416655992247315,-0.1042977548897482,-0.08830597462196104,-0.038414875309428938,-0.08226018177712272,0.04008198824912554,0.058353625995849759,-0.04270137072722746,-0.018263993199887839,-0.018496093433039895,-0.0025939635462451724,0.18457395459370294,0.05114862190712736,0.08498537330048395,0.13275299621517923,0.07545953827496362,0.1236426524576275,0.14327549520609668,0.02578302345301373,-0.1329760965918915,-0.14967280068140155,-0.15956475233843274,0.00010484792009652505,-0.06654722880181469,-0.05024427911669876,0.011792939027257848,0.030879273723432189,-0.03319704762138858,0.02593572210626526,0.13883886786638972,0.049811510399441937,-0.018542188174026094,-0.012831320740175418,0.08177965105045793,0.10865218853715664,0.1071146079422084,0.12376168251200646,0.07580212330835905,0.061433226498925398,0.020671520276431749,-0.05729207425408043,-0.12865507440007149,-0.01589397001798222,-0.1422868332504689,-0.12559298282762144,0.09635937162283454,0.05862204446360421,-0.018741537000405804,0.029664855952359873,0.005545155102211583,-0.007087288320956285,-0.08546320171058002,-0.08105730403121606,0.05471049612941524,0.07392577299786273,0.09921616536533133,0.1507125598081364,0.10535668489159249,-0.013801558036831355,-0.024435448116315325,0.008156657748143084,-0.030196855607785269,-0.001238111591427751,-0.02109250218183637,-0.055115149600054657,0.03296889158244169,0.0062468828628908499,-0.0439682861309319,-0.029479619984265384,-0.0465422163526005,0.07206954559597562,-0.06382889937161122,0.06174277041330717,-0.041017091205266979,0.0239631885504121,0.05055247106409842,0.10649940653393059,0.052631339133565959,0.04356310992895864,0.08278228384768294,-0.05487347551495758,-0.11266641814817226,-0.06115314008259466,0.003995596005099628,-0.04082460267542003,-0.0680396714709631,-0.004678677068410971,0.01865676236980974,-0.025561094005200889,-0.08343733405993029,0.042474214001432839,0.0891884326255263,-0.03400279875647914,-0.03589832410725091,0.04879255973853763,0.03876752689661334,0.12738413715520614,0.1399311232577794,0.13980158717804365,0.007056369634928973,-0.049423620811672199,-0.09084758307852431,0.004510356243949027,0.009474047395090658,-0.023326127528759494,-0.0992526202285098,0.05209788180817975,-0.00960426293613769,0.0588660961650278,-0.01627495623246763,-0.03815124116262827,-0.04974732224738255,-0.09182106974529109,-0.04073298006260646,-0.03022203054910789,0.01928762274053827,0.06955351570263187,0.054854343570291449,0.13015380401104927,0.05320038971763763,0.008261735985699686,-0.040537277561228938,0.03595823298735076,0.012797635922120625,-0.0023197305895255526,-0.08921791825898623,-0.009762373915776545,0.022399837046245795,-0.009663738284420548,-0.022586800428947608,-0.0888009417827391,-0.05551266637926998,0.026251302614039578,-0.04583015824125276,-0.005386121265533349,0.027813405001262498,0.05031862010598831,0.053694521664748379,-0.004064919321886215,0.0012100898792892156,-0.05888398069673033,-0.0323182518437574,0.06795259685732357,0.016722808156479666,0.03369300259540758,-0.0008691908467577812,0.02934964915718664,-0.017861536237155884,-0.0612223970186648,0.06518284886669434,-0.04720501900554721,-0.025947682641040909,-0.04666393514715548,0.001438656652702871,-0.000760699274922624,-0.025860889496985435,0.022812250150555274,0.05444321486725639,-0.04378564935517952,-0.005948888685915825,0.014115487973342662,-0.014951985913089142,-0.05495832772210683,0.004799795464439907,-0.012135190763964112,0.015380216176023545,-0.08070461736993104,0.02199188312958764,-0.05701243218765066,0.01897937742737376,-0.04107567343167886,-0.04919048608624991,-0.056537913211591569,0.061858911077172357,0.005886744739343698,0.005416808957359805,0.1784783310134054,0.09949820739755647,-0.11512641721552652,0.05769239863091305,-0.006574398438447443,-0.020886168303347487,0.003302849586673733,-0.04339156748599384,-0.029416033288733505,0.01351359409383322,0.03277568330703875,0.05593235108119403,0.050629240136181207,0.017214393536068477,0.03238983270508964,-0.052685187583875938,0.002556366078468343,-0.03205152122752398,0.04930582327225432,0.07594480205964091,0.08352095171783165,0.11567651065054337,0.15104759025483745,0.1253058788342607,0.03659376908426937,0.026910197513917507,-0.025748348579321534,0.04935020485783593,-0.017914968971614758,0.025829560251529467,0.057740833526671708,0.06255798194100508,0.11286917154022822,-0.020390123597763517,0.05269186957486005,-0.03802955016968406,-0.018227021995194424,0.04730355197830314,-0.05589255963300726,-0.0032563442579810655,0.024225783835377054,0.09120336047966818,0.11463394823692246,0.08723709829935791,0.04721085788955757,-0.04675557332599961,-0.012793716053259949,0.0022326522161305298,0.0035622648981147835,0.03790791844416709,0.11299235697548534,0.047326088885082769,-0.03571916945047723,0.039099752344787869,-0.10672301894134492,-0.03115805288696472,0.02484127942768759,0.046575609603880529,0.0077903509728004609,0.0012249683278506717,0.1391246278054667,0.06952608544071749,0.0479200450588259,-0.0034864241536001888,0.06726452690678236,-0.03772789147163115,0.0034160656566275995,-0.026658409892314707,-0.07431103811418349,0.027197484463712085,-0.03255873139989037,0.043095849815549629,-0.0029721180934230838,-0.03504055958402488,-0.10433412830191995,-0.055668512891194978,0.02930843990990381,-0.005976533931896136,-0.022793316020596495,-0.011502320311558885,-0.06154056983742974,0.00870850971797649,-0.19446888273023048,-0.0702246554099241,-0.05375872667710088,0.01847491968375706,-0.051154074685608657,0.0058536706157307429,0.004682541545217666,0.00028239675911345067,-0.06952293187267528,-0.07431739769177953,-0.04881781526451271,-0.013610893984609194,0.007278363658346457,0.07357043394206379,0.04699133797721806,0.009460233802610366,0.060950367890362597,-0.011138071165621579,0.008217695070674353,-0.0667400690995512,-0.11817623165856423,-0.11214097348423496,-0.14585108685340177,-0.007219313484917394,-0.09935948367106051,-0.07589810837874089,-0.10476472690342965,0.0053259081879145019,-0.1408534561942682,-0.12127810995996251,-0.07674304173769249,-0.011196790566370059,0.02312600856773645,0.060720568613775848,0.09398082859170254,0.07718645007974699,0.035247573597447307,0.043001763270486628,0.022126917816328554,0.044293253065929048,0.04019934086793546,-0.010762060282329735,-0.03250671722667135,-0.021168993764139986,0.019229799194907646,-0.01713289733946996,-0.035247669880802866,-0.03960000622877896,-0.011267121014378977,-0.1774889649445157,-0.07800223266813397,-0.044930985939883458,-0.15579475441442479,-0.17430674444324766,-0.1049129053566591,-0.09499724333000513,-0.10746463647207949,-0.20801635479979653,-0.02106944321219242,-0.03577748573997125,0.012973103366626753,-0.030655637254274554,-0.0667919602078483,-0.017386451744915239,-0.02303544138798407,0.030750436816684453,-0.09001929678482186,-0.08653028277796048,-0.08541465252235626,-0.14018285816230142,-0.15481400976207958,-0.10407728760935863,-0.0616067735887102,-0.0885217680700782,-0.06767424236000823,-0.05011957053616735,-0.08181505294673314,-0.01643189041352316,-0.06622412811893322,-0.1213351548065355,-0.0832416766516502,-0.059344046155692348,-0.06842736456281286,0.05046634876239833,0.02916637030849125,0.07713035143759811,-0.015723394485925265,-0.050980638048924258,0.012894673001999821,0.08419306347070904,-0.0567253619180865,-0.010250353893118595,-0.10504412348438397,-0.07445170975322431,0.010162652475730557,0.052480537885175228,-0.000597843593752753,0.10600822238711114,-0.020603142607751907,-0.02198908633627218,-0.04363438251914266,0.021388577066266728,-0.010362100893683974,0.00497257277111185,0.05351406657132909,0.10610544564802091,-0.01952793763097887,-0.021595759317139874,0.011041922048762134,0.04126507095750501,0.008578663381305516,0.03146640475542087,0.07593300706525212,0.0671868027374022,0.15899737977165735,0.10696532707019621,0.0488140018138393,0.10233117152265982,-0.04988352951432071,0.012727345133841615,0.1591779150964951,0.13187156626841713,0.07548467266406534,0.07956443449132843,0.01381509903671019,0.015595841843797204,0.045782999525897007,-0.04472377693554469,0.019999085951906898,0.027462665666501169,0.008690811036823183,0.014169801709102084,-0.05376989136472522,-0.05069453569968012,0.007962768260500712,0.035198022632183859,0.0648054298980065,0.13028001463768025,0.11787480664652329,0.077370806536301,0.0583357528501395,0.06200659082318233,0.052146529478081907,0.06685248568618572,0.11188662935775397,0.025958512102859916,-0.04006354806307034,-0.06017152659770989,-0.12432389630220443,0.005925649790375166,0.0639652139357448,0.032463676329482268,0.14661109815080967,0.09068925169385774,0.05429377838208233,0.08725846376709479,0.09869229607269824,0.1292500020931986,0.044200257716174268,0.03130492340674558,-0.01924484916594369,-0.023596033934823229,0.06490236750653136,-0.03573084183333656,0.04898527765546645,-0.02569970629437156,0.051140804168731537,0.0011355719554801505,-0.1319782525387342,-0.044788418876362767,0.030392560954390848,-0.05812009774810524,0.05618250689978299,0.05455317100778807,0.020218200207945074,0.0747953157163077,0.07714149174991522,-0.034335750478040587,-0.03187339205644095,0.0707064554328714,0.0015492701402724055,-0.011309567919413077,-0.0017025965421610347,-0.05061031701167136,-0.012861209817233818,0.02390194507626141,0.04168931185713232,-0.02359074235827553,-0.025519999449356957,-0.08072820448663779,0.008883109684115999,-0.019756920773204218,-0.026198389732977873,0.053752673016751049,0.025923819898585628,-0.02545920466347702,-0.055522636930630839,0.024260519268289,-0.05903763999415219,-0.0448036705624257,-0.05533347429030126,-0.03396488433782669,-0.05498405513621634,-0.014067646667130073,-0.07265739041763708,-0.0011571548435286507,0.011859825895952678,-0.08217884056902641,-0.0531139107874781,-0.13392631051382945,-0.03705351845704341,-0.03424907159682953,-0.0051709623845310119,-0.020016419841582597,-0.0038659277158680784,0.06274745462219154,-0.006035719038697187,-0.002108295412861111,-0.08380697094221917,-0.09745616094952016,-0.06883719847271758,-0.012337344328718058,-0.04737924179188278,-0.06191312724975201,0.012645943926103265,0.006773416615285794,0.01999126404864047,-0.053123200468879697,-0.02219421111381614,-0.027740367737423754,0.002231880073255166,0.02984798509678989,-0.04977322400424438,-0.049768880922121779,-0.043901384102863,-0.0014072156301073599,-0.02210741263857404,-0.07643319318396329,-0.026300576288628153,-0.08797546995826256,-0.05024608528730331,-0.05238048840115159,-0.009858783741222755,0.007120961999169517,0.0028097109008646135,-0.03193277253938972,0.03178036036504954,0.04053471134006675,0.04127560822205532,-0.037745717805815589,-0.0495346823670568,-0.10515030757731539,0.03665867138825218,0.00693908980796866,0.02872963168086837,-0.016700829528771636,-0.029789854703664216,-0.09150484151148354,-0.08829615249215563,-0.03535213399807089,-0.020399282960449455,-0.012514881280063614,0.031223417687049918,-0.0145539496257135,-0.009810586112524491,-0.031084042191361417,-0.01677865395925953,-0.007781516069111484,0.013501822963326679,-0.024031513296945817,-0.010836961693280995,0.06250613687149347,-0.04532014939367204,0.016532263500828118,0.016345299154702638,-0.04605499587176477,0.0371349294711269,-0.02058443690003509,-0.08025998529932568,0.023628251066478934,0.03410551477061261,-0.007567234469216367,0.00122297621887006,-0.003991273488726728,-0.015385924361650157,0.01871455467193912,-0.03166156978138337,0.0751953723574463,0.10125926607158936,0.07978506580987405,0.027274192451159804,0.025414336460846615,-0.013796799215558034,-0.0378299064312813,-0.027667057176221606,-0.017040919866587936,-0.03491693568234181,-0.03911103498591672,-0.009297758736823913,0.02537975430982421,0.01555932173727789,-0.06748630928522088,-0.04338022521380845,0.00981211444116523,-0.008192202588661147,-0.006746956824993632,0.018534312064054354,-0.03318125906086735,0.08428460041845586,0.09948669972671665,0.026179537953143738,0.041630025244264279,0.00890887130002218,-0.09665676814589655,-0.11311269385848665,-0.06643663864617507,0.0539065622438638,0.016686861163071274,0.029294787757081835,0.09430839288281186,0.06476811639204164,-0.04122761937371736,-0.0013591392629365778,-0.0036604872134030784,-0.0002332825085826189,-0.023410622362757304,0.03698912532059379,0.056555065381380737,0.1823396856533606,0.0993640405594993,0.04675728671659378,-0.00783540343390799,-0.024260633645531848,-0.031582918946413508,-0.03529173413007261,0.045926905520548597,0.013882073671686195,-0.016048413382416864,-0.0770249799049256,-0.0029575088565891537,-0.016076059853454985,-0.07264387834932205,-0.049300834856457319,0.029133963025395776,0.04977327439470635,-0.06131400429902942,0.1576212589946593,0.06590238316640437,0.07230282934966552,0.138624391571501,-0.058687152250754857,-0.037156674308636918,-0.009556297244781,0.10503237338042464,0.14519473109215368,0.0055230192893955909,-0.08353049711418148,-0.12395473604190943,-0.12967729483687444,-0.04269199965072472,0.041845468183153228,0.014207808628036022,-0.1511363784222917,0.01905860254922149,-0.01951038093395834,-0.036984271918096309,0.09180257364962832,0.0730663816186287,0.12159795046775993,0.08440320953492811,0.06596096522445062,0.035393907010455267,0.050039506986083049,0.0469741702280442,0.05802931624337161,-0.0015768087046160262,0.00316521251468281,-0.0972229632042758,-0.12011652454888972,-0.030167047679956484,-0.053399685324744847,0.0072695291815892859,-0.03194741122214588,-0.017376531601928068,-0.054946319323210399,-0.05208885870109536,0.09142998870878301,0.10772227507949361,0.080754684550733,0.041121709125976357,0.027854591026562866,0.059995334961477939,0.09784021297240989,0.11491260661857296,0.1490675281482235,0.03384356842245565,-0.10753140854977204,-0.12033624724986752,-0.1794221104656121,-0.07451071973393192,0.04792838139308917,0.0616070534239921,-0.010943314283831638,-0.06614332456210373,0.02344324815141714,-0.025622201489496945,0.05217304682476046,0.17197734975053584,0.18051520992172744,0.08127922187179289,0.07251153293120806,0.027567022023734679,0.028844197509829675,0.006806825842852583,0.13150064021638928,-0.019071730416999664,0.003869511168059728,0.05378782602409201,-0.03824309095160805,-0.021398454554893255,0.04740526171385959,0.07075061708902472,0.037131508078737888,-0.008190752876712957,0.056684081829739187,-0.002662382973121926,-0.010786821966487625,0.001761849433520329,0.05036108882490792,0.08238246192871458,0.021367901284455289,-0.004131874079028541,0.012340815582887712,0.1432002985726454,-0.003727741199630645,0.07403177463405451,0.0455584630544927,0.1206652529793249,-0.20270643938433795,-0.029277213749588916,0.011822108785701875,-0.04815192677947755,0.025044607616715867,0.009189503186202675,-0.01163079974140911,0.10552991086655204,0.1150788452060788,0.10367125514185528,0.015620052216528454,0.013523820435413432,-0.0189227341991725,0.14040631702474494,0.1189715358879318,0.055470524994763657,0.06696586340210661,0.021023226787040364,-0.0682321554135848,0.01553356570159852,0.04558493077420848,0.018655701475329215,-0.01785687320755194,0.0793111234319633,0.047463322494890668,0.0033030972257197517,-0.001920405866521129,-0.03403955371238557,0.03330241545932102,0.1554632742974957,0.034750466213537719,0.07064898085895757,-0.07135295031020991,0.04310025520897762,0.08096888388697732,0.02198781387087995,-0.04084972830544235,-0.12944512508261314,-0.08240824031555903,-0.13194402668597075,0.1441458891672533,0.12402069415548554,0.04476008319741248,-0.0255983715476248,-0.037872983597507198,-0.046302498783290107,0.09693159989186133,0.03880144239925896,0.06845461143818567,0.10175193054573782,0.0314780654457166,-0.0663167039552672,0.10476548177751573,0.10521178426113299,-0.06871122525374218,0.11101046604156925,0.012121049271437866,0.015527049513520552,-0.03866254961039571,0.04927164791909673,0.1879278062125235,0.10854291979714584,0.08988906207717154,-0.01260174675772182,0.096682378854435,-0.027420243337285774,0.032015977864975998,-0.01156872959410984,-0.007435636148610657,0.010424572190489805,-0.019179804920767306,0.016944582068737648,0.17874994395647818,0.1308812171811606,-0.04000322274756392,-0.12997641344146267,-0.007919287599012849,-0.03532820340484468,0.054846307301956508,0.11496677264509489,0.21018047088811415,0.08891712951611668,0.001753765900866612,-0.03563657484956283,-0.010077498816926108,0.014250379781097764,0.02743151308144689,0.023030758907196987,0.06882299847309673,0.05409718007990938,0.004519129737126069,0.03895604152921974,0.11512623903292935,0.0421270444872582,0.00468049912390237,0.04085551844646467,0.07434501447699425,0.11475950117379273,0.1566967279397744,0.06533803665726992,0.06158899560605423,0.017559033317783448,0.07086068077513298,0.03279115223304052,0.035186691235386039,-0.03946323246464735,0.01967749846897223,0.029320932952512484,-0.04643465374049693,0.18707043762089177,0.026066021028832214,0.02946207803008061,0.036143964861334757,-0.1372924634818599,0.0438409511076353,0.06455927071990303,-0.0004900353349944587,0.054860793433483278,0.16294957526983926,0.1191800913378527,0.0900112310830556,0.15837851631294795,0.13152130102408209,0.047550311146525078,-0.07592374426395716,-0.16350249152314062,0.04927595677238039,-0.009582624009409027,0.08877114617665866,0.047654394512309027,0.064383957593098,0.12839932575187469,-0.021991977477046719,0.1201282936703896,0.04755398745670689,-0.09284328857317131,-0.08827978871281676,0.012643580577067777,0.0007431067499342932,0.06969829285376446,0.06902783825130855,0.11961281735422413,0.021496549686877626,0.10375711883048028,0.05309184838220432,-0.021025941251435168,0.01126549263623333,-0.0014107449692664903,-0.03308433614407204,0.036460974445530498,-0.01740111277716332,0.028896701107352549,0.025117881889009539,0.06166316347555651,0.0395594542678073,0.04157194611064435,0.035331066180604078,0.0773616943396409,-0.013880209541353729,-0.11776384303291308,0.11441270502406119,0.008778180677096792,0.003900994147419031,0.038184713462011337,-0.03223724110048455,-0.014309170762154945,0.05549971969746059,-0.0012836218782701105,-0.03807481595296441,0.05508087456530517,-0.04818372805902054,-0.008602764809635464,-0.06504655973619225,-0.01667922911892528,0.02533750167733274,0.021029691819708625,-0.0325807396057483,-0.0894089036224133,-0.07199111820412861,-0.0426343278406532,0.05447314846953286,0.08926087535723279,0.005815512998531623,0.06614034028950386,0.0006200007074130551,0.01352558087918387,0.040240680784669868,0.06826810748550393,-0.08291391851545224,0.01931616957339122,0.10218119752919444,-0.012513237006967767,-0.01630339770156304,0.035000818714179909,0.13753638882614425,-0.011382476518592934,-0.07609089767202411,-0.13633478136829695,-0.09217464704648149,0.029995386421820756,0.07215481658528063,0.01834150308334579,0.07176797601462724,0.006283401663039499,0.018617300365357225,-0.0381876230673454,0.036061674146430609,0.11214685803105787,-0.059879210713459789,0.027974756955663074,0.04455763883649724,-0.007593456037141308,0.0971364066824154,0.1157041362862661,0.1107546248529577,-0.03029917833513163,-0.09374500597407996,-0.013755070890832715,-0.03658541288284121,0.03576056988660135,0.044278030426806957,0.07588075890726037,0.07312631367368459,0.007440565498568735,0.02607487376392362,-0.027371937474613626,-0.0003694138657101572,-0.020596491160708109,-0.052060959278277658,-0.024848976469104137,0.017636642233590226,0.032956595338929337,0.06478647686651286,0.08301877369472137,0.002495744627296029,0.02029052507550865,-0.09607220447503914,-0.022246944210464863,-0.16296071285678469,-0.006769957233183864,0.08216080768621927,0.055328761602405778,-0.05111316955075731,-0.017613236094327933,-0.015873912589413686,-0.031174936384594184,-0.017084834351659155,-0.0037747195258698289,-0.015772569040496979,-0.005332392611996588,-0.039914608830392789,-0.09176247570816752,-0.0541607690177851,0.023196666621360965,0.08451230191218927,0.07600133280262166,-0.030873106207209585,0.021250765844962169,0.011788826402113338,0.01748842615426955,0.0410850290094254,0.032938256639313299,-0.014894384328128639,0.005706117297826862,0.025596309660055905,0.020619830259035168,-0.043937591285999059,-0.011951714631750328,0.007019897380022234,0.003620167932555651,-0.0168382112304025,-0.08866746781008679,-0.07964382889801577,0.028470757238965424,0.037755693957849157,-0.05204327841078506,0.024521202100097247,0.07095364050757647,0.016297196727254744,0.038975715773116269,0.08397711013254426,0.06531331353406443,-0.044693566204105247,-0.09807807915459209,-0.04650029497190015,-0.05423282239342993,-0.07576818857932523,0.04684537315115447,-0.02887872024074529,-0.04844547996701829,-0.03561310116498516,0.02884626192606699,0.10751239193579804,0.05296034697375648,0.06268535793685047,-0.036717292649632009,-0.051182293626780738,-0.10204584101012128,-0.06008238054511666,-0.01801811369844887,0.0397351836849069,-0.018972484786125119,-0.09366259986667423,0.02365544308856559,0.002517948551428041,-0.023928315151962293,-0.06714387883598658,-0.012556904364137589,-0.034862569139461469,-0.1338147337261396,0.048060071021174457,-0.007011412308435048,-0.013180546204606628,-0.017445017226618763,-0.0375379561903231,-0.1226220918325935,-0.037158783287073959,-0.13895153165455913,-0.045023000042238529,-0.08095947827830062,-0.07854312794047419,-0.04349417864558111,-0.11823999502988306,-0.04128937997512012,-0.013945426895506968,-0.011568650762316406,-0.009604880307122253,-0.042068926508205508,-0.04746270157237187,-0.03853086885387561,-0.04467473429410661,-0.04562059363154171,-0.03539996865716533,0.04291403811433278,-0.0055235178950482819,0.021610759819877858,-0.01957743258411093,-0.00989733114822648,-0.004372424356432899,-0.012931003737657363,-0.045536151926817498,0.028529014063864805,-0.041555047783172798,0.042010849632402428,-0.0579556907011484,-0.009751554831180348,-0.02609681288065215,0.003703054053573443,-0.00037660337381436476,0.05217777004827914,-0.027623557279413747,-0.07180997233492093,-0.04260250066235796,-0.01530244758967544,-0.05583916951699651,0.005867835119338644,-0.05877009806775105,0.06157842752482463,0.10070905684632289,0.086998329015519,0.14593170562436387,0.16101215863557256,-0.002697147020147393,0.06023319944222613,-0.10773700832558812,-0.0018691557550763665,-0.0437744116221019,0.005428448493273584,0.03526644877748627,0.048324037268929777,-0.010346403779502472,-0.0967759501660883,0.046902918621296179,-0.09673384064685596,-0.1517591080050198,-0.007044493857214096,0.021645869027419677,0.018404656674522705,-0.027372844707627767,0.005575910998469427,0.04821074395965687,0.10368854602721056,-0.02098359334367175,0.09272132853284275,-0.050526330632921997,-0.11678146265889283,-0.0886386780488699,-0.017470710917250458,0.03477486728459193,0.0357257360343318,-0.023542632828868868,-0.002077480888082415,0.029014223771745084,0.024617368846290519,-0.009060686389322384,-0.0178348424724281,0.006324633406143104,-0.06494894714666019,-0.0772616158465301,-0.019383901012698335,0.013999495764357816,-0.010807686012644919,0.030228011867905088,0.031149795505853233,-0.011834315288919265,-0.07053278416959058,-0.06736728521860668,-0.02295412429535941,-0.049403444149534039,0.0019953629363568426,-0.037532387089010788,0.08524047824840972,0.1362149942641165,0.024369009905143438,0.0440277637300442,0.0557862456609966,0.047097233621487547,0.06898283348956858,0.08339018448065897,0.05263335381005922,0.08750574267796688,-0.08340786223013182,-0.01715379609818163,0.02584736427424149,-0.006514770150389066,-0.04119757844087862,-0.07348283544738048,-0.0063152465226591499,-0.07405305323364878,-0.05426299688007887,-0.06709609476058992,-0.01013722142603015,0.1613385667725678,0.10277836194519594,0.039663054076301728,-0.01972912172921549,-0.05197030410920092,0.07391660333786092,0.15818247191643615,0.13311598935719655,-0.06951732034465706,0.10644318797172052,0.03172723015888675,0.078487470965128,-0.014962407304404362,0.010124873336762751,-0.002568014809903749,-0.002145509745450037,-0.05698672026493245,0.045013243702951819,0.049467941108670868,0.0017056565508425217,0.04152533947703508,-0.03816023466682093,0.023568444414748713,0.0741741380687436,0.07569071639071423,0.11611624936100931,0.05707127209928443,0.07581949324635758,0.0036535607071344537,0.053885477314509818,0.0716253318112215,0.052678282198216377,-0.03196783095714273,0.019211416497074215,-0.004424408268822003,-0.04714587578575143,0.06282685529025978,-0.046049404780258876,-0.013071094416545585,0.04101692041487609,0.08496243694071575,-0.06286690446824026,-0.05674354962504603,-0.03119593079611289,-0.019433297592201406,-0.00429073364874077,-0.03205064408540325,-0.013755198238995138,-0.06358180594840544,0.0382079427558204,0.005165584486433147,-0.015494654180235917,0.012075178231000175,-0.03327637631853304,0.01757720541647043,-0.0215270309093498,0.013058018250955719,-0.03585203525137946,0.01167124967959727,0.0009750658207773797,0.008314378928326682,-0.008291086177551328,-0.057500997503739308,-0.01386423124612195,0.03843957034195199,0.040219784689891489,0.009439146962364026,0.04531768092183002,-0.07072138477443324,0.004487824395380995,-0.01329583578079434,0.00009545638267313538,-0.09639094793391755,-0.017499648479373833,-0.006191682054449968,-0.015659075674976244,0.003351344309781092,-0.0422903689395368,-0.042480671854958757,-0.0505928989963801,-0.040867934774197218,0.08798889583450136,-0.01482159884256601,-0.0773603230586879,-0.050014423690513478,-0.011722054779500608,-0.11677102161408566,0.009871809080997298,0.020360610667409845,-0.109849785662956,-0.0438142713144513,-0.05947320201632302,-0.046178697502542987,-0.037165674511921747,0.01471490728891459,-0.03631045621391053,-0.001469783327775301,0.021455110117240909,-0.00948321428091293,-0.09536702288129293,-0.06770786577667656,-0.06024254084210115,-0.04196222428835416,-0.05461500003616401,-0.0006510753407174208,-0.015276316785357841,0.0002603124385772753,-0.012033255705758544,0.01441612435242747,-0.00758858728743911,-0.048872487070767,-0.03217879547894635,-0.018905962072093487,0.026629701156505475,-0.05456632264766432,0.04404384306399476,-0.036809913346190267,-0.022250544327363274,-0.0029055174000552975,-0.026048728074841735,-0.05676987721542364,-0.018229096609449714,-0.14481774904770684,-0.07022634967881654,-0.08620816407005203,-0.05791470185071367,-0.01913031213902921,-0.046409488899794,0.006068771908443339,0.03539620210978015,-0.03861630015468733,-0.02649701951506043,-0.0043181711943886739,0.041917140094468448,-0.06710597834290912,-0.047916578018341527,-0.03483509639056923,-0.030964728808493767,-0.053685182265072958,0.0317365955766065,0.00508665358770328,0.000511870751895591,0.006644033047946804,-0.047417189724876577,-0.06939300486092109,-0.04624304868708698,0.022964497478207454,-0.020289029344184255,-0.06179639507118314,0.012074181395023596,-0.020454811683821743,0.036319709197912528,-0.03125077964186983,0.0501005227578616,-0.0516354357612142,0.008275536483837705,-0.0007433045535661176,-0.04893903215186883,-0.07596164326877673,-0.03523644787590629,-0.043862821744062589,-0.03432574968594671,-0.052711378500805029,0.024316359906978024,-0.06330426295142833,-0.031009650247254419,-0.039209440818528038,-0.04134931711353895,0.019330312886381423,-0.007860155480443132,-0.008548224265857331,0.026369074421402976,0.017147241501111057,0.08884756340294155,0.0398450438273939,0.05065935067289669,0.03506552998358114,-0.002290050078375984,-0.01587611290463463,0.04223527328748402,0.03251374396633009,0.002512710681623056,0.016817829681716847,0.008096580185591849,0.06130316106585658,0.01316127287234531,0.01785240281195641,0.012600622493695464,0.0636959634977614,0.055122816533559628,-0.013336319543734099,0.04450071713200581,0.01911697905582332,0.03672106502416299,0.029642738637255664,-0.014877257454924624,-0.04297156614524632,-0.01843902820292718,0.01562010650801031,-0.030521203996681829,0.07073048693706355,-0.025568564284091278,-0.035792402109947479,0.006256724111876244,0.014576389321711134,-0.019849298353595794,0.0734339257592368,-0.02126146650693421,0.029545666699472087,0.03127522728485334,0.024396163022376878,0.00757386784392966,-0.054187484970261729,-0.00926814171348204,0.01265199500987736,-0.02214521278535373,0.018544154956656058,-0.06371187662959133,0.027992512372215326,0.006734423826550581,0.03145394479038833,0.014173324214916657,-0.01359985559000728,0.006618224180961529,0.0678800251321228,-0.0009392034663168653,-0.015018049539680109,0.003395762569075239,-0.020661466241336823,-0.053471994286090267,0.01045818979774778,-0.008121705432387477,0.04587623510572756,-0.0060955800649244479,0.0031863306784405095,-0.04001617248360988,0.024081046179293087,0.021602659901298787,0.009748871686473737,0.0779409699643415,0.022117690943971127,0.04253279036765024,0.05110782413880459,0.016041435913497577,0.008801574334322065,-0.09385590978783372,-0.05832893284714024,-0.04103460926951512,-0.061952501361734007,0.009275481804018467,-0.0012284288092387626,-0.020515606173246424,-0.03116950490144642,-0.047033497195665397,-0.06333906155302044,-0.0535909420602478,-0.0012612470750231274,-0.054054417637732787,-0.03295895959426012,0.05973317157323601,0.03761456725464863,0.021475406030102754,-0.04197750011622454,0.014703808901163398,-0.05466442072679751,-0.1080039923867853,-0.0013749689107043447,0.02977656661662423,-0.011692443380746877,0.01071415368325973,0.02286165446602095,-0.0050098875019042149,-0.02714781565645096,0.007795874690770425,-0.017039175412481425,-0.009133684100099366,-0.053557356814040699,-0.04841009275965121,-0.0642733732795976,0.01536470483594724,0.04483447875850061,-0.080688103536498,-0.02326220360543531,-0.08348195244186657,-0.0666187504785829,-0.042966682580563238,-0.07530849658296159,0.01956062363583167,0.036005312928942229,0.058546123020615837,-0.0012630259956973299,0.026883882171876814,0.03888438208175731,0.02395466783302062,0.0016931530275164657,0.003069359844422427,0.009815217715584878,-0.0016043416540338547,-0.03575925149191302,-0.009813686909670907,-0.052760899193858009,-0.04326737935678732,-0.0789407575873674,-0.053632730216280368,-0.10720265720706336,-0.05135457735990172,-0.1380660326391661,-0.02003332448650801,0.04303521646490655,-0.015554466393353195,0.036046259948994779,0.03761639684577112,0.019118944999290664,0.01551649853885913,-0.018121369304118039,-0.006313216673208632,-0.12112438114540157,-0.03483543257646841,-0.05609747554845886,-0.028662744925854076,0.030239677093687767,-0.029990362222359566,-0.03612540546811926,-0.10604203409000267,-0.03681194950773872,-0.10512784819585885,-0.11947578605811708,-0.036288623251786927,0.004543992191723798,0.029791494811471414,0.03672779591769271,0.017572006958631839,-0.061605775192713919,-0.06421030973466489,-0.0417029202565293,-0.016233007423709389,-0.03767046138136093,-0.022724211710672287,-0.045699324353231467,-0.10168586188388892,-0.015998241532811078,0.0202456100684872,-0.11470038031942265,-0.12179778068575449,-0.05191646458809829,-0.013765044238928347,-0.008371691996419897,-0.015300909562055139,0.10008535325611239,-0.00511065710954984,-0.008049765601726945,-0.047066104227993028,0.05861547775474477,-0.07041034197393254,-0.00576164354189405,0.028121249182563456,0.040846236973197867,-0.07239152083979285,-0.004285637624908586,-0.010537691876680631,0.01705347717674951,0.0006200652230425235,-0.08833147886140129,-0.0632014257287046,-0.07259304438434272,-0.1217774180493544,-0.0102291579334218,-0.020229559058922786,0.07412685752493009,0.10853992114228188,0.030214951194561688,0.07332686139770524,0.030014335968867525,0.0021129499946744339,0.07593018630278131,0.01671298138028017,-0.052699704265506,-0.006353978176268357,0.02021471380375318,-0.01654326040048259,0.0134757131403672,-0.036459077611098258,-0.07921501923200851,-0.06745971030521915,-0.0159798215026937,-0.01692529736729546,-0.03985938927660767,0.008926104222439733,0.05091134971305978,0.08098830610544329,0.06731953374139137,0.043623064264741998,0.08663176716736366,0.03109497383032543,0.0990961939964265,0.08912658304233144,-0.038403252330921688,-0.011977342828325723,0.02290630889109892,0.004089372745355107,-0.005389508973406504,0.023733575121800834,-0.052845379321925799,0.004839991336865174,0.04273033986986275,0.07908370094455823,0.054779539258892579,0.075277868680228,0.058341161560995658,-0.017033611516250367,0.10641744977297214,0.050932755711996648,0.08472855498821509,0.014591084968684422,-0.006548636133325842,0.0673951126725876,-0.04635676484912548,0.04388209009000616,-0.015573870091378943,0.05584377795030265,-0.06796102666945636,0.001914878596514531,-0.0066779974402988938,-0.056280972150386469,0.08253384460929601,0.06661153922602334,0.03427899004365334,0.12223080668205314,0.10052311383131563,0.12512694187991994,0.10923432037585476,0.03911241902255151,-0.03315466405043109,0.077719477502539,0.010166553950086118,0.05100300484156629,-0.02036205448914086,-0.04877824507126662,0.0872944169526952,0.04968713520724089,-0.12947003341711486,-0.04577267263412158,-0.0368866635206495,-0.029424833807593876,0.04523766040761751,0.09943634575465234,-0.008645399223088069,0.03190289434218029,0.05422387900739173,0.027224633605514388,0.07169061970132763,0.012719698496136219,0.1325661291322029,0.10433045038529483,-0.004538624722849184,0.023370246024913514,-0.03237330690503783,-0.03843282816696138,-0.042141495814421118,-0.001173961686424214,-0.021250755690357758,0.01633555979967136,-0.0007457244751900884,-0.04026441553944729,-0.048733615085398199,0.019122674212284257,-0.0009498139796032325,-0.021652745656200107,0.022531736554961616,0.017317334170722545,-0.05378936771797928,0.050517292961828708,0.01826159861174066,0.042208753936158447,0.037390520654629288,-0.05488512803640394,0.016254111059665165,-0.06096679059451704,-0.0895161182811584,-0.055006540325244369,0.027782126798186099,0.011799914506040243,0.027403046266395199,-0.046411421557849389,-0.0643235111814438,0.0009851716364571904,0.011936824651697674,-0.011913710456576325,0.019598892622132805,-0.01996154340873809,-0.011293943713618344,0.016020670134845494,0.04887846977809587,0.002778710834458637,0.036978820899571159,-0.043544097132660299,0.06418388014133197,-0.007407079067704483,-0.05185158457409704,-0.027123709177516023,0.021729980723485335,-0.05746896042626396,-0.03544570839935835,0.0314447368475219,-0.0027396516995935847,0.007733030805614318,0.02051474840357854,-0.03416267702883298,-0.006180400537314046,-0.0006606829043527506,0.03660484609775812,-0.009408244281521135,0.02088081698916961,0.020091848967415023,0.031001493856393344,0.07383893264023951,0.046639608216474299,0.013019551774288808,0.01701732065887426,-0.01501952919716916,-0.06052536529943208,-0.07426629969074122,-0.07083794824119567,-0.04032882261155391,-0.015923734063481407,0.02332439269578359,-0.027315011194433394,0.019528326025196265,-0.04701150472180376,0.042674292887012497,0.07340556675358259,0.004460750171440842,0.002059865659166907,0.057117669097628036,0.01689735848038413,0.009565110065804459,-0.031204398059071448,-0.020790024067237245,-0.04873451655842923,-0.004454409828921498,-0.028485151450962293,0.019116152866774925,0.037219883760972568,-0.03495366773215642,-0.030747589022311934,-0.03648837469423575,-0.03384637639236596,-0.05483244188171125,0.020866472513446839,-0.06556588086557778,-0.007362318977832665,-0.01271818506111078,-0.0030463010270947927,0.011157933460817789,0.025104289538712,0.007485921940101217,-0.03383038467051529,0.0009494012393562267,-0.04298886971346892,-0.027406516023299265,-0.0005787476356306197,-0.041280370795617398,-0.0648616550209757,0.03390984620228523,-0.0743074834232927,0.0405888147643506,0.057367340025058919,-0.007615825258055236,-0.0548121761011052,0.0016385956959337955,-0.059633747172331049,0.017437460638141539,-0.009801275929329064,0.033754847775937107,0.03765556322643556,-0.05286691658095208,0.051801997108394007,-0.055813668754169248,0.042366580867330149,-0.021152028654098415,-0.060967775180115629,-0.026924798591965256,-0.008834056087556861,0.006684295208150975,0.0006301164644978469,0.08857052145166726,0.01850241439882461,-0.023191634406594144,0.03255461135924826,-0.0012287189916750388,-0.037151328641431228,-0.011851957484601012,-0.01939695517806576,0.00871802296547083,0.0226827999204777,0.018959318412735357,0.0032348860398594577,0.03511165146349501,0.007858675710057354,-0.038988312396229757,0.02314851355299709,0.01356387645704656,-0.013739214272977356,-0.0018840828760952986,0.05560076285410828,0.028659403102803676,-0.027830406859565363,0.01737054068058215,-0.02806594613986849,0.005241928291164904,-0.021256720651282574,-0.01184175700318722,0.015093522510208254,-0.08303077652525441,-0.02034828696125173,-0.013768503948999095,0.025840224803489618,0.025936019234859124,0.02166866635465235,-0.010724672055683314,-0.039462866252906247,-0.025868806201887707,-0.07626225344884948,-0.06739081396315963,-0.06737783904846137,-0.02750731960358866,0.06845253505764218,0.054811742399296047,-0.024116070229892106,0.02102807206717803,-0.016613912988103938,-0.005086543791906726,-0.025593178918662634,-0.032658259446657868,0.03851075532626183,0.005175636136393305,0.08337129356049071,0.04174696855947969,0.021835017590923487,-0.046313362804015299,-0.04968521800590629,-0.04032103738716587,-0.028403928130423786,-0.04766975555135951,-0.04377984395121381,-0.029333947317835418,-0.022577323508115554,-0.025420308323756005,0.0036527840544092859,0.09030457337370411,0.07516158205552041,0.017076135852513983,-0.034068624483225239,0.03235802303319306,0.020719743188128475,0.05358135387759889,0.02434356654084489,0.08513279000558201,0.10088780438474343,0.024630492501918605,-0.023410348307100503,-0.03312460073163993,-0.011019226514641418,-0.014198265440159666,0.007031846755683746,0.10943293563193345,-0.06671330409009049,-0.05732213892976983,0.02537852524949699,0.07874241427636458,0.05717313701558773,0.056990290258929317,-0.019547391538754494,-0.038187707470968,-0.03571376148674135,-0.01939703833877669,0.013415523661937488,0.08299369321199529,0.06102766149720072,-0.06965683213435532,0.03290304998169337,-0.023255903579016098,-0.06489103113821859,-0.06211532839352421,-0.030757747390584374,0.04812616730109374,-0.018905556200588128,-0.022233072927274067,-0.021927026650149174,0.025184472020127449,0.07822114683054707,0.032864730930414868,-0.04326897692854417,-0.013999494477265409,-0.020333042963691866,-0.03611910168609805,0.11728208375965114,0.05998053380605239,0.05830275612986107,-0.006525564251373468,-0.07734079386801209,-0.08156118466387409,-0.06914480784012986,-0.04397071366330101,-0.041672866925427657,-0.011383746229157853,-0.052591189176678997,0.05240183450937095,-0.04970006979438017,0.006159280574009743,0.045367557425998929,0.08642011382057803,0.005739800788550437,0.021796890085762197,-0.015481579676379117,-0.015900004204421379,0.0662914702010106,0.11568871684454758,0.08389443429229282,-0.007342703297789792,0.009568897753439072,-0.07774507111163906,-0.1028299295772937,-0.024805294103610915,-0.044560896198865867,0.04396142125678641,0.01863653713780249,0.006289920459223207,0.09124346227108238,0.04047733278003528,0.1039792040450942,0.029841272707287128,0.04020534791607904,0.048088819507880669,-0.0579307961911288,-0.007838357717083989,0.0662468900277071,0.14516002994778796,-0.01820898240074081,-0.06106785911678279,-0.01119692337963335,-0.052842542723664388,-0.020310683171254428,0.0528959832700896,0.013306244663476914,0.016174048265212818,0.03926301367168502,-0.05999594010943144,0.13706538858109203,0.09521185918686609,0.04156510348389832,-0.002038530419791943,0.06001713099310204,-0.01542496066154348,-0.03337380844353831,0.00234782390492015,0.05084189673156852,0.06550510217005587,-0.05598781144599957,-0.06670610952482277,-0.021544829609461654,-0.04255709342550636,-0.08102067863874785,0.004601966117728108,-0.08703963282653804,-0.02494439096689257,-0.06597247373312515,0.016917392571030675,-0.08702386436994733,0.0306557263343826,0.012537950568658595,0.01778097423772341,0.011427132296643616,-0.027200307563933935,-0.049402421507654208,-0.08872360339660526,0.06270363417690178,0.10511899818993609,0.04495283918090939,-0.05965280438430384,-0.031970089089118278,-0.08484357648690398,-0.05956136901050949,-0.006732947379001255,0.06173934463096242,-0.06978863121368918,-0.09305426562733293,-0.05763311692472743,-0.03787095104308723,-0.014224103261002677,-0.059692362260223227,0.05968838201505614,-0.049777573165635458,-0.013629274056401042,0.040264018301829528,-0.0651986715823553,0.07746616012667729,0.059544638688453038,-0.05340118435716875,-0.04957362801521169,-0.07544003274362886,-0.022972590441348828,-0.07923468276488997,0.011461068921387742,-0.008267665599215017,-0.004616185169761578,-0.0549608638741266,-0.06272861512657217,-0.03644134630303117,-0.1028026506662223,-0.05389209269115079,-0.03962036777934934,0.030220780593295229,-0.02980733450960439,-0.01617973163187387,-0.023096531973603879,0.054027113374854548,0.02170791471650483,-0.09014109046585424,-0.1368578753499069,-0.005447944246609724,-0.08741237937411362,-0.15518423707551114,-0.13140658050775728,-0.07139818676925575,-0.047585627819205337,-0.08871003488429769,-0.15550249899110314,-0.08344491401487088,-0.06672051574374594,-0.04967974291997408,0.07298830854218407,0.020518926901782896,0.015258341702047283,0.005421715450063555,-0.011095186986869666,0.07588831702405173,-0.06913510786274231,-0.049557344640289709,0.0002038317136231441,-0.06561506264107976,-0.08698619061310899,-0.1382855588422107,-0.070962320105683,-0.10172540836724546,-0.11758981864587276,-0.1223529543823698,-0.09934551352202946,-0.06506403000931066,-0.04536306121963821,-0.0918135153645484,-0.002819847522033912,0.011737270445781323,0.015165526930323779,0.02785257290498177,0.010842059863548824,0.0752570155791909,0.03642452186058316,0.007339562504400714,-0.03466274149371202,-0.006765431792976653,0.0028365259794600205,-0.029477969034742606,0.04217636002235599,0.029080781344399694,0.0038321168901339016,0.02914178630892482,0.03298248921217328,-0.047002818597313238,-0.012915660984604109,0.025306903064713904,-0.04767822680316093,-0.04744115044125413,-0.05055371920564837,0.03980881667824369,0.0371541920856508,0.038528105694896768,0.06315662913378636,0.040746048474484337,0.11867731852838132,0.06989319268990421,0.09443241940844748,0.049412588068863848,0.03901826982244804,0.06160531430007037,0.09579051030700164,0.07005579838907591,0.11100079567728297,-0.005747045688805992,-0.03654398028120468,0.041205199996631077,0.004239776239079196,-0.07091835242178048,-0.06538603847458646,0.003301060369027631,0.01483333737522856,0.028044618200898046,0.08796657082371422,0.07215935949215427,0.06134497181400484,0.1337273864780044,0.14072931194075476,0.05468282182748971,0.10062293033626961,0.050725199440495378,0.05325701987254879,0.12473757814856486,0.04295440363310368,0.029946294465360555,-0.008377010777754272,-0.008493544828840343,-0.04631619754726338,-0.04732378424623193,-0.011955684521875628,0.06026123776059091,-0.06867449465574738,-0.005201649687277316,0.11009964547718534,0.07360431372929886,0.034996040490572328,0.04090255646491995,0.10924122272366041,0.010472860626622425,0.046291904568678269,0.12089237941526478,0.06733705730811253,0.05677175235700259,0.06841655123210143,0.026148100022039174,0.006741995036648405,0.07758913404931328,0.027575812520191348,-0.025444886641606606,0.020159998244382216,0.033854002112458269,-0.03865448012150084,-0.009244643149868268,0.10196752790904124,0.05844232960757236,0.10437428855328783,0.03511417248863153,0.027649098028746389,0.10981320079520457,0.0024450032572502376,0.008529550923293916,0.05754817045932887,0.051394562625195389,0.02890087709889931,0.010206758173774816,0.01634755593116093,0.06501367867784101,0.07490963445451995,0.07806438289636615,0.03587512956388247,-0.03584296667176258,-0.020577604226449405,0.07342879747128585,0.07570339906261815,0.03181604404230764,0.020368437840997977,0.005675898162019063,0.015618542629990058,0.04032645809202606,0.026237320573188548,0.016440808954819167,0.015293920636858747,0.03562846184689384,0.02478990978883143,0.009676637189297209,0.02127228716125516,-0.020339119244417539,0.02238656171398035,0.0026979859348037619,0.03819109913837038,-0.0016646825628320445,0.06741185914756802,-0.0034832002406412715,0.06640970351622709,0.07187753558168007,0.039723387594336089,0.025279049570345336,-0.0019748052675733287,0.0047350213588513308,-0.06563143244145471,0.07870807205763242,0.017302464987117479,0.08992271558714459,0.012301874700256037,0.004009041969467637,0.014225951706821762,0.005032487726601523,0.05448284056753496,-0.025097050205790097,0.08006029714309793,-0.0105998418495773,-0.054141167568790209,0.04672228595080205,0.05992816242033285,0.019935980528230328,0.01274033052116708,0.0444090500527625,0.011032064870988566,-0.015979894444680379,-0.003961138907431914,-0.0065391409723725489,0.050485769101534638,-0.03697874721309971,0.010557439683419863,-0.023320889023365079,0.024943806551854805,0.01802914258124639,-0.06520584777996637,0.014052589417747496,0.0359420418920573,0.025386926456128834,0.005404385014628304,-0.02571866599304281,-0.11191661295941989,-0.033324039881846737,-0.040113575351147869,-0.023825088476847009,-0.04341482294780291,0.08385203822069681,-0.0009182701606267577,-0.06778904423392129,0.05900581414321098,0.051328223730414,0.01641984882241892,0.027604866973607799,0.0647837866118542,0.07783413718762535,-0.014011480642870639,-0.08498210741263779,-0.04447312837329537,0.005648623125208403,-0.027024627510142939,-0.11218480398979114,-0.07079941436433512,-0.021290878981291927,0.02148059325681199,0.021666638904414498,0.007680137873448936,0.09146586067922195,0.1933285362482517,0.12411609332875719,0.07802113411060746,0.014397225527744065,-0.0247311784089689,0.02975604388777782,0.09542120878901103,0.11730718966927624,-0.010206061822936604,-0.054992445056141477,-0.055032912198029398,-0.08803379255063619,-0.061476006129065289,-0.1927329209570818,-0.0713210026998316,-0.021361250764177166,-0.01217265179226828,0.0164991893650087,-0.05323130075088751,-0.08526199312625471,-0.031278252010248457,0.08427900025055937,-0.020813837029725086,-0.04656974784404589,0.0646681046551944,0.054511709839395,0.04184432141940555,0.04196167616353534,0.07441958353581028,0.08749445251319432,-0.05810717723261643,0.03525071393222783,-0.08110531638475843,-0.20770526399264203,-0.11002200724012608,-0.033611087433674368,0.05042524946388681,-0.06608085163778671,-0.013320285203951595,0.08881931224811489,0.026613022708556846,0.10277363130012252,-0.003707067852308101,-0.020968484024793577,0.10244027281535814,-0.08359869747592093,0.04442199688389908,0.0020981490159457355,0.027498011635338404,0.09208359381603339,-0.1182216438831541,-0.04134960050412219,-0.08381996400869688,-0.07960489903684505,-0.12254584775419063,-0.023974451506333373,0.024280064135549296,-0.004824933897925825,-0.03219428779872865,-0.009838244192501246,0.07088302161076246,0.06544135987938389,0.20946433641966456,0.16116353279389004,0.1223490898257755,-0.06864030545753552,0.09752546702852375,-0.004714412586642879,-0.04771081321801165,0.010833883346699557,0.011788658683700966,-0.028159229894299109,-0.045401463663956299,-0.1057715275006176,-0.20387177876328645,-0.11717580243399122,-0.08544377009036008,-0.09990422869644092,-0.009625154147009716,0.0854711937898069,-0.017499056614659716,0.12280898177007575,0.10445939532872395,0.040723631741304357,0.11205962875525107,-0.06452652443964616,0.06292604325464238,-0.05775510153859572,-0.04095706966268798,-0.08225036841477301,0.0536182988412689,-0.03234482677598567,0.01441248977654142,-0.04628695901638863,-0.018471693740511255,-0.02911974177859991,-0.034597584734801119,-0.09252669763172561,-0.1228694339447694,0.08670005240457456,0.08553974350986578,0.03002318245814177,0.047219932967919379,0.11664912666738983,0.05152696317002512,0.05935461854513996,-0.01804230244683843,-0.032567421834519379,0.03513192014005635,-0.04750813645144089,-0.028528448348939033,-0.05292593947021821,-0.05413220436502845,-0.07786942019788386,0.07769072205631768,-0.02285871391968742,0.03687501828820345,0.05656077308841231,0.0856890481437625,0.17129930186985718,0.22912022600592953,0.08341261376941113,0.21428641599007038,0.12458669799617867,0.09081545630746019,0.010079088760095558,-0.07136365555477012,-0.03546615813172942,-0.0063260958152708099,0.025981623941839756,0.005624472630318685,-0.128157253211692,-0.0734145746618675,-0.019791800587012299,0.04354992572665053,-0.05937500194600359,0.0792650019515715,0.027412637091555088,0.09388317449509531,0.08613510792955399,0.15820214793184385,0.17802818866588047,0.18421148089479107,0.004112426275399333,0.1928927553102376,0.15553278063687138,0.01871519105218242,-0.14196040043351036,-0.08369980236517774,-0.012136221065082541,0.008848872829937486,-0.15467577673128334,-0.16015113050745373,-0.06414483137324695,0.12940812953756906,-0.04694385149664068,0.11698490156067082,-0.014052810402510078,0.055770723212275077,0.08589710283491946,0.07755500371798327,-0.01861714405535377,-0.1694047512666727,-0.02065222944678553,-0.013310294886624478,0.009718556613285265,-0.05810208576462156,-0.003679395740509452,-0.018694978651701698,-0.05306571282154371,0.06002905490233478,0.01053185081483143,-0.08891628286043525,-0.08388474797223059,-0.02532901664764587,-0.016303916006094433,0.011255248560953195,0.05726581497032723,0.1792323612742181,0.07733949656381439,0.19680385461519765,-0.01775306113053189,-0.01622150453662242,0.05465813222410037,0.03445656967239494,0.10832453056689562,-0.04307121291031595,0.05305703643299033,-0.07910845558021686,-0.0071823388550429699,-0.01867092342092826,-0.04733213801273486,-0.042091138634282449,-0.10034211726972396,-0.012288774321195523,-0.039891396960951879,0.058014367562318838,0.08320405482841018,-0.035599493408638768,0.03665019590910407,0.04661801124843698,0.18473833917479996,-0.01115947112422663,0.05553337219471651,0.12224997713500703,0.12115604325825005,-0.08157070387518259,-0.06615139016247117,0.1825183335604632,0.09554058115534389,0.013568522527050122,-0.042449592406186769,0.11636687288251006,-0.07861387081329277,0.020682176125599307,0.08009575356513443,0.0186876892593211,0.11727410512351877,-0.035102867606416,0.1270566864821799,0.18170360114899576,0.18919805018621994,0.12038287684756823,0.04716583855650557,-0.04708403669972809,0.10176568546486996,-0.25369248190494877,-0.0545046677291559,-0.024701153630371069,0.04558051015053143,0.0002585216347689952,-0.11103614794993276,0.054660470364753997,-0.016153628396565233,0.007486795275095263,0.049555557953881879,0.044532196688922009,0.022898522899197663,0.03602071216322071,0.05151815171804105,0.17734064860490396,0.16032725811772473,0.11353044315795241,0.14106567985441358,0.044719608077798709,-0.005690199433225015,0.006599871033181774,-0.04251826924605954,-0.09056389266810176,-0.07978316081988579,-0.04422194565646792,-0.025322882134368054,0.028417510910160337,-0.07756641811395002,0.07014857843157385,-0.07536875772950326,0.03836842989584728,0.0906104791559398,0.0740317045355519,0.07171041082556784,-0.03113527691164967,0.06797768093246326,0.047945521520472367,0.14630880112343565,-0.029564271620379998,0.04764557475188585,0.04951925776012723,-0.10785895716357319,-0.14245622527439356,-0.057262074671027497,-0.041468099790500808,-0.015089291207372997,-0.06810630227007865,-0.097365853503206,-0.047508434724439777,-0.023539487201074,0.10534205887415804,0.0699346533183095,0.07224142974531518,0.06848383537186102,0.08463766347007758,-0.05677101071822476,0.025765795182931329,0.04277003186301937,-0.05431944113989149,0.09631355453532536,-0.024282719794089848,-0.004638945556226781,-0.04302543156031728,-0.031702387883632918,-0.06981350134871758,0.0008311015916808879,0.004432003579678144,0.0338343456349112,0.04898443465827429,0.07149934754180837,-0.03094017293397919,0.07539110602433304,0.048203200610627,0.10145569874092067,0.04094973299716794,0.05337853956941685,0.007848416608076645,0.0817563318905225,0.029771781347776795,0.05307690232344293,-0.07660533675353874,0.027831620631944118,0.08177805721770053,-0.012616954119958264,-0.05969107031219856,0.01650892159305404,-0.0066187808206961099,-0.018154537666313025,0.036336627356526009,-0.0015136115171110493,0.04253575600895724,0.032111942794113567,0.016821787142035865,0.09981335466182373,0.0045069173081788049,0.08343562748182865,0.06417089703342839,0.059746649917137278,0.019976772374238343,0.0003917369957465925,0.019925856992317846,0.0732218501043872,0.006028217851839776,-0.056241326750205909,0.07753476484576992,0.015347287281385724,-0.0032560673701270174,-0.06334165476029334,0.017419378903108176,0.041469076861236627,-0.10427512761981131,0.10794265298968987,0.011643672184279685,0.048709034847667889,0.06272369952846747,-0.013526508215235926,0.04908456634531508,0.06640982404044334,-0.06067763861821388,-0.04193252869386597,0.00829288298520013,0.06649216202333162,0.025916458639095108,0.016001997758400344,-0.002425325372811853,-0.04262415336363589,0.02288958902162666,-0.04464384387640395,-0.02935620210787935,-0.04792694038467138,-0.03171112042189432,0.03678301716302307,-0.006393714659374734,0.053640217669541568,-0.007494389227335765,-0.026499330721279216,0.019737890359915475,0.027220477658084189,-0.04900865693889463,0.04518378459235642,0.001516808305781681,0.025293206515230674,0.035388536244211909,-0.026945653602115178,-0.009742797466346244,