{"layerSizes":[400,128,10],"connections":[{"weights":[-0.017306491057653415,-0.004570807617181285,0.0395464655867089,0.057041092419114137,-0.03887509908136301,0.04252081932340392,0.08700295463050772,0.04134105654116114,-0.03898542238323048,0.02704983174019453,0.05188656482686676,0.06658888485064059,0.08094434650804609,-0.034146605465632407,0.034653870236449117,-0.0002352890416977798,-0.01584983100762831,-0.02727302324992816,0.007857781440038571,0.02083446205407977,-0.012291259933343549,-0.01921500839849134,0.04418583715865733,0.015802565417440428,-0.003032039464417595,0.0531563893080965,0.02565774333174788,-0.04460071016921413,-0.037961742773298199,-0.049454514008375898,-0.007527657789322009,-0.04573932129018448,-0.11017052514182521,0.024967710523134846,-0.04625399556094466,-0.0241139790248222,-0.03677296872331472,0.021195622321898375,-0.0854985239493861,0.002172450450148154,0.07426818998052107,0.041346393415623027,-0.009584335843026934,-0.03662197848078112,0.016317544404123715,-0.02789036799353474,-0.014751958052101916,0.021593347999757509,0.06240150334409034,-0.05309525876335211,-0.028836401457297796,-0.053384748286591617,0.06423916543631755,0.05732066201096521,0.005980468877094106,0.039292009225175849,0.024412602890418666,0.04127334486339059,-0.11714224394658914,-0.03222312706365653,0.0362577242898637,-0.07842952006397547,-0.0010631773984674286,0.040211064462447296,0.05342639262828802,0.052182004593354699,-0.014915980370715017,0.01129711921060701,0.005519701495839557,-0.02285180089715358,0.042411662643676028,0.0076440124958213179,-0.03611376744348454,-0.044604588016627009,0.015676461609734728,0.01558206143603815,0.04191228356854389,0.0733663995271825,-0.051830883312759607,-0.05179818271541263,0.050694600963564508,0.014697155629592413,0.08917651774446359,-0.08559733352494975,-0.10143283424677339,0.0031396932022859519,0.0804199429959442,-0.016697666046482683,0.0560645537532818,0.025447752554111186,0.13241169329420925,0.042344071618322747,-0.06509010703373296,0.018536040111798478,0.07100261446832394,-0.04701364106135208,-0.05090665704433253,-0.10616325329222215,0.04034948214878494,0.03485056035175527,0.04016952169617064,0.03269720023943516,0.09886689472853731,0.03378858798056176,-0.0000721264694929589,-0.03662642837411464,-0.02900088960800213,0.014404765636585703,-0.0641945601787504,0.05998067034143535,0.12027733548876656,0.09390513754273478,0.014609555399878998,0.05489380294381581,-0.027640304807632925,-0.03109014525540394,0.13932724887206278,-0.0007999824937882706,0.010310514259604709,-0.009392080305639178,-0.0024043109790015616,-0.06055334959593427,0.0012194358209463954,0.0010625577042906222,0.15367189530878062,0.011285034717315063,0.029574557048486016,-0.01589555278027484,-0.005988552094139798,0.023557405306000854,-0.06202004849887512,0.014316836935929164,0.02650304827160256,0.010354394753359215,-0.010235581845377999,0.014168974753049634,-0.06163448750108895,-0.10420605546055104,0.0028782467845182406,-0.02280779478866942,-0.03232698378593466,-0.03497297808882678,0.15494516935435974,0.18131521874467536,-0.06289278934208642,-0.02006841616046702,0.1004157094905916,-0.01408667670679676,0.09579018095406528,0.057857423985929457,0.04468920940142918,0.024772217138658529,0.01290359018555626,0.10981275600079399,-0.017542436834257104,0.03933085558947536,-0.05177741549622438,0.027217365019486199,0.0296366973533416,0.02732374957332215,-0.06479908376612582,0.060312760531113177,0.06714544949773904,-0.005804176750943788,-0.03074188173971339,-0.05725637531849988,0.022217656416116724,-0.023381697718354658,-0.025912598684137764,0.03137313083104183,0.06431432723001841,0.05659569204546378,0.04985111306435358,-0.03229680166020379,0.0747027116731981,-0.08560815719519936,0.011097081691608117,-0.014846044650273649,-0.0027560606747132406,-0.03347056031581835,-0.06401267283491356,-0.007865584475071873,0.15931387680690685,0.04758234447408801,0.07112767420859123,0.03923408114169547,-0.02328232616962079,0.0332756275284817,-0.005490390913036451,-0.013365413919715212,-0.060373012000712118,-0.0923586975141334,0.04250883252394078,0.0055663323048785059,-0.00022102508142866258,-0.010302255309858438,0.02423823400184322,0.01757292272243098,-0.052334558788605638,-0.014954133814259812,-0.011558828939952974,0.029105445216534809,0.0611901515507258,0.046082575258893237,0.018916465591817728,-0.021342654957215845,0.09513042990395229,-0.06057655874302998,0.0617539149620378,0.0058775253587914,-0.030173717008902594,0.018090866965555814,0.00812492354338893,-0.005912284730985825,0.04925277334183379,0.006478679993662553,0.028079499192966364,0.022683455280863,-0.014171359859113138,-0.020929132312935605,0.004422554789499778,-0.03789528472702296,0.1306343217473153,0.07847842309356279,0.05541479465469323,-0.02213976988475502,-0.00812315091113725,0.017017961087208573,0.011070197764269293,-0.0000554588963240598,-0.06959355851210716,0.05026308246190772,0.04144959589451519,-0.015476431809667896,0.07045196257680227,0.04383485993205491,-0.102248184515965,0.07502747974271144,-0.07687898904155627,-0.0824729649285183,0.06757823963916138,0.0009630749111190397,0.004910192102316531,0.013104288073678602,-0.05066297960224093,0.008722302462725138,0.030133815514662329,-0.07146442243285253,-0.06865732375927322,0.024564506741672835,0.07397130368197369,0.02361241730603059,-0.006439490500459051,0.03664259516930671,0.012869040761801374,0.14188320300594629,-0.04085161022182269,0.03515174575356988,0.004755990793800509,-0.027340705194179503,0.032151302135608367,0.0024179506898725406,0.01787702915496833,0.0473054928727976,0.05602362997310465,0.016570882668589805,-0.0005504629786241854,-0.07070714092106688,-0.02921742069329144,0.002334066140846093,-0.028599029112546069,-0.06383634239376888,-0.04881573425018565,0.009934419439162479,0.025044363326681176,-0.002812751441641033,0.04592896572015614,0.08778695482468523,0.13246987783462273,-0.07670224027350656,0.030859260184519813,-0.0056032569157821909,0.033105725105003588,-0.051290614338138817,0.018314703067110154,-0.016513592463056508,-0.056383741072650237,0.03892098283127454,-0.04338552095362621,-0.11029620009590029,0.07881895171484682,-0.0218052308524507,-0.05812651766788211,0.03235012590682245,-0.0347137900084057,-0.08922877046995553,0.03703481663393536,0.04294645838531957,0.046022471470643869,-0.021065461859380513,0.02247094132527307,0.031047253171094026,0.10700881559270983,0.04750996667029266,-0.005553141579840064,-0.09253518335987532,-0.02511799753353932,0.04838158544832597,-0.06377255538517374,0.003034223793770076,0.031347742836452707,0.08514744159387598,-0.011805055862552918,-0.05737219344757566,-0.002328007293135856,0.024892664697317887,-0.01963824732017138,-0.04964624901036844,-0.043559846896955387,-0.0845902520485601,0.004501081693217488,-0.006222885119593394,0.031508001847807897,0.08629500241965778,-0.02641790200978846,-0.010501567325861796,-0.00589059852367105,0.0629702292869009,0.005685072249170713,0.08057564769549677,-0.05317593106000501,-0.036177682609075108,-0.018690879720757889,0.006790983231281797,0.061758198362225017,-0.015517323062925453,-0.026213738417690169,-0.008940741693088452,-0.012202218520598697,0.11050449325596919,-0.012642255788986305,0.008579529523615274,0.09730549449315347,0.048664718986318227,0.034976177723660979,0.019255674024649687,0.033716082602458747,0.07886283913326336,0.06665504053742415,0.0053656648663874769,-0.03866483351934908,-0.04017712110779526,0.06447520891503332,0.07201693474248389,-0.03058829118266272,-0.009647628165115304,-0.012031899069920759,-0.032685870028460618,0.032525853038518067,0.07101923468035275,0.019372919109983946,0.009976886071570837,-0.10442902472056526,0.0782337991223961,-0.029360269991992838,0.011882033614516863,0.03797656438952286,0.03428082676519349,0.09903319064298343,0.009815963973411541,0.025286010980311317,-0.007793513643614945,-0.01000703274650022,0.053299609046984757,-0.0070436205140788,-0.040609549678632259,0.009034060602469292,0.0029606400777052027,-0.06658223926435118,0.06042129881279746,-0.015366329686232543,0.03401748573230805,-0.04285096799979256,0.012572675165765978,0.06904483124757056,-0.014773858837928868,0.0404000308689412,0.08750761103073926,0.00004860421260975232,0.012767762437948085,0.011652142285694726,-0.002294700240692854,0.011597898807758368,0.02087087871874702,0.007617089790230678,-0.0015578460599307764,0.03274220839910507,-0.052239636393402257,0.05194051369256322,0.013458853400046236,-0.042374723336479989,0.04528936019556855,0.00639613953782669,-0.0003971639544560448,0.04014677500679729,0.07154690100498512,0.014671305119334613,-0.06832692928799546,0.06414269617738984,-0.01841602885460409,-0.03596074585864236,-0.06638953488204046,0.006195996935833677,-0.009211354787660562,0.007602400922609734,-0.0026248128702851664,-0.006442099369286871,-0.10276423171544534,0.07108510107122577,0.0032106968044211729,0.027308345092713166,0.03937958061851579,0.05241206347681846,0.0704549030241315,0.10746081571964805,0.12508275859597635,0.036224929927656659,0.04094147143035645,-0.000160962556932769,0.03985340419094559,-0.013103116382898166,-0.005144933310760867,0.02891790595762424,-0.1268818439749096,-0.06224088748859582,-0.06750875216211484,-0.024123243667207463,0.06391294200073575,-0.000050391882878956296,0.015872166117150669,0.07179646783933612,0.0235120025516527,0.058450307574550369,0.03326097836241654,0.06387898583425851,0.08050900339751339,0.0770491360926432,-0.04403393837025294,0.0369803360831,0.014928971456011577,0.038127122435935679,-0.06366821685750288,-0.037746499563169427,-0.01483588805307973,-0.05919413036681356,0.016936692572893036,0.04539427180405731,0.019681486558135058,-0.13451059132444585,-0.003733059670737796,0.0490655941530367,-0.013500026234396159,0.059066545329472839,0.007695377263582113,0.059641465675848989,0.11801516682376871,0.11474524415962749,-0.032313532082477707,-0.004349996539611775,0.1067367214478353,-0.007580745577800114,-0.027144054968337159,-0.055723080723949009,0.04065191250808828,-0.04206512345985606,0.027447565694120277,-0.055575772353727129,-0.007746495051424876,0.04051167561040026,-0.04688049753031163,-0.04917888168219682,0.010501249423592124,0.037175195989269837,0.01841754684881244,0.06386766689750716,0.016486115206036619,0.06024527938820542,0.024894279004940006,0.15718245672080914,0.018618840510118,-0.016922792144463115,0.029816735888542644,-0.030475625444345398,-0.01209440987523371,-0.014798415876502484,-0.035531610272372098,-0.02279619077630774,-0.027370474888568715,0.01862718130832372,-0.03521282392905402,-0.06456176952732641,-0.018804072708499789,0.012241548130517363,-0.020967457274371307,0.06892662355338457,-0.027417554339759649,0.023622403390903419,0.027491842957936314,0.05332570616282916,-0.02095359438336606,0.025435876848336929,0.044643825847301,0.10038791441889977,-0.010687343892787352,-0.007032479931219884,0.023082054522714756,-0.11137745342477376,0.07369987600721069,-0.21368007099281667,-0.06291581792935359,-0.03132030630993055,-0.049344165691524739,0.018334824449536867,0.09032165673930018,0.0325662108222239,-0.020149196080648598,-0.055561445084003849,0.01963159381656232,0.013766176332943017,0.08529093616123179,0.04361652779690124,0.08802594120684763,0.007781488379464626,-0.04292640753432021,0.0664969058147015,0.03762573301077337,0.0012977009066469235,-0.021157384251404448,0.036664103201056747,0.021018600707606997,0.0057053132485994279,-0.015729213549389357,-0.025039018854261097,0.11336970687607823,0.10843865435967334,-0.062161542166990987,-0.08793266373457402,-0.02010189319379655,-0.038611706670828398,0.07756661832441324,0.07969686547618117,0.09097164616133786,0.0333476961056238,0.0973116751620499,0.062312224735249239,0.07081878454492235,-0.03737289616571034,0.03000315675373786,-0.018530804649732885,0.019776208256065188,0.06560188010854926,-0.01926495505500123,0.011841243211854655,-0.01146312685260444,0.14371775130161489,-0.08313993259195224,-0.04124591519627237,-0.0013817501750849962,0.02404930118814356,0.046613357620760399,-0.03988763577748604,-0.0040892176961257399,0.06403384457308054,0.09204987945995523,-0.0038883469395956376,-0.0014926995787527579,-0.05249613639149866,-0.0519792245437364,-0.01032833851861659,-0.012564761846698043,0.07694409546221798,0.03638323778221927,0.08548229753523415,0.07185550383182822,0.07415396017698038,0.011184071088144059,0.07160746639455619,0.0689345434794205,0.09004252344400736,-0.08102358801444019,-0.007839114073922732,-0.04797786114366774,0.013750732800940215,0.04186808672518029,0.02418348303798283,-0.07225724861840645,-0.05436164833683881,-0.03211704200825725,0.006305617245233978,-0.035093267611226008,0.0025442230319856005,0.0591434494400845,0.03903259098045384,0.013054295263010935,-0.0006771838715288502,0.0811228183653312,0.009835508007177047,-0.0018157082448719688,0.015143128199484435,0.00008408999894851782,-0.07085509487234701,0.10148247159909697,0.0838148968131199,0.008510214137435747,0.04424405833341416,0.045329949076019029,-0.08423313180411446,-0.007151497496971167,-0.02500463000495763,0.032968000817352929,-0.028565786839188268,-0.031858024096322167,-0.08454959107075007,0.06387324910621792,0.05759350790201097,0.059824740173380578,0.07567763940561627,-0.008643313040959559,0.13263066694383417,-0.008409289614460625,-0.02639036744363488,0.09471788427360173,0.1603721896969267,0.008109822737900459,0.03674369910128867,0.007315213624478151,0.010422097418551536,-0.01093154184928194,0.05411879787313313,0.016169035665287477,0.08994901703384882,0.003730695815549411,0.10335579491633841,0.0026898926923395966,0.028579790759227926,0.013707637895328137,0.02786147254091841,0.020502851428736914,0.01735504530406083,0.09227237735867552,-0.019743851718211148,0.05735987994355187,0.004637207082749278,-0.019153388127490544,0.05452637740839338,0.008560646239150354,-0.013642819204384207,-0.000272576201976869,0.02598949883525336,0.00714711915178684,0.08955756651054903,0.05952771884500615,0.011789104672817299,-0.01686287440190246,-0.09104954076119,0.034106237783083217,0.007782855825385053,-0.04959859503912128,0.031401972783001389,0.0644723596563252,-0.04865030823208819,0.09565207236665571,-0.03419244951859095,-0.040996457445570348,-0.07862567932263626,0.009623962861479369,0.028035944820206637,0.044106567920388067,0.07375846245271976,-0.035019375188901049,-0.05737528637335626,0.03659483526593044,0.07029551228944849,-0.022379438001084465,0.10085623286426329,-0.030468552476175856,0.05693838330166845,0.029205648250860185,0.021390519353307066,0.05434854902454783,-0.023000584629239718,0.025461581238772965,-0.004353113379111228,-0.1776043435242317,-0.07660666776047666,0.04675225899807585,0.004675665573454984,-0.03685910431388379,-0.023531121503218446,0.030936266064535247,-0.027952473449687533,-0.07460589269786045,0.04045421243484501,-0.02637582942559121,0.02261929766515332,-0.02983355327726541,-0.01929762664722299,0.0035835726123979204,-0.03310728496130353,-0.0015931677871374177,0.07135517936704607,0.04256644758054568,-0.035440631975200118,-0.01825021547339975,-0.0940359563758534,-0.03562274287387398,-0.011647819608597472,-0.011718947311201095,0.03664739054718485,0.010570748170551004,-0.03831287956161174,-0.037121368597922057,0.028849017361617329,0.030782126927582744,-0.0011864789539689878,-0.026489265949330155,0.08275094391050964,0.018203998243728128,-0.027490206003447337,0.03519270040897779,0.03220684724397576,-0.11006264501648634,0.019091263020724827,-0.06339590206655162,-0.031729411332228247,-0.043239130175037197,0.04921630605809438,-0.061490538857771417,0.05164916126965509,-0.0007058438695150406,0.012443003813284315,0.03267190657252422,0.008510676941448522,-0.06921101135776044,-0.014826069365609528,0.05127270887612409,0.02198810824992185,0.007432422279591291,0.07201526524101736,0.10378860909243802,-0.03803020973568988,-0.03178943503585911,0.03947948290590097,-0.02749413314593402,-0.027457212275647449,0.04400165818156039,-0.04246073579069262,-0.028453303672617938,-0.029942762212168448,0.02107402911915659,-0.042757759469823169,0.03750599180113711,-0.02190318468553687,0.03967567488332475,0.034107074466229948,-0.021919782655022658,0.059903515467742408,0.01998656402421321,-0.029083921547106235,-0.05346900823176329,-0.016340149334155775,0.027697680175159214,0.006794720017558496,0.05003631215047942,-0.054405893309245,0.04392200243247588,0.10404538976906984,-0.051185289286516198,0.031190009747600304,0.040945253989847728,0.008217161343366527,-0.03743513738929366,0.14288704752709514,-0.020818531234686207,0.00901913750394296,0.017665844747579423,0.03363416445627072,0.03627290078169368,-0.011763964031777484,0.10747447605343046,0.017660060635156264,-0.055997844129567899,-0.06653742555497458,-0.01945011453358265,0.06327682100920319,-0.09213693257244468,-0.019919360820204639,-0.02852583535244894,0.07171308308016668,0.016839485671565896,0.005934290556778003,0.04818279832099714,-0.010779271345424856,0.020296339181649776,-0.07094999655924936,0.040540521280934358,-0.0290846881898959,0.06684784999385948,0.027679651865125129,-0.07825145710901044,-0.045202570169847879,0.06384807968501984,0.09178971129026926,-0.04829879280232131,-0.03387625880579734,-0.030326568456827953,0.06808621181954314,0.07272170067180275,-0.002210494365482226,0.047550058866173219,-0.048413925281631606,0.04053322517256842,0.05099809766848057,0.03394909683141693,0.0040813159604502859,0.03635271913024504,-0.028580621381488547,0.0070359080206409169,0.02421692400321974,0.11837599134183617,-0.009752617586835868,0.056362773039934487,0.02050120124238105,-0.0012071076910303142,0.0021602500768846358,-0.011034469693859746,-0.030419036635180409,0.028013044981048578,-0.11702151911415203,0.05371984204895725,-0.061061745525957767,-0.015271100798091853,-0.03787795830276578,0.024362302749157306,0.04549648760850399,0.005777855090724712,-0.08196624330798744,-0.007364741443337949,-0.09624533648101912,-0.0069422526840249129,0.035103500198483437,0.010206283014671747,-0.027822206811177958,-0.07558541253084335,-0.04921976607219334,0.084289487361175,0.042324639790850427,-0.05462447468450926,0.0033847656166865324,0.002992616206727036,-0.05611007052479961,0.012277252884951143,0.017703807156001847,0.04008261838070587,-0.07039284325680556,-0.05600053035465945,0.02633323911745125,-0.061482468192874239,-0.013595149005199824,-0.0013123167867534034,-0.04117022815331374,0.06784950550275572,-0.020742825666001997,-0.006643680655813545,-0.01257724200812284,-0.009699101835146992,-0.008452397553910942,0.08617599198420277,-0.04156568489370256,-0.06036467990110352,0.037504241721439509,0.07531607711451514,-0.06958365244618757,-0.056353800481280639,0.05016103317725869,0.014562951883482403,0.000847557125494818,0.006959600960647428,-0.0011308871322899027,0.0644206816161287,0.06134752634779256,0.08065279587326033,-0.004133054888235314,-0.015919395589702506,-0.11634640883455795,0.012022935570094986,-0.018837727869950448,0.008057879308102433,0.045268024354903537,-0.037665813373089367,-0.07229804500863163,0.0319502115650445,-0.05713399298547534,0.01821419776329735,0.011188638100692499,-0.036463857879983897,0.04179453731086112,-0.05336466838124496,0.006439647224682169,-0.08795375554901709,-0.00024711115267734283,0.05367917373446271,0.06722736334714838,-0.05448179520017158,0.03756605422852243,0.003000083096528112,0.031060882575063114,-0.022198915573633867,-0.0034753105044273136,-0.06533778456284577,0.052466593203238157,0.008297184528247289,-0.0036180134119284527,-0.02968136099349217,-0.04343681555046059,0.016633979916117558,0.003587618055193174,-0.019704697383898095,0.01707974069697648,-0.028305927547341349,0.0015234937600109367,0.04999655753772456,-0.03625331001951968,-0.02826193267765367,0.0428021808159249,-0.015588011670171173,-0.02511086517470197,0.06985003154076004,-0.03018990525071343,-0.01525310989291916,0.060243953769074817,-0.0015570484220869803,-0.04079808741110857,-0.08382832313000116,-0.04317065023072631,-0.04089187721483013,0.022172568977352919,-0.05028516339308502,0.06364538922244595,-0.05527258834810834,-0.02740268307363175,-0.08607670539722232,-0.08221989393139089,-0.01479055215993515,-0.012914750975854832,-0.03551347786980536,-0.008787510378128933,0.01827989435673289,0.0015243758374111985,0.0693362004761426,-0.018286069465278205,-0.11846812053224318,0.011918368046745416,0.008933968159164167,-0.0688000935003888,0.037168359868021107,-0.03566745625219595,-0.002418263462176723,-0.016003874232701749,-0.01918369132164176,0.030203350932886849,-0.03331569566772047,-0.08017957964555415,0.031161309354337045,-0.01683727517543335,-0.042048378311881479,-0.005914875426962526,-0.05672274173559772,-0.039254112532460107,0.03000526283901627,0.06115835942422598,-0.003700966943159118,-0.09460925219895097,-0.06338895586308999,-0.001883024967774344,-0.02346089648164101,0.08953274273173742,0.03416632207061807,-0.05411177828373083,-0.07894961001829415,0.018341987723852036,-0.05522087961388191,0.010810375919057335,0.09381446051977405,-0.01389052768254064,-0.012462516770562619,-0.036020953329398617,0.08851090174623139,-0.023643226821653687,-0.030441306157523795,0.09802778076428215,-0.04133330516953828,0.018461678067260746,0.0071346343603241719,-0.0024067501513134056,0.013202903726658014,0.03229467719263247,0.036870842846877759,-0.03453586259570764,0.011161850350134536,-0.06770645887419356,0.02166917358653364,-0.06682275858195533,-0.01127226154991542,-0.005370212942491772,0.004486179762208809,-0.008786267397704485,-0.05868171291354584,0.04352349411713,0.038614511163921189,-0.042368461072385,-0.010190144196744675,-0.053197698997568678,-0.014621628539737962,-0.010762206322039342,0.02145772004036199,-0.024893814494949298,-0.06865046650865511,-0.09564919128398991,-0.019350276036174356,0.003947515546181704,-0.00184935054011881,-0.11743892187093853,-0.008339039733300845,0.029818424889102196,-0.061927579837527068,-0.07965430987232036,0.04521221752203003,-0.01619153162614077,-0.013341577062475295,0.019348646230719303,-0.02905277435563497,0.012917964023150587,-0.04232266247345177,-0.02173606277714833,0.056599640155931409,-0.02157227064193638,-0.010029636471600877,-0.02439420113717097,0.0283822817991785,0.004714428127958355,0.0194339419311034,0.01963879263957599,-0.043344951198251557,0.009500723476696567,0.08201912193968063,-0.02184579770998813,0.042152745889036617,-0.018731657913361449,0.0033994636680682989,0.009135838404908902,0.0549239246150577,-0.036905566454957208,0.014923400139420135,0.03100955811119543,0.006587217664454715,0.013307402686218962,-0.12461166051081023,0.06003757935563901,-0.04093659445305753,-0.0875992194184599,0.035745652896698707,-0.05267201736995165,0.08160188705191812,-0.049942779819056388,0.02371328467932755,-0.055817607613813,-0.060236194867601778,-0.009738224419923888,-0.08231116205581632,0.04120663570669006,-0.018318878155803628,0.037818235355308888,0.1357315694930867,0.02506321711180167,0.034771003138587278,-0.018241151749084577,0.04537163626846907,0.07058898914513019,0.046602999881642879,0.06385534704974731,-0.04148918124618681,-0.03649322618815335,-0.006407579059726189,-0.05942122361453745,-0.014918917389439507,0.021027091776038968,0.0664383569602352,-0.05401846991865885,-0.0022868669166957249,0.00689492522120971,-0.06246731870522043,0.031043107653760964,0.10378681925845192,0.002444309318544465,0.018789870647883599,0.03582022264783963,-0.025504593316325789,-0.13430413276861895,0.0420610520359682,0.002027038693665704,0.06337316360312542,0.05046993754373036,-0.028377701915216343,-0.01764553383086818,-0.05115647569126655,-0.003849977715353069,0.05480918947492497,-0.03159507258191218,0.0029058687989201796,0.05004107200927437,0.04829496739788656,-0.004952752879432495,-0.044276951214429097,0.024911658304437025,0.1674164644607903,-0.03230802483485689,-0.0059111465021499799,-0.03542190500352543,0.006032914946739306,-0.03142385382831018,-0.0887014334751733,0.0014214591141370492,-0.06682548293995132,-0.022538251420936643,-0.015390435030975107,0.02305156342539275,0.07468792221357398,-0.02697170918332604,0.03193901160647886,-0.04831239695321182,0.005602487895414201,-0.04561105726729931,0.022737670760095226,0.007973477187664549,0.0885799420061339,0.005832743711821298,0.029257954053314145,0.014474062206336586,-0.06820204658884154,0.038874996455354009,-0.012980926131072936,-0.040439638979080098,0.008222141798987608,0.012280708935208929,-0.07602954975950992,0.03611722015246235,0.05380965146678307,-0.00027457818970078957,-0.001745458663758921,-0.08276977846384214,0.012412069014917732,0.08226595275133356,0.0016129813601475875,0.02287370671183518,-0.05948336773337199,0.004175343423073622,0.0015977658961236624,-0.02319284226664319,0.05562902211124145,-0.012215425941619568,0.02480706336116024,0.018250787832309314,0.05745625828603972,-0.05586556696958057,-0.021399823275859418,0.09280342799926238,0.07814474960734862,0.022919619566417607,-0.04635467303236513,-0.03587609073521957,0.010554328666750155,-0.040265648225983479,-0.06527167261705497,0.043459342019269157,0.029737673203834547,0.016126478955752964,-0.045744822079840697,0.0007180134363353908,-0.02676293760792358,-0.025071207063405284,-0.00944453055918057,-0.04616424390958828,0.04653928903095106,-0.010781215787147452,-0.053573073122645597,0.008054177691126282,0.02631359825830772,0.017079834425534316,0.045555058584886908,0.010712036578277296,-0.019363901129437395,-0.008684503342108005,-0.0028990929430323666,0.005177050954944453,-0.0053767070811945008,0.10734544602129259,-0.03898470031703452,0.013125999114462472,-0.008178839105272866,-0.005907358484625974,0.057791365033904567,0.047510698545811757,-0.0785560783317373,-0.0046436931971189049,0.0097746008240306,0.03531214298800255,0.015999092594382058,-0.07130489518706086,0.06893918653866006,-0.009562657508339148,0.013457375145727695,0.05652934655167568,0.0337812703680959,-0.05538823382224786,0.0033437287050578389,0.021214714356338223,0.08366731061747815,-0.01987654915581264,0.0488949434573143,-0.028786965572479937,0.018054814409834593,0.030239350456859657,0.028857087630222938,0.04116497156161852,-0.02696157469563023,-0.03453716104314814,-0.005623403636987088,-0.04254336357196207,-0.04451058693511089,-0.04612553790627896,-0.07729534097534455,0.01944505626969256,-0.06903538319388364,0.007321459474183902,0.04031321908749472,0.0010069593461840103,0.03261839437677315,0.010434353072811693,0.014189392880479889,-0.04337191717591442,-0.020659473244664975,0.03458155583320072,0.033774605762870429,-0.07240398067615284,0.020535861115952199,0.007116628258998242,0.028370912009160047,-0.017433043879913305,-0.04995285623456857,0.025100459598437636,0.02382370753283786,0.030591632583379569,-0.017586231749184213,-0.01232903640538991,-0.013444315229057577,-0.012185199031294832,0.07968699357146943,-0.02593356144367409,0.05504442852553003,0.004221712386478208,-0.06570285742117019,-0.07794346368775782,-0.04975088291270402,0.06888983090257139,0.012275395283109439,-0.008659836250045636,-0.0065620671876754099,-0.05238959841288196,0.07618910450986233,0.07342942165227617,0.003519593451846817,-0.023235500031418167,-0.013614466250785782,0.07043650742728211,-0.07458158360528868,-0.0029249871243269096,0.009159220540417358,-0.004062590199819646,-0.043285299268775657,0.04158879025410892,0.042225805902992897,-0.02049590925007375,0.03771509379399167,0.03474333429114137,-0.007088278883344917,-0.0371185042849325,0.06817741912849172,-0.02952374114786154,-0.026440188111193535,0.042093412729182228,-0.048636670243987437,-0.00394524760265035,-0.017861976169570617,-0.011082264252683574,0.039679738317548018,-0.017083325669098666,-0.08269107995587175,0.07504474412429091,0.0328605540586323,0.02534281231332997,-0.0045947265127258989,0.04777103485571339,0.07582718682874926,0.0000731363552598857,0.0166602454697202,0.007156754310587334,0.06052310425881776,0.05837942239665854,-0.08591184829804478,-0.022424507405333726,0.024085523350762418,-0.0693274565218243,-0.07989407056260653,0.06641533334376355,-0.039079720251229837,-0.008751831349306492,0.013017355964646953,0.023078205961923158,0.1309901182300466,0.18854112496206097,0.03954171184443988,0.06769426386553737,-0.11145257258249844,-0.04560053145724063,0.10752033926846412,-0.000807523808966135,-0.014290349121812346,-0.04034535772304798,0.03562368115308809,-0.006684564569162556,-0.003082866855050039,0.008411252261822969,0.07421963436384636,-0.026767989974389895,0.0014658137805681335,0.037751330215834998,-0.04427425531838353,0.03569406822562252,-0.015266686982447871,-0.050600662664994158,0.026403027059521013,0.02145489978498931,-0.042170238260029777,0.03917652129602027,-0.0018972251495531809,0.029532179149882707,-0.02733834770943901,0.06869356922854207,0.08223748959863407,0.03605276644107014,-0.024657299754058904,0.08582687887967817,0.025918730508421973,0.037729647897216268,-0.020951504569989959,-0.12078612199945387,-0.0270508885135132,0.02466452651111519,0.035132118178533278,0.0038372187889964394,-0.07350543242113172,0.056615985893759757,0.011103801815092929,-0.014209164139177182,0.02480311244071246,-0.04219722922517275,-0.04166130712946774,-0.05497519397287084,0.0359110663813755,-0.008399392579454374,0.012150688869764701,0.025625969814414008,0.1045684351667013,0.04614559437849535,-0.01457740114569781,0.08738903231295967,0.07709941265665359,-0.001155595723936738,-0.06543667210680036,0.15826802403943508,-0.023857426053921408,0.04526205044333971,-0.0557577612137389,0.017375005498864294,0.0717250249718111,-0.07836667766498923,0.043922084650455949,0.04676963659091154,-0.02196687685641606,0.040660222453277539,0.07952203588653288,0.054648771449229468,0.025109555580035183,-0.06567842048934858,0.04463390766990778,0.07343829847953484,0.046667171363087438,-0.013628509737593482,0.022963225683313414,-0.08658936825111019,-0.10517341290825505,-0.04711150396281095,-0.11606156882318077,0.0359196655162539,0.0763394453516193,0.05664660452016837,0.02866262371738093,-0.006947373759326166,-0.027653400762300753,0.03264873239237292,-0.03334611361155286,0.040859794855289999,-0.004341470961616334,-0.07097701696251897,0.027196515899994484,-0.021785970819919587,0.0806055578269194,0.028354596308872404,0.0399681313484986,-0.007924393625294714,-0.08710190668254883,-0.10833061154353607,-0.07370312457418028,0.06691244400430373,0.02310649270483455,0.04653674227202338,-0.031193596442606304,0.0007360568732091352,-0.01666200956442488,0.009234098586292003,0.012048051494855498,0.023727884598456256,0.0238601134285252,0.007220149419405025,0.04180379637494396,-0.031097973778876525,-0.03610784123084211,0.050451987874010239,0.09127129708119308,-0.006379851517597205,-0.09369961153460256,0.07339208637408983,-0.06425628636239718,0.04082184516350036,0.060268855385615317,0.005225188711970898,0.0012918996832999566,0.012198807347945405,0.03742613281631154,0.011310347349728321,-0.01720237448458896,0.0023722869690628617,0.02117119981655058,0.0622681543601551,-0.05050300187988263,0.030636643149960616,-0.12101436046788541,0.03728041091118835,0.012500552857341889,-0.007107670024009403,0.047308336521649698,0.042267621767951488,-0.02448969251842944,-0.02924677064773914,0.08465117172494698,-0.049366091282240839,0.00776729074779715,-0.023175068498884369,0.04987115260006312,-0.11661395878692704,0.0061779058281375399,0.005497496604277463,0.03963936453221305,0.014476034059170916,0.05030451176899924,0.02622462831000124,-0.08364863199635718,0.006826468626931809,-0.05500007365335588,-0.06025541190012238,0.03997909134713466,-0.045304708462483609,0.06125232156201062,-0.005412978582837651,0.04796838917456495,0.10176691873215378,0.012344620262315269,0.06631368981272956,0.019668318323939436,0.0034988698658945168,-0.01885899437230114,-0.01101605309587307,-0.01441716048791154,-0.04848828270033609,0.03977880780472456,0.050643399057130947,-0.050004357368682837,0.010636196898550018,0.0035701338188378207,-0.11727140914639287,-0.054086077577970518,-0.027149240019193115,0.020675207095875143,0.06693636653346828,0.002037843751204243,-0.08036383610759292,0.0000427420735510164,0.027376042174583633,0.06612056212007861,0.05789564955048634,0.02977781661426872,0.03375416778230999,0.050300634593279217,0.06209156463751215,-0.049201168232611117,0.07289401895188247,0.020958473790839987,0.02728111655631542,-0.01778083896055547,0.004165262124972127,-0.003563628179806722,0.0394111832231334,0.02366702991947444,0.06801884726147765,0.016522211114923435,0.00874658110783091,0.06271267110960531,-0.049787843587953257,0.03190693005539058,0.023408923849416186,0.026363472846514754,-0.037286978370419169,0.00986365298760436,0.02879470991428999,-0.023910546670968325,0.08755303246573108,0.023936543484759717,0.00216792155314394,0.003684620620664864,0.0892783374505264,-0.011262329370989583,-0.03747544913406573,-0.07610539092126874,-0.011914070267659579,-0.0190549946396803,0.007152073564097322,-0.015984017302851335,0.01768778476764042,0.012932391680502515,-0.10083292451311313,-0.012856211138510054,0.05466606401610353,-0.07089724148932772,0.08652615306066625,0.1157626030733101,0.13788819232869557,-0.007289689545800485,0.028912961708383708,0.05858232057190075,-0.027215949914882556,0.06346498844113303,0.04153206994457282,-0.06444363998754914,0.03375329393660098,0.037409938037775949,-0.00845284466055746,0.014948660384917979,-0.0948326220867012,-0.05495792061917168,-0.05664337529082928,-0.05707549621658735,-0.04955136110290421,-0.028474140555176325,0.08448218297288639,-0.004736780409150102,0.05965278365265206,-0.0691759618308651,0.0224013023167891,-0.06392942048474983,0.0073351036915066639,-0.09927397367415107,0.06578392985454902,-0.031230153408829479,0.006019104405583066,-0.043811391892052988,-0.02291718858244998,0.028357120574560757,0.06857725144428853,-0.037599108879557929,-0.08293957649219622,-0.05690933508699052,0.051660563285742897,0.11140423447393815,0.07540408008277318,0.00863421156235752,-0.0961298019549115,-0.055425809685032998,0.01221114178140995,-0.08894548269767619,-0.032640548155868077,-0.0703220950217019,0.042731145297094239,-0.006894179370725872,-0.06412578849416655,0.09020690076225294,-0.05606748844724358,-0.05274076720731977,-0.038471428386201319,-0.04267462989934734,0.01283284991308154,-0.010945111632799425,-0.018477048335252424,-0.0030854676750689156,-0.04783332769188596,-0.05870866042095311,0.019535989059894757,0.02192367000552957,0.10676668044027507,0.1541269619028836,-0.020830129042477196,0.0030877228401173207,0.028227288083742895,0.022230667359995235,0.0747743913039056,0.15476654479834246,-0.03996006585143966,0.0001351504946404034,0.05624405840509687,0.050584871592863778,-0.035582517859441709,-0.02809945251997889,-0.08240324919134319,0.07493675563102723,0.018039819216063833,-0.02969604118521801,-0.029347712985576658,-0.04314276192383403,0.03309740671509266,0.05641485558314388,0.01448428689873773,-0.017716036852922346,-0.06926295038243644,-0.015391694887705834,0.09500582205718543,0.12746529625172579,0.08733481400578112,-0.07497831876023652,0.007813993128550853,0.0023408605458971416,-0.005978133900494627,-0.08402191181005131,-0.07062980395439306,0.09510333223677804,0.055322577519955517,-0.03438100473069761,-0.02435509341350293,0.04666467627949107,-0.0282207722785284,-0.03837437989236881,0.02629401511107984,-0.04767840545788306,-0.07401800559332991,-0.07044475951524632,0.012442931070251646,0.0644763830948776,0.05014929956967227,0.0006262515002254834,0.02162323178098892,0.05873629422818535,0.11117401517367523,-0.06744568095574094,-0.015072890173936949,-0.027499080035516836,-0.004292967101322177,-0.04189703346710026,0.03771179137516878,0.04293143087572025,-0.09855228328764684,-0.05074469937748525,-0.06625205472328447,-0.09903445607712222,0.044593861067533168,-0.025631378961665939,0.03202217528870673,-0.06758998699804918,-0.03390491032268712,-0.05424987960953345,0.020127348820886984,0.0010297015435297747,-0.07508079438854303,-0.01702754460115248,0.10077643049877377,-0.10294548086701014,-0.0032298258101984909,0.0815880554566173,0.050404265042895097,-0.053931090923659209,0.006657552199997499,-0.01129972461030054,-0.021686826690588906,-0.0876157109987963,-0.05734985614001179,-0.03688089301919541,0.002986084607722794,0.06742791585320351,0.05502245767479198,0.058246563890492989,-0.038512415186304879,-0.06001935896185574,-0.10700488216130691,-0.012131025307399193,0.08492123111901119,0.05995577954086158,0.11259829270426819,0.06516414845376385,0.1639833837389907,-0.10095631128504211,-0.03010633310789199,-0.057775418061141049,-0.0059828444942093589,0.06146462542649112,0.010274322014128939,-0.08242490563945235,-0.022631355885754369,0.020257385546416315,-0.011148965404832188,-0.010521625577507835,0.02798101928911365,0.023573578972514106,0.00039801578675577684,-0.028646488114720878,0.004740796025542451,0.0658554207871826,0.08760066778817952,0.052476413660989647,0.09463200131746125,-0.021163004122089939,0.021817724552602854,-0.05618094637382165,0.012201875665678885,-0.08838530874689882,-0.011634366116051787,-0.05675627652551932,-0.005307989191580094,0.02852700507192054,-0.013162887797041568,-0.057827297330878189,0.055223332304172489,0.0747884594444921,0.00041012230142148593,0.13159713351693806,-0.05132742876116321,0.02749071422890775,-0.03433937077635407,-0.047445265209416939,0.09800683306798566,0.0866678768149836,-0.005367127736271264,0.03580508299716821,0.04329623056204622,-0.02158100189887884,0.08506213173403432,0.0618408591751069,0.11498357553477892,0.09375294718479449,0.028158394080890726,-0.09046538924551383,0.03095663060984195,-0.02571250187356852,-0.03523635771258119,0.07846314218966708,-0.009898384369537694,0.13244832823932005,-0.0831586944958912,-0.051159995462250137,0.08990884864134163,0.0450030195711703,0.04000006291743213,0.12476325239641659,0.003394328152703437,0.09268175659601814,0.03590911049691931,0.11116245338705339,0.0902518169217909,0.16154246854135738,0.10822534928628426,0.021053382204847417,-0.017553105385652597,-0.07268581678665284,0.004213878907420183,0.09665811292264996,0.03072832690880925,0.06895177987520186,-0.006372463363742054,0.048183723785544637,-0.12702187512636593,0.005660710876542101,-0.018254175617196595,-0.05184100496097377,0.019056917346982499,-0.04576416662889641,-0.04239883890451174,-0.04867221583606548,0.10503819545083902,0.12173293460737722,-0.03671237985804643,-0.12210381197109993,-0.07118260008632767,0.0367122088192549,0.032130374296143879,0.03875970649393793,0.09447095238594182,-0.04127114220423213,0.039984044841177467,0.03194859378318542,0.05404761069471091,0.03642554542040601,0.07254958578986627,-0.06558176376321784,-0.018152328454476019,-0.08052165262399862,-0.03695373242526276,-0.039444589337371809,0.02041464614262705,0.0015641943685677633,0.09181486773589842,0.06895225821632138,-0.049609324842315258,-0.034476697945418337,0.020431426948904455,-0.04567697693908916,0.14252864295900595,-0.006066485314920613,0.05003252113028324,-0.0037564605639134769,0.1297609958700579,-0.026467739282910277,-0.044956054668434389,-0.03300110409044974,-0.02638518566097584,-0.0213398461839892,-0.06786666627468109,0.07013076865736072,0.02532088927143877,0.012899483289493209,0.03473877381900443,0.00023453481084561383,-0.007941022714652049,0.05330054647664481,-0.027064743490889773,-0.006409783603423347,-0.04770582734616146,0.11296194219555095,0.05088890963928913,0.07063048558378186,-0.008450611223488846,-0.06389095713357478,-0.07307710110640906,-0.010669493945683522,-0.028947519498520606,-0.039048362016322498,-0.0459972274607151,0.03854885058353841,0.04324686603818488,0.06894391616434115,-0.05611991365037781,-0.006362502884058981,0.025665873618980915,0.0232249467543511,-0.0003501360634523248,0.09103857515240106,0.07777357606793244,0.05848533589307789,0.02319905578654671,-0.015908198424928984,0.02415604865866627,-0.0781357629907289,0.0314889585740171,0.00693369012159577,-0.05246339586631621,-0.013421432656682579,-0.07318763613355192,0.06319940355259869,0.013861786404052315,0.03516315027907103,-0.022976923382293306,-0.028512553079917945,0.04859140827028657,0.05177375173985859,0.06270067126282485,0.0319926634806888,0.12522047668393317,0.04518800078081372,0.11040189933249772,0.07221302384715126,0.060864692395065898,0.01453499065873714,0.09143373158133125,-0.02723655544380871,-0.030103355468545986,0.015500452488869254,0.0675029433046008,0.007754847769675889,0.04915321649741633,-0.015887268078859045,-0.04333683557674071,0.03635318662297568,0.10740184151535144,-0.06906935299509838,-0.046868576250822257,0.036931640233702597,0.029366859069586736,0.10951782750437829,-0.02020437880749921,-0.0377349956254962,-0.031904000872193829,0.08464813612234176,0.05485565057763555,0.0295284743379971,0.030951155603048797,-0.0031247758345075338,0.04805908393771577,0.11926340502319857,0.06827481934155848,0.007621583981545834,0.01244408827962498,-0.05277009554124627,-0.02252178870536989,0.014893418007153334,-0.01772799213976276,-0.07758265105609424,0.03477989304616414,0.023093308920019523,0.02853838459271179,0.034471184760838758,-0.02389846810722427,0.01289078991449103,-0.03962136627207372,0.022574278436431999,0.016375113745911254,0.07326373636924545,0.1211693510943225,0.003644668320836382,0.09962464189729202,0.0001763104634856926,-0.06839269971495987,0.0018406162623392012,0.047294852543035319,0.03428105929710305,0.0501189569213908,0.0809824993520003,0.012784412300047932,0.11041289909319416,0.0020373020914093698,-0.06091813959266019,0.0435382690872306,0.038023286940732408,0.03526035065061174,-0.03831269551725493,0.008966932302713584,0.1134072362557842,-0.012011153841619185,0.010675084865845553,-0.025702064116352748,-0.08586379651696091,-0.02315709476214573,-0.01292766454967268,-0.07965810386802788,-0.013909302292816652,-0.006695704489096828,-0.10107873110810797,-0.023403054863303693,0.1736622228338857,-0.005259467280033329,0.007149036741981675,0.037198016589691029,0.0333779460974609,0.017296800770139618,0.04845206752377405,0.04195242505843429,0.02251979806642639,0.051658660530019658,0.03151089721641819,0.03987820366042048,0.0017785256937462254,-0.024639449561171198,-0.016581000929138606,-0.02611628898934426,0.07913560941720245,0.01709214527614967,0.08587956252009312,0.010743000373880875,-0.0286336141241384,0.0027664289661330635,0.03550333873669358,-0.030131528481968353,0.1254978690592207,-0.029949970590583225,0.0016058236607320292,0.03067244270804024,-0.02247492868504708,-0.020310464649607446,0.05498297692557435,0.058291159907712327,-0.013681670869296465,0.0031507343046065455,0.041977762965838178,-0.001669894848518804,-0.03258158408941502,0.04085024489499072,-0.07787734354020562,0.09412822747406907,-0.0545331363413,-0.0061376864082007078,-0.016993420520005913,-0.05115881515376661,-0.0028674912620294567,0.04393750837115961,-0.05401857814653202,-0.0026007710818613547,0.023401279370972248,-0.055719973972790378,0.09084427528136678,0.002878291515070527,0.06399634116161524,-0.055980074153471167,-0.03821274589744705,0.0339399325800914,0.04534599064519524,0.02428472743736805,-0.04346740424658812,0.034024863966163557,-0.046266418730190887,-0.04663138628778042,0.017347327155020684,-0.0012495524937093639,-0.05606110679974994,-0.010498125466046577,-0.09472459986036444,-0.032652950834887489,-0.03494989747459992,0.016145171057202605,0.010253472973176486,-0.016372744037543305,0.1015560841541377,-0.04722331278489295,-0.041158605467125668,-0.06674860165122375,-0.0017329633075596669,-0.005386979686602101,-0.029263487633757025,-0.0508024438324131,-0.04726625613853482,-0.06231813738119913,0.010134091087532478,-0.08197440640555473,-0.0638233281252478,0.010261303128321471,-0.0853441856353394,-0.07903335550895845,0.02697573008043547,-0.02462019278899683,-0.08187801045752259,-0.059734116463532768,-0.0647649659261211,-0.06800401246587865,0.014206872901107337,0.06674886616514321,0.024103045512577249,-0.10658759168105787,-0.024447182679352979,0.08839346359443226,0.004950907897207804,-0.06417369184381627,0.010591495411761959,-0.05191549839672648,-0.047515520702472797,-0.11738784125306155,0.0017651188787882952,-0.06785234531405615,0.008861187165374464,0.01740399850765169,-0.036109076306386437,0.02331207173700947,-0.07752670540898016,0.06552699589786153,-0.00021503938682302528,-0.03835981943921113,-0.03698866500084956,-0.017549804477895824,0.10303012174752607,0.02489047365816808,0.012313290697405357,-0.08193608416585602,-0.1364856453310705,0.06516321317102622,-0.019240479320562197,0.021712458132208513,0.10395495519859842,-0.03353861616466308,-0.08906708941997851,-0.08281832483457206,-0.04324853956427635,-0.02305979555633605,0.004853934858005345,0.01831489913803042,0.005534522643902163,0.020069327236270266,0.051987971928228429,-0.03683214463342294,-0.0699114550769532,-0.010777502898241309,0.007767582676321784,0.052088870814039258,0.046075187312114077,0.009246505974103613,-0.08052486501463305,-0.06242307426469002,0.003207884865742694,-0.041376530620959198,-0.03607440267865074,-0.00911361054216119,0.024198904370102533,0.08740485474395365,0.0048121343400178259,0.057185225032625418,-0.05244561117952541,-0.018480971666268669,-0.056957017469811879,-0.06746681051365862,0.0031337277626533246,0.015661005503954888,0.05906975235765003,-0.05006130915994763,0.022429793536856293,0.018089983469912357,0.014580239189254205,-0.039338197102416327,-0.030811992208625118,0.018740354933143238,0.10408536084053369,-0.07248281114831633,-0.023396537509733477,0.06955412257448478,-0.05044069010620163,-0.08419937667714563,0.03086246423216714,-0.09440990050028593,0.04556694419344133,-0.01786155057019582,-0.07999005904630327,0.04552327254166066,0.00040177325629437344,-0.003694737717610367,0.04420863147115813,0.03570668404014138,-0.04714527713752141,-0.06424424081918125,-0.027869317814827527,0.06433537585795006,0.042240798245599408,0.004109584127698784,-0.05392469979056604,-0.11788788780333948,0.016535359877960417,0.03484151082766518,0.004194441156018172,-0.04756696634092231,-0.002014743749401498,-0.024286794855792289,-0.16021341708306834,-0.032754018670212697,-0.02268365560032936,-0.0964088568214145,0.019767639510761705,0.01777308767995942,-0.0025960755941847148,-0.0300782826597408,-0.06162921764837191,-0.03139062186224236,0.018831256835623566,0.03071886214342057,0.015307530928941495,0.045728933084182497,0.0034040375405547686,-0.014675822980160009,0.03239487965189745,-0.09491830293509988,-0.05100907364633633,-0.0450915713174108,-0.086627337531996,0.01043117380998291,-0.06516910738665416,0.07371975125490076,0.008454717240088075,0.026615911628877697,-0.004725504433715507,-0.003875229509314649,0.01695524551088014,-0.04502928483364936,0.0991239254624463,0.047431413703069778,0.0021717497700983808,-0.02827576167874319,-0.030464162752121557,0.09191942880338193,0.13709271683209324,0.10775252281942367,0.009905862671337354,-0.023091143910048224,0.051221202842999167,-0.057678631366331559,0.01573175636788999,-0.05199916131261866,0.044290163462517347,0.028922614736596975,0.08772376687151015,-0.06996815330400566,0.04548605812059495,-0.058919324060946579,0.06421773014037417,0.025853416259608139,0.10287628255223773,0.002603039941197596,0.05552976839928111,-0.0232609715970119,0.14516622435840885,0.004638697974643792,-0.03860599532470106,0.015609024500758854,-0.05059833920906513,-0.007773211698509781,-0.005730668499431989,0.010313208654946138,-0.012545292009140404,0.10120955109146338,0.03718345781188256,-0.003943592629034929,-0.04168434624288052,0.0704811184685779,0.024421706218493948,0.02322995565370506,-0.04303173083859549,0.0010146126500697466,0.025933926929517939,-0.030948775813691055,-0.17488536927766216,0.06808090164434164,-0.020552853490000065,-0.008233063010578988,0.06260976173090213,0.08008508582650312,-0.04480736736967083,0.05469213784698447,-0.010495114494899812,0.05025136820030309,0.05371499617728561,0.049765047453938438,-0.02276394331638387,0.07585451441633205,-0.08047605123022715,0.09606415839874837,0.046113609223673569,-0.013613836082094164,0.009639799285921232,0.06380381260270146,0.0321509362055144,0.002484517698187795,0.1358089090729522,0.028627087178146366,-0.07076349485499488,-0.05866505922268186,-0.06123017299431685,0.04703546246029656,-0.006638262984735051,-0.046757116783410618,0.06020971903308025,-0.04886514985651577,0.011125364483971329,0.007340205904957427,0.07154915912717776,0.009660015759299094,0.008979420922257755,0.08454832158441722,-0.09000511633412443,-0.04275593376367754,0.09009482729428639,0.015518306379761765,-0.05691182541172088,0.047907161963130207,0.058570490539467039,-0.011711137329075729,0.016935029822243227,0.027989739289694623,0.0985932546301933,-0.004819796077168924,-0.006453264255399418,-0.025030623361795364,-0.03720180676274791,-0.037120490916285959,-0.06604960578435222,0.04908346700551627,-0.06763462771968186,-0.06411238279378173,0.01776675974314303,0.04587541950786325,-0.035062887728897717,-0.05794575175340246,-0.024888205309703885,0.011644199728438727,-0.006316923942282236,0.02101035682289027,-0.024569084084773687,0.02860672078766764,-0.03656196729720361,0.051488098488892738,0.00640146755489486,-0.0201791539018062,-0.018621117264588099,0.046827883598126247,0.08765750946984648,0.0283084413421877,-0.00019211393488959775,0.0024042294667761365,-0.023597055763176668,-0.02906806018661136,-0.0499503409556158,0.07254868271235754,0.027543334068749767,0.11038726720789631,-0.013902617019501608,0.02987771372528549,-0.028169732131499194,-0.05498638311738419,0.04489559808138607,0.07532752942536535,0.04373931178261858,-0.0037894395922335036,0.06361182522014863,-0.06241304864775818,0.1301371215255916,0.024920580745409778,0.0588170356626336,0.010088720825467666,-0.01855844105995496,0.0011999743797462644,-0.07236805541753694,-0.06147802204058511,0.01956450290193487,-0.01074514770281431,0.006494704458700837,-0.04893883677353401,0.019863093681136976,0.021986105400131966,0.03532743128483375,-0.04336304051538304,-0.02696253194135177,0.012893036714278486,0.044763765100022428,0.06573950506871755,0.08577214801957027,0.041141896411318438,-0.03853780888183858,0.003483271705776383,-0.05602686147362401,0.003989855973123151,-0.08504655595094699,-0.02253531424518019,-0.05021674736384268,-0.07500246311979263,-0.013527509672088993,0.04001945258584188,0.06215749687950448,0.05794758123327202,0.030170197919966253,-0.0373811603739257,0.04379843688724962,0.08021424683046777,0.013365743158557636,-0.06616783190014059,0.03324683956633951,0.04736348371112276,-0.07451963748098482,0.05454783560688446,-0.10470873041839704,-0.06174921388951349,0.015990239368703378,0.08717298756496268,-0.032725368951183438,-0.046735478598700749,-0.023183605227136328,-0.058121271446940968,-0.013595601771233446,0.04993972503957428,-0.022495675722352779,-0.09954540604761018,0.07152339646532612,-0.13666664863943879,-0.012300801648381934,-0.015936095037178498,-0.054273946082484137,0.0074377483537554109,-0.03317478258079564,-0.059273301819333139,-0.002832941640898276,-0.04047737098353003,-0.07817697059076782,0.04749388185776606,0.015443511844189094,0.019592987935580194,-0.04963401805485119,0.00953006056456178,0.001126538582479147,0.09020591228709663,-0.009269814032218308,0.009368448465954034,0.04366663335029648,-0.00733176737182977,-0.004184927764032308,-0.011918117350990906,0.03544634422287721,0.014366303638417264,-0.03530229036763977,-0.035409852469825687,0.050546532027941629,0.02493414007248434,0.12118211071694427,0.050216931333130907,0.025879265441402907,0.0248685515434776,-0.07645022289242033,-0.003947424356345415,-0.032712255916607129,-0.00012499712156157055,0.024956082440134029,-0.06874798645731387,0.032507765565709629,-0.042568171658698087,-0.028864411088494997,-0.005051894406474219,-0.04856014130805638,0.02158381651073605,0.020906979079958207,-0.0013790044128988138,0.04387797173344999,-0.037795994393887127,0.07365637914846503,0.029722620644743255,-0.01496646990963072,0.04041740123334022,0.007769695314712904,-0.10913400960241643,-0.033124259351179029,0.0662246622115777,0.09763466908327931,0.02063907598502819,0.04706579092384343,0.04007243436964476,0.016896999307493847,-0.06636635108022184,0.03693333116605073,-0.03106660782529482,-0.02227875638056576,0.026701072818477689,0.0025230109980536768,0.005577388291989493,0.016176483319539089,0.036030994998247977,0.05903998042109047,-0.02174109551841949,0.03801538248965486,-0.03931747328634838,-0.026793841112223748,-0.05556253167745425,-0.014261490503270342,-0.07165260020411031,0.05377398042502261,0.10607823633863517,-0.04904673590461552,-0.009416367701969009,0.03863230412188249,0.045670442219870047,0.05968387924028537,0.009427857129641062,-0.039907115069495919,0.03659780718322895,0.03315500452014375,0.04562578081325032,0.08443967869881129,0.04541882331359909,-0.11176517040681745,0.0038176390812886659,-0.037528685480610227,-0.015961532269688225,-0.05688082105275687,0.049610449234790719,-0.0633410133417348,-0.017272824350024943,-0.031932138275920309,-0.0005879599354435661,0.08396505519417692,0.13712832387959898,-0.005028883124928749,-0.038019610484640548,0.0694753829568146,-0.02353818094101061,0.04501333764268554,0.10864097337576483,0.0016471654697703862,0.009920251044716777,-0.03533491901554148,-0.023377748638271479,-0.02254724857515696,-0.0181494851803406,-0.006395323841591553,-0.04613476908651907,0.0565219273859992,0.0057919076325792608,-0.05502426305278311,-0.002925085745455648,0.019104403431139315,0.10034515673108258,0.042979552035286767,0.09910908818675185,0.06050330064683211,-0.013559572475281362,0.0030163730373722978,-0.061290775839782398,-0.06298312827957828,0.0655518769532792,-0.04187364229720058,0.05480003007367914,-0.007721619183122741,0.012523519352788636,-0.004222134937136563,0.06878870198334279,-0.0319088461809876,0.0027757030331825055,-0.053452450358379779,0.0313774744761501,-0.0030627773548836296,0.06774357851194396,-0.035407081100358627,0.026919093348793719,-0.05364557582100183,0.09899898937611145,0.10180851728610857,0.02306253640624057,-0.028927294826953229,-0.11575682960151737,0.08500983268140099,-0.06953773793685993,0.02926132004545598,-0.0811087284988622,0.05943303061995124,-0.06966650406234484,-0.034811020402589248,0.05034295232200159,-0.0325575908412851,-0.02981977837191999,-0.011412980685383356,-0.05087739585062157,-0.00242794457590999,-0.0309523955690345,0.007804465433806463,-0.03320732240977528,0.01137810035489812,-0.01636991479657987,-0.053582283315672798,-0.033029763389468797,0.03892936631050299,-0.00028906769657371744,-0.07765796566999345,0.022832393279433269,0.04685881671616753,-0.055737678186277807,-0.06650106631109419,-0.022364148879319404,-0.005504849279545216,0.041797244154796669,0.14069807798126408,-0.00027794439338239065,-0.03809432502496483,0.012108772924622922,0.03758789571710073,0.07450365239056325,0.03471721647488327,-0.04942457331085617,-0.022827150823714373,-0.10334212443410622,0.03002737986047266,-0.010317577712357177,0.08301530473078314,0.0583947485705199,0.019681909850806296,0.012224999195869415,-0.03077463341437739,0.008616953881049035,0.04282670297497417,0.022122177219223689,-0.03758100969264321,-0.0723002454668486,-0.0331471948143737,-0.035784998993061149,-0.05998262145684917,-0.019738048226236678,0.06448979890054035,0.049521081750554838,0.07804495413101949,-0.051952976688330997,-0.009722709585717119,-0.05338245684044778,-0.0633623403033677,-0.007767828858547024,0.09904606991749814,-0.024135902721986438,-0.05076292331175624,0.016416044340940823,-0.05802752659156788,-0.07820093341665216,0.0441363989141885,0.04158803107220535,-0.0007068194029450976,0.00016456089319245038,-0.015345051647191192,0.10532999081803335,-0.009982996894314,-0.025068901118756826,-0.00009403619821730664,0.07796432982259243,0.03662034766245161,-0.08498286376150223,0.057023749505339799,0.0195111438312082,-0.0030030819017505077,-0.05795841830973444,0.012845544888352597,0.04112043580502134,0.04402696740650181,0.034802388842607747,0.016294465635011025,-0.0112336341201771,0.027275061668921516,0.004553396395932221,-0.02067627119838768,0.07712083334337905,-0.04801756870085397,-0.0008905195799889485,0.024457696717074746,-0.044539733328576008,0.09625058947831695,-0.06262461387588597,-0.0552323323067757,0.08613065465305428,0.08340717646265708,0.032867479358803308,0.042275403525830899,0.0698810042508057,-0.05285472776352882,-0.01766434535932706,0.010126412196075814,0.020253417932558777,-0.02138905852940943,-0.0739467608348599,0.037103118160130548,-0.004177949099097028,-0.003991741647133741,-0.012971921324668208,0.025308043736268348,0.04430389984303608,0.029228226016562277,-0.04802283374840255,-0.03210263263334854,-0.026194433483583219,0.028325503176167667,0.004082171368565815,0.08986773792445813,0.00846684574936583,0.022683220166535738,-0.014091663506044804,0.015075840983546954,0.0033142542610018609,-0.02818639739539571,-0.04478295678602532,0.0886181363240169,0.034557521415017267,-0.006238644049383189,0.04711790683374367,0.017549107675597487,0.019431078830249715,0.05461028491436233,0.03462529331162734,-0.07438113619569187,-0.07353111280446795,0.026058711595069226,0.11261540446663705,0.058019685834257459,0.04745219643119596,0.01892054151362917,-0.036533140623727308,-0.07357977428125187,0.01895806798847111,0.04351890261871382,-0.06025894941367696,-0.05031705703334267,-0.017395455204060125,-0.03718010676485184,-0.05873141323017586,0.012618311174954407,-0.06456618391611424,0.005405711202206224,0.01635545222459335,-0.10370723588324397,0.04133655939453037,-0.10419451265090042,0.00587867541624818,0.05311638648581803,0.002247438386046879,0.02058050975464765,0.01038291416205526,0.0005163650759382877,0.10223572861478359,-0.01872509923205849,0.06642599126637645,0.03484185065666092,-0.013249103849492895,0.002275582311771443,-0.04177496502970701,0.02288872753997106,0.006347362464421735,-0.06131321431702443,0.043442051787167087,0.061564600456654499,-0.013200617760306205,-0.05384218762368312,-0.012680272582322544,0.03733060164054336,0.01782086595953142,0.027363861388847764,-0.02849339433967422,-0.006345531850020435,0.052637231645784588,-0.042020460068899197,0.008630143262458224,-0.035565642578367317,-0.09306868157234638,-0.008849284205636757,0.12284017337343134,0.01771242526407696,-0.005904287408982892,-0.01804566581877851,-0.00861142689531853,-0.09131476546612734,0.02112882943491863,0.0271800781367714,-0.005112654986159799,-0.036206383480903148,-0.05352944848829655,-0.036747497801897097,0.0193239744922471,-0.014281904636662776,0.002341861284687706,-0.030772372232530329,0.08622709294812119,0.013286859242777628,-0.017007781243982137,-0.06406653257450333,-0.041743947613646168,0.053970935593843357,0.1075837814106854,0.022310200905070099,-0.11412799688497127,-0.1145781798215224,0.003408473487191932,-0.07103148586734669,0.03326746505233292,0.01301326950098149,0.1291204031625494,-0.028797964370190274,-0.00208773015121723,0.060374910358743729,0.1329326714578008,0.07955577363158122,0.038938486661228639,0.02701568700928053,-0.03923077588859178,-0.023760787606214467,-0.09246345065038837,-0.04299097793201607,0.010256455362090354,-0.07808222550736183,-0.020252463087279267,0.08859382170288154,-0.031526089620718737,-0.07733157368123549,-0.002527996399922417,-0.0023024831208392829,0.004504557327942705,0.03430516872504223,0.08921695296797648,0.026875042467060053,-0.003104897492835808,-0.053680453854230449,-0.025569249575790946,-0.02471919403221847,0.04922098733714661,0.05915602324598186,0.05529696745943875,-0.05303864286429843,-0.006086208602405278,0.03213328499869774,0.012744498789103994,0.033031980434373397,0.04870958958924067,-0.02976629087204562,-0.045703037413759067,0.06587447297770899,-0.0680958523909081,-0.05314432833440325,0.017783635778124558,0.08097350073287747,0.01362929082138748,0.05527285499149157,0.03934406181802135,-0.004189465526453756,0.030846222327915869,0.09099055902100158,-0.007841025381963666,-0.030515430356704188,-0.07465577210463406,0.05520734569121754,-0.012418136410697547,-0.011970534257124827,-0.0033387484930551089,0.044900982900555528,-0.022232539394391395,-0.00047666164395364016,-0.15959676983813918,0.023481554756637679,0.027055091510619683,-0.000938104401242988,0.007706822621678647,-0.022210894204887065,-0.046509111541413229,-0.04588967822844867,0.024710913726246194,-0.021889715697075163,-0.02374517681590077,0.0815578425843696,-0.031038418330213144,0.00621024548717421,0.030184028435481914,0.07946907648681405,0.0006080700598302506,0.01720171147146008,0.044458230692745768,0.031047848571085995,0.07089012399787032,0.0077303309168293659,-0.05796045071358211,-0.07023968057017489,-0.023233701765713926,-0.026540469543556573,-0.0782542226271169,-0.08477941641645137,-0.07244718523114945,0.011789051175708162,0.08287199182278321,0.01215667395115228,0.01029019307798416,0.07160592273616377,0.025590525533599578,0.12163375206358238,0.06529927723985257,-0.007973251085221957,0.021556715596233106,0.055827357260407998,-0.06750960913916676,0.05006675749578206,-0.051692688102757049,0.01231399514135978,-0.057407193534740368,-0.019249864404465898,-0.02968733558576352,0.06450203046244435,-0.0953071257757685,0.08781717305570637,0.058472329003753927,0.008293458799338481,0.03700883091242065,0.009509365332912086,-0.03663095719671738,0.1266627586627963,0.11451803599151128,-0.07650548869233583,0.05405541471413245,0.005303650073816832,0.047818995767792107,0.007002300490435696,-0.10964520964052713,-0.12660210987822774,-0.005795991370639805,0.003346816624883181,-0.12981372045287735,0.02041860713322431,-0.0395536804936579,0.03289712260864612,-0.03454917461605008,-0.01950322853777083,-0.009977555438851437,0.005770529450017473,-0.02201378504216252,0.1344093439064726,-0.05698209947766588,-0.027597315123015447,0.07039510605106538,0.032580663921916188,0.11750071348470818,0.05608092989527575,0.02465895973820024,-0.011150199959732056,-0.04234079374497153,-0.051567278770950828,-0.06769872524988784,-0.10162873470698125,-0.008324268597582192,-0.017172029116701846,-0.04313670200942433,0.0468521393697476,-0.032935252609398477,-0.05541230024316596,-0.0019549516352917164,0.023681187808822079,0.06336395745832442,0.045924531092543127,0.0032694799879570146,0.06256534145716801,0.02391809005628047,-0.000776322428665644,0.033476635772778099,0.08544399295871659,0.021339244647785806,0.07382382496904921,-0.030292327926934333,-0.03950924777651476,0.032043994919412618,0.1273836564323832,-0.047272685848236278,-0.016906229062665966,0.04366272924046677,0.0286007417201765,0.05083781793827442,-0.08233272192290171,-0.06949233894695224,-0.04418085393077974,-0.056396997625485657,0.01753189687845618,0.012560176165667127,0.055777448700594898,0.09101742750029469,0.02936461663753393,0.061805623441906928,-0.0125210572957295,0.0705502403706152,-0.0802462519976245,0.0489044631695932,0.04840898608010693,-0.053689561563326177,0.056149994389343139,0.047965317289815827,0.034750514774907117,-0.000259438400998256,0.054389091774800637,0.006400309110017747,0.07377105743747717,0.09108090964474117,0.00637690815350424,0.01097699525686718,-0.08079565859381524,0.05109220153048597,-0.03903410432245747,-0.0854665507396901,0.06707201115419545,-0.003606096329748453,-0.052188660270679507,0.06574571004834799,-0.04781914099816416,-0.03549749862322049,0.014582739282745344,0.11568939651592532,0.011598484662935149,-0.010197053920537618,-0.008150783307565713,-0.009932103001259248,-0.09376920803288765,-0.016293547164679464,-0.02612422686845844,0.06374395710097816,-0.1315770660969419,0.13050113062000028,0.02616291836946735,-0.12850679492389359,-0.01110179277317677,0.026712540764378166,-0.03401665795589903,0.010981965281430667,0.06139263645372502,0.07914583378889649,0.04665507571033789,0.0629457500124676,-0.00608246515560372,0.003009719782857601,-0.1324160420325744,0.009409287038901517,0.005265772573457995,0.08709618116466726,0.09966132820812239,0.05227123962524646,-0.019928897849335098,0.06669339504569658,-0.015030413525384427,0.056581590769896657,0.03144603736635354,-0.008964946134522454,0.0251439837607553,0.05141893109158617,-0.06814361937644517,-0.007157051708432575,0.053160666863018578,-0.03354266166537059,0.08666075381266478,0.07161608270257165,-0.040018568111109358,-0.004428780481274756,0.08129757374056039,0.06346927938130837,0.1409623589916279,0.12679420463935529,-0.020403502503110586,0.04992713588293259,-0.004353469139022771,0.11111984605470798,-0.009031231850538516,0.03340579605562712,0.018941947777257725,-0.10620224374645469,0.020728690069402278,-0.0031114335785452117,0.06670449626008021,-0.041834768289144539,-0.027613020340610359,-0.008042159665441159,-0.09452373841068758,-0.00283931032447363,-0.05777160632745571,0.028337282470631644,0.0782159344727801,0.03912210484822551,-0.003547091121789367,0.08924388055792902,-0.015541443527097266,0.003271295537169245,0.0728039242060773,-0.023223463608444889,0.10652072606003919,-0.0542177252498886,-0.05373482710272466,0.04072540700860952,-0.01060249357343681,-0.015374806449903142,-0.009682073326360397,0.04155004765653213,-0.08351694610731443,0.03775197137390612,0.014917517094227034,0.0991583484190586,0.10048808988225973,0.05316390014907428,0.03919059835453628,0.05574780337358062,0.12025776683471305,0.105021249446884,0.07951157722955299,-0.028347649058762905,0.03605878712378259,-0.08471122029469504,0.04030198056629248,-0.09474303001424756,-0.03760087847518419,-0.0975467422482988,-0.014393356436117408,-0.022244340046280177,-0.045886228581497347,-0.0302874094980678,-0.056039786374876447,0.008213602731698468,0.05030837012439336,0.09645827487644775,0.05430562437318791,0.09723102530782575,0.04953513606159394,0.056411459778506877,0.04417024274731633,0.032961443285635359,-0.02022442049691166,-0.023822975218322226,-0.062252561180216828,-0.01635275856201652,-0.007265786464951727,-0.053682749147254637,0.058177980137645936,0.03796166821191651,0.0854661969687392,0.002340767003883989,-0.011569229033216187,0.06650867683409875,0.0962985267249107,-0.06509941186255072,-0.029729415804595473,0.01708451317445227,0.012237405837657914,0.0384857689979556,0.0034689429062512878,-0.027736912573188365,-0.07389957743190082,-0.054530690292688668,0.025507508183122759,0.05698961586446119,-0.07945564246332787,0.027311683912856295,-0.010453640668556894,-0.09784353915505483,-0.07852933536710755,0.045806617282988928,0.13922075129949855,0.04441688205454626,-0.035326881962317629,-0.07150762233858651,-0.021772811793279738,-0.03194811413560215,-0.05155884443095471,0.0011241853789340456,0.028677468921231586,-0.06218243183917166,-0.006879365577643963,-0.06212353212911135,-0.02398458443861567,-0.09356875417573514,0.004110385081319349,0.05861098791544942,0.008062477073431105,-0.055711527800946018,-0.012615162246663269,-0.049526247509150158,0.03376617728102463,-0.027395818608692378,-0.055980593982688228,-0.042951014305318998,0.013678615137660926,0.034347511248824309,-0.034227188929531349,0.020378612672162418,-0.02131061432661737,-0.006620186527140708,-0.0064044306567291619,-0.004790995183075356,0.04458568558272991,-0.017355595310729493,0.04087344247428722,0.03480955900588655,0.03236833258075147,0.08338677615611449,-0.02053388086414076,-0.038811024365735687,0.00045759703438171494,0.0410203946254199,0.13998840938111987,-0.08723439600792454,-0.036062419830354439,0.06086025703524917,-0.021293356383564736,0.09215087459785737,0.010681627698498897,-0.040137315959846108,-0.01588428831668265,0.07262718519751403,-0.03808367034574847,0.04212486967724588,-0.09015943666330105,0.04358000940601812,-0.022761510417328477,0.013359821126475113,-0.03330996594803612,-0.023573963582977487,0.01814613003679639,0.031181317404072027,-0.032913721319368937,-0.05907538630736736,0.003074968845356631,0.010872929830954304,-0.009619444807122497,-0.05624955564851881,-0.04715194516587134,-0.0641519408945554,0.0009457946755696805,-0.02325094567157631,-0.03725429789210829,-0.09100629528338206,0.055900909473509539,-0.06428967177765653,0.12501605706047559,-0.039039684698246219,-0.008324872980675743,-0.058254197319422888,0.08741062426743976,0.07341424444714655,0.03340180541113809,-0.04965751699306334,-0.038031394759324429,-0.06409855948074272,-0.06586521379412312,-0.04012724924673806,-0.027120354205186178,-0.04555726457570963,-0.001725137498215425,-0.015736143448424879,-0.02744112080098033,0.0117677426329801,0.04035061221253641,-0.009290204057410497,-0.09989829636298604,0.004758542137986603,0.06036769454181502,0.03266286584385619,-0.10744898803416396,0.08081022418317124,0.08441348100066197,-0.014015139786128428,0.09652832554907813,0.02330720383644662,0.038803364281495198,-0.0343892107939452,-0.009429031192057555,-0.07598646388570414,-0.06524608094629553,-0.027232409128117288,0.02223568988114334,0.046758698076979698,0.03529902906402583,0.022644324764242879,-0.03369980744130556,0.0694849518524291,0.10468624341803305,0.08208538313683342,-0.01596485369023193,0.002884948360675413,-0.10858977115656532,-0.016624521099512045,-0.003893531315015597,0.05263164088221939,0.00707070204115622,0.0189360321221714,0.052855668755110257,-0.01130312381063259,-0.029553058133179066,0.07999614092773497,0.022931193062824957,-0.04270461482576784,0.03351490737694232,0.04525291956375338,-0.035032789462105248,0.0860266419373539,0.04951060268089297,0.03427889428892994,0.05405068815490397,0.02547508375762972,-0.0021739377523352445,0.009571250855808345,-0.027554132407926706,0.10495657090664272,-0.007760418334328674,0.09655729595920229,0.08299274734446317,-0.03626587354533652,0.026123203759686077,-0.015570978889766056,0.0062120346127462959,-0.10897191469920469,0.08374094179919345,-0.05185692837387612,0.019485586185562208,0.09288223250672236,0.012880610982076333,0.10615465944464635,0.04503191967124772,-0.07164982765849606,-0.1117346263557585,-0.058408384652813147,-0.05683169154459428,0.006266758098390603,0.0884446831405744,0.06241549199237826,0.005770584428198662,-0.026879058679032138,-0.008557198976445286,-0.09974145663393132,0.07725197208861107,0.013227804566320233,0.0035006340345324308,0.017049480347789804,-0.028840490952727936,0.003082208661552081,-0.04439821120144177,0.10046015799610106,-0.003618669164863514,-0.15346406194963387,0.003047281786856354,-0.18323292913773393,0.028763509272795894,-0.009764443889683667,-0.040957573496383219,-0.004310621242196502,0.13788691928458278,0.08722363073343996,-0.045629380941017576,0.06168500687046347,-0.02747710033263641,0.0467662530659249,0.06814391041981943,-0.05545424164533946,0.038231824414201569,0.10707127556953188,-0.0015518062158031185,0.14365789716402414,0.03286166573454679,-0.0772856340242136,-0.1145552378790963,0.0011549796966396924,-0.08499917511042601,-0.03223035299887282,0.024895280184423164,-0.05260720128339236,0.08179108980979225,-0.025860838728334849,0.04120967140195727,-0.044210801832822447,-0.010961230524144245,0.0065078815352844188,0.06487663110449736,0.013263765118017471,-0.012461680495492076,-0.00895461383661263,0.0242916081897027,0.1385481637412574,0.01335183198954768,-0.03364045159654592,-0.08794477927389583,-0.08658561198519502,-0.048715955272561669,-0.06455937392702614,-0.07035037340876008,0.06987867481291706,0.11390839873376686,0.029853405298043459,0.025211730251544156,0.04254202788523,-0.07871358536794114,0.020932954416533167,-0.026180121143887976,0.04151954037807423,0.05705792424207275,0.011299593547926963,-0.02742535643889025,0.2230099091704461,0.05671690374660673,-0.05140830294985919,-0.039821781062114678,0.06139746039475776,0.0363151118283273,0.018703873023575829,-0.07209788097718975,0.17439587539790517,0.055537987707965797,0.011966798073072136,0.04362926926779316,0.04960540142613723,-0.005420144048437985,0.029308328554338609,0.0961308888534171,-0.0710849056218913,-0.10716456194237419,0.07410866095575695,0.07154656403217512,0.05944829125606158,0.08020288674766287,-0.058629237800181827,0.007526682361529097,-0.01835325657735919,-0.11462326468011378,-0.04894573902180888,0.04815344714283989,0.11541956318490657,0.05423423734585237,-0.007086977039688978,0.007527186450513944,-0.02814063891042902,0.06213754564855935,0.06516844163204723,0.04163119368070945,0.04339971573208762,-0.0889049990732239,-0.03520716180506987,0.08637985623818441,0.07686400059176873,0.03258914664401488,-0.1342933567746147,0.023200169833760568,0.018616182173517537,-0.0021126573664941559,-0.05393077919856392,0.0640011035800888,0.0007100617384889512,0.10404523219988726,0.0197880518176147,0.06539255302890432,-0.013240460917779747,0.002364491308111403,0.08715208683629182,0.017585961002699148,-0.07156219003999603,0.041887702236896747,0.0488313755228987,0.004900252020290758,-0.01273616204031852,-0.020939657475244519,-0.005632279178951876,0.004292557159635068,-0.03151352162368193,-0.01374532385491325,-0.009764200963602789,0.07908014569891223,-0.03294036232032046,0.014779070656305196,0.1087407305873792,0.021018514960414775,0.06515510268732225,0.09889583903464699,0.06779253408323693,0.021636029992116246,-0.05045376604592822,-0.029431252381507689,0.028231101734542579,-0.005843792053849717,-0.05707474129783248,-0.02131080228893915,0.023973691467306578,0.0825752643196628,0.027825663871132997,0.04019446230964143,0.086866230039912,0.10319643978263342,0.0611549842933969,-0.10243892255002939,-0.0033047968660854314,0.04415337450094321,0.04988721491107196,0.20902408102540563,0.1863245877005066,0.029209912213006906,-0.043340825433723837,0.006091596242582049,-0.08913822959549293,0.036422370448211529,-0.009346019340991023,0.05106986906924342,-0.07805458398273875,0.03634301634408779,-0.07423112288567883,0.020240359302038669,-0.0556748548257284,0.04918828794888388,0.033919600951921358,-0.10888205159493034,-0.02249151278640444,0.01495337738814007,0.13118742832159747,0.04956541859864059,-0.007400803027062281,0.06394370478793951,-0.013353543459763723,-0.05770212673076942,-0.01951970392526218,0.030539902061934744,0.011246642004593065,-0.030738275505775803,-0.1092064479068954,-0.012317964023985582,-0.024062974899067697,-0.10939156874289888,0.021709899076279707,0.09984225527870336,-0.04773133619026989,-0.035888751076173928,0.009076178814708066,-0.03219383777877645,0.09632512145632802,0.07274836622535273,0.0024880630237472205,0.025750989156784838,-0.08158067935285307,-0.028820981432870618,-0.0557202977070856,0.023103890946217607,-0.04128395983083021,0.07045803474440843,0.03870583563253179,-0.011428534387415167,0.05950919318496183,0.04179733648138017,0.034617566484103568,-0.08647320086648028,0.016883400069573823,-0.08473141581903401,0.01895266062507062,-0.017388736960309706,0.06728653748211382,0.07755479690629594,-0.03208154252028289,0.0486188040595941,0.03845087536338623,-0.04142197071335267,0.05713778629427842,-0.02280828565199018,0.03980104835460753,0.041538388039891568,-0.09780407043192942,-0.014817927693754098,0.05027159492079526,0.10944806659947415,-0.06213262942555611,-0.1453553840817115,0.09325269911715048,-0.07170913828918459,0.003178107935241951,-0.05013563028438412,0.053027163786315809,0.0003456637426825217,-0.020267151699498995,0.014532721498452415,0.09616417523359101,-0.011865624337569422,-0.11936965574840898,-0.036689990330155738,-0.0013579857830728849,-0.027523639518310468,-0.006882965509969252,0.06579742926952877,0.11423740429148957,-0.060390766391190859,-0.05098901268424379,0.01640725216935346,0.034699509886276427,0.054389704543923268,-0.022006220388999514,0.05493696705836548,0.09678723667759105,-0.0016699107934269465,-0.01754069610091083,-0.04542954251552025,0.030852041875332266,-0.004765605775206933,-0.005821281904899341,0.06268211209819812,0.05345165706957096,0.0510309031330157,-0.024173430877397527,-0.03452395424292312,0.006264431544878671,0.019612015234905176,-0.016326998205264368,-0.050322080302945149,0.04355398704422888,0.02043884436364519,-0.0699885403222032,0.06504210523766595,-0.022386848531499208,-0.003617280056063498,-0.09769721145445945,0.05363380492445454,-0.02115119782882108,-0.04587034491000544,0.007535526726750532,-0.07985567699566494,-0.05104336546608328,0.0900574470494677,-0.05420352967733714,-0.03414556916845072,0.07204197268027561,0.0765257515388908,0.06441725793221157,0.039029467088825067,-0.01277142112437858,-0.0022434143751433775,0.03493399070661012,-0.037785059581449498,0.0599087565986216,-0.08974618022763183,0.013731529998339449,0.0524123401192581,0.014332278301519753,0.02592154222909858,-0.07099289245457483,-0.025818016628164136,0.0005227257048470266,0.05809058218191455,-0.028969308549899477,0.0677396151178664,0.016542641181213455,0.01934760164651839,-0.03509039746407196,0.014925073179283157,-0.02366907423989727,-0.07333468906686663,0.029135335237707045,-0.03398618026841496,0.05608569752220524,0.00008056021358649589,0.002180018420499943,-0.050167891331666217,0.05643047164569322,-0.00725598843036857,-0.046674677543661408,-0.06284389127907804,-0.05935626615888872,-0.06174250578829155,0.006076926876853547,0.1437005895975353,0.1460530757493338,0.07514651074800272,0.06899014208592354,0.07701387283842878,0.0376580600762097,-0.0013987072658998128,0.05675784851746238,0.05565976222519222,-0.004954835482871593,-0.09568598838604198,0.013760232778275242,-0.04009155748692354,0.07240908930452092,0.08954551083259442,0.005861054158028653,0.0349435678087506,-0.08030390088521479,-0.07747903466458214,-0.0071259601021085839,0.0710141641495235,0.13004834815512668,-0.01406209640862015,0.04833074150102333,-0.0342489030045748,0.013057320189656219,0.022372172696183583,0.10378413478158434,-0.07416784842905246,-0.04277394670480797,-0.007294378157705001,0.053283778686766997,0.09245768317983884,-0.021543879648147497,-0.01774849097774147,0.04805551054921139,-0.09262552778763349,-0.008264964274933829,0.06848473761220155,0.09530158744822469,0.16078067012003389,0.022426024895064648,0.06726322002966194,-0.022830202502486395,0.028787728973221968,0.008521656475783995,0.027690109888370969,-0.013025732412320888,0.05303249350278095,0.023083773248855988,-0.004132988098076437,0.012366557390282446,-0.0020539587529075445,-0.09133009382429325,-0.07829342468399849,-0.04372028586356227,-0.05458817209316459,0.04281237303427691,0.10877494395428453,0.05052034344761708,0.034072180589177738,-0.05749008752938029,-0.06122198212002532,0.02908396306244561,0.1003523741754252,0.1459675831137672,0.11362045795575557,0.1329683807207998,-0.01623088756545209,-0.04389855880085103,-0.0038227544945329866,-0.10252502398638384,0.03420184324799484,-0.010821834108791055,-0.026679697923979327,-0.1341695333177573,-0.07048650679528143,-0.010875152904206223,0.027332574539197624,-0.010823201507471143,-0.03626733165029772,-0.0406769339912218,-0.12192655840049092,0.06422627716624091,0.0386411918645872,0.1607153403282323,0.030574164604465837,-0.004002162539855173,0.03821820125544498,0.018979574943196476,-0.028451999635430958,0.03582811936388938,-0.004044982558797607,-0.04969208265291674,0.0026333585655118057,-0.0045645532623987349,-0.005082710923858333,0.03255743079871848,-0.036592755271733477,0.03599167562239919,-0.02407397045385788,0.05138274320187052,-0.037031839546722396,-0.06691800289117793,-0.03139493424880444,0.06212221666053227,-0.04181072071123172,0.05433178502465988,-0.001380605087652428,-0.15905824783349377,0.0756189957688888,0.04198862947717573,-0.05362633995593748,-0.01594048864021834,-0.06323260011685053,-0.03955873100473693,0.040712983956799588,0.1533580962021523,0.0700151813662419,0.04848190977774021,-0.08133744122771075,-0.05034441948333527,-0.06146420956357939,-0.024901881114185406,0.14018633289126526,-0.029605157970248078,-0.018716736711246189,0.026197637823735716,0.029959839931529319,0.07776067535890397,0.001776828299966297,0.05037621433615503,-0.016175759766421387,-0.017152319750081563,-0.13589247408397873,-0.02584208850213174,0.08259915771331759,0.14502439046297345,0.03607228622781057,0.017634722952547579,0.09429232265957496,-0.008287059418279569,-0.0006235963267749605,0.02471037281825698,0.014170161680568497,0.08290604719322119,0.0920692185057389,-0.06554178737926135,-0.0791781272315655,0.017090587286516164,-0.012558323265267686,-0.04039596446969455,0.07778530691199433,-0.032392797495600787,-0.10453549409491421,0.08193308263691456,0.05250884273405762,0.12162665217247423,0.05666717721234716,0.00732173604005467,0.06352190291519334,-0.057454855597931068,-0.1095955093812917,0.0029605021089740364,0.028357867330933579,0.10225491140919158,0.08300135113867126,-0.02435025257531568,0.050012329697934728,0.12730932138908497,-0.05373986826635683,0.012278405561334185,-0.08342143301809503,0.1048554082812476,-0.09964134181280227,0.07177794663408387,0.1223965482729608,0.053664605977819978,-0.0699507316659564,0.038588570245721518,0.029240148017163037,-0.045987146642856999,-0.05884693232883276,-0.016389510099711535,0.03429367359382851,0.05723580729860197,0.05353046177270334,0.03065060328416502,0.13273971501812996,-0.030339353283142073,0.09109991935247157,-0.02395342665698144,0.07318343632893867,0.06571095571373607,0.02551198337577552,0.06990604224819613,-0.010769372439355012,0.06914553607618174,-0.016429259239221448,0.01002004515790153,-0.08346663499363356,-0.06831945590857099,0.05584531649909145,0.14272274350293538,-0.01772388416699228,0.02146623159861721,0.0762987916482933,0.08142155409704356,0.08234386697799029,0.0240701060350514,0.09177181006210679,0.02148146056194061,0.018570290526571988,0.03748039288768056,0.021770180877605157,0.06241166466217502,0.13005097812897899,0.09641025076422504,0.05835389156628049,0.09006258262585085,-0.006914707671600665,-0.049973660104456359,-0.027654065263398639,-0.008219725965749509,0.039776729189837777,-0.07418394411538669,-0.04918510883774686,-0.1411571360478606,0.004151482330817781,-0.007144052388797208,-0.008709016881095409,-0.026649600057538946,-0.020525725264661695,-0.07263724792372939,0.007614687446270531,0.00056662666144168,0.02341591586311277,-0.017240715768290256,0.058225612332388907,-0.08701763078153883,-0.06352478517662302,0.10857293830188762,0.022069908045024408,0.05346166754202026,-0.01572463425486629,-0.08183722344677583,0.0019089254920709274,-0.10114121146012047,-0.01848623257687958,-0.07999636051007489,-0.09358763826855093,-0.012092157057340979,-0.0024212661455022827,-0.014227091980177206,-0.013034596762860817,0.002164906297328826,0.05514089421258703,0.02935392645614848,0.01812303778789467,0.027505110155756655,0.008650816330768674,-0.04712805314109668,0.05683137926924901,0.043407641637938938,0.015793358035003987,0.05121002246812182,0.021953873908737197,-0.04846948804403237,-0.03710102655367075,0.016288226443271337,0.10098564081989221,0.055680493484707518,-0.0843396877231223,0.06953085957920866,-0.08114956019074275,0.08723886862843247,-0.017207441392491947,0.07792075504818952,-0.00012306000462709816,-0.007216493329987361,0.03634145674564798,0.047203708290596339,0.05560718611663692,0.13025065487858845,0.05409081868272448,-0.0685097626549523,-0.046523459811411867,0.06739142184779142,-0.02389772581475016,-0.03511113125031443,0.011609865150099566,-0.033057896120271147,0.008508295856607505,0.05804277060875563,0.05059316637097648,-0.11905220122535755,-0.0012757625990022627,0.04687648611459236,0.0024466933652105874,0.0733682756316392,0.010527170203790413,0.06918812220461197,0.1720404681356529,0.1029647685268388,0.08614112742038707,0.07076017645399777,0.029890571150334924,0.016070744674562388,0.018038777002245218,-0.04238088927495719,-0.013737049238442009,0.006184346463503339,-0.007697810348703557,-0.0034769166213648556,0.008784876023088109,0.034833769956896448,0.05212288615850725,-0.019309331082151584,0.05608094655955459,0.1189213443314742,0.01751491549182374,0.044639545003504119,0.13664631911030462,0.021227718532559685,0.018688041059097498,0.02513167215690418,0.005041926097198776,0.05251495865537447,0.049992543523116359,-0.04867048377768536,-0.04123398952955803,-0.10177287130500937,-0.06623280875065807,0.04390853519323424,-0.022384673800245174,-0.07715408663148651,0.07804763445893617,0.014933603379039009,0.04047100558669138,0.01293807369741654,0.048263198714940478,0.020721585500293333,-0.04915443701258862,-0.0655970779343706,0.005313347939259146,-0.05510478555582326,-0.025947194058208849,0.03026393790758826,0.05041173902155529,0.10224258959050656,-0.020850738991841357,0.017515194053923049,-0.01127908888533817,0.07196381307287024,0.03300764467857553,0.04679833651074883,-0.03140509326971135,-0.1111188454111096,-0.016786053775574233,0.03924032367932879,0.08191393916069739,-0.07172214144191853,0.03811870177690301,-0.0525444684626963,0.051988692704939418,-0.020774550695973214,-0.0021840340612942069,0.012523166405359759,0.018645891542900383,-0.007477379862169285,-0.045683560711007469,-0.030661014709072826,-0.0387073008361775,0.011789060790961247,0.09835041825484016,0.08886736601314956,-0.0815258035519439,0.0003022585129172429,-0.11299748043098625,0.00773905484274796,-0.07065261732836283,-0.04604913558113528,0.003642260238940772,0.033527727304041177,0.023306876882030603,0.015003338047554509,-0.031393590376243309,-0.028667468703300355,-0.04577766116600015,-0.021863651167780608,-0.08324670342407018,0.021162673981031525,0.08788744429805325,-0.00764919314982244,0.03716325270191741,-0.1154434722619764,-0.07721732917061998,0.05189201802834278,-0.005212987428042693,-0.08878122144316426,-0.09611514992284157,-0.03013255670986106,-0.08844338118674282,-0.0474273183923015,0.016452695067060775,-0.015654269267056904,-0.05584787949202424,-0.004171241965069859,-0.023816385091396987,-0.04953532758798919,0.031567612598055957,0.07638481541237642,0.008917282009501,0.04538367327033476,0.12108247860045046,-0.022615701103586136,-0.11766787095839754,0.055335186760476589,0.030191230507561757,0.06175232904438615,-0.012715712545313658,0.07812024603139095,-0.03095128769426551,-0.1505705445758913,0.010277837071775912,-0.07963550370385064,0.01705389025424235,-0.019079715628858287,0.029966423749367485,-0.008742806902093883,-0.03932735618661839,0.046398048349174488,-0.08013104385271887,0.03677827722225621,0.11091210809169787,0.0328005446862066,0.012607593632630535,-0.010453710750416784,-0.06530344675018775,0.11788703705619151,-0.05787758791112241,0.05471221043132908,-0.11074946845204364,-0.004062307704308084,0.001813415984560201,0.013755568639285416,0.018734455866274797,0.08628834995849674,0.031315721658251628,-0.0488647401898326,0.037287993620137026,-0.012275104091239256,0.02923470894890163,-0.019179867394914557,-0.006653085890493081,0.014367584947966085,0.10330026653868696,0.16249084253470434,0.03423159799109715,0.10996229509349827,-0.022668332239183295,0.09912344286842435,0.1044134933720925,0.06894443619070366,0.09872413780982442,0.09850876602029514,-0.00000221507652252627,0.14011298874540577,-0.0042787546128207399,0.06727390691985265,-0.048075740070992769,0.024078902378150688,0.04414720849553116,0.09686778353199488,0.03548023625233331,-0.008340876116326612,-0.04480792632729354,-0.019613283280464728,0.047961768791915739,0.03461689588576666,0.052034985492362937,-0.02688625252775543,0.02055539351137,0.04156604311076745,0.07520624741060346,-0.00036064016015557404,0.01258650984136399,0.17688631548331436,0.15414075960892463,0.07770239187728503,0.10543379016082816,-0.0015095833439602884,0.04987256214033682,0.03075619936208416,0.11325024006178404,-0.08926790560376621,-0.0415113389887962,0.029266774478223985,0.09453945510645888,0.024533848020757484,-0.004582851931241284,-0.032672980193658437,-0.0046437959598797629,-0.04859065931784475,-0.09482617819035642,0.036812017696928,-0.026122463353593588,0.022346551784811275,-0.034373295163170749,0.0015358400815430978,0.0773866022241556,0.00891751816751198,0.07465744706816519,0.004966922790527736,-0.026761418134517848,-0.06334117947619615,-0.100162672784688,0.0488040821997722,0.08248980719237256,0.028351210922270846,-0.0021122292145647457,-0.01148919354167168,0.012979670157879988,-0.11478952193793869,-0.022154348029197664,-0.0411140661986938,-0.008359518102546978,0.030450007564300237,-0.031422631230953877,0.04915927987602363,0.11932328182227506,0.04986599386018449,-0.08625793569250726,0.009325497584076645,0.0755953562898583,-0.0747444094322378,-0.058122708247851807,-0.06666896496329829,-0.06368999104845562,-0.012378057948860438,-0.018791885983110228,0.055396670070980359,0.09607035455111018,0.014533456923814735,-0.014664870880908062,0.025142738720879178,0.12716884739273577,0.0221335680489796,-0.0011918513437694256,-0.028502970430991007,-0.0250263723305311,0.008109256063441466,-0.001478039548352985,-0.04096158872818965,0.03014510065821742,-0.10611954355039538,-0.020529503489407676,0.06631212819271758,0.0013656332770074596,0.08431672965370753,0.20710200636757815,0.02730282772022801,0.03229577775762237,-0.019900103821522479,0.10394458098376591,0.02790219091060265,0.14144756383345609,0.07176470656181899,0.031304466491028148,0.03974542369232899,0.12188056094697902,-0.04442898142326278,-0.04739254741276915,0.04111351023374199,0.003591162680037358,-0.07518623967926871,0.03668330027628849,-0.031449284167363009,0.02833646154580889,0.036882318440831788,0.04921585361687722,-0.15986329189452215,-0.06264461629686115,0.0194806650822608,0.01104137435238343,-0.061025951051879457,-0.0038910393147214164,0.06224333598904348,0.011828337877791822,0.07841275434678483,-0.043669775932198399,0.009664188032522572,0.0594909743837641,0.01378324565650044,0.04429004690323959,-0.10773313848147383,-0.054063077901698588,-0.03760357541518076,-0.007108472869266262,0.08055311878547197,-0.05273465483958452,-0.00958260880268722,0.055638769684116576,0.08517542080834804,-0.13231072322458957,-0.01382933789992974,0.045643257057929157,0.01620875449644577,-0.018219761431965493,0.07473848044048658,0.15786111384065758,0.024691770612407419,0.0032330696619556184,0.0003457169483875134,0.0235433526174071,0.0157480476787614,-0.11038230702904908,-0.00716856835302485,-0.021748105988704807,-0.12050541027322387,-0.01635077662125571,0.04839977382309802,-0.08688299337936952,-0.03899506110366213,0.03245372830236798,-0.002015031066034082,0.06312329716026496,0.000254998449498105,-0.04802644124388756,0.08115479244588746,-0.0026006087664218349,0.019156213131924707,0.014707766249906593,-0.0070621465020383219,-0.008137836954345553,0.03450335641896996,-0.07538810310879242,0.03013616345121063,0.03135225659044168,-0.06862645393136949,0.0023586179711361846,0.002713745995625343,-0.035503790878945628,0.010774950799544749,0.01619887153431182,0.01674980590879732,0.06595201586457851,-0.10859653237127616,0.03842282807762079,0.0902316933715485,-0.0077594382132525649,-0.0492062777028256,0.047650811257786227,-0.010263888330720445,0.03659091042726066,-0.08545606883514746,-0.09610294384769917,0.004606998889479487,-0.07301585023949064,-0.0475363693590007,-0.02782701272638026,0.04594358641063323,0.010589890706212422,0.006678613053010253,0.017772817685050247,0.07140574189977521,-0.05012047540647471,-0.03295369957313388,-0.030455611903254705,0.08365046158252396,-0.03965119084941333,-0.027558665012148488,-0.012314686684290864,0.03866725107138131,0.0708240723531515,0.06313855829238936,0.038994204843617086,-0.03788190250681625,0.009598903670030428,0.02260013102776943,0.04766450939871566,-0.0039893623639253709,-0.04501658285947988,0.0077545052864496188,-0.029831839814807097,-0.02075989153567208,-0.023368144314070233,0.05715267470568258,0.05049325553643902,-0.013662334032116818,0.018123663772367426,-0.1280840357951471,0.020755868193714768,-0.04843543938559693,0.04028294776041729,0.025620163004415543,0.018860376880121229,-0.01985919142113508,-0.0067831814866046139,-0.013958973188703263,-0.028291979198010656,-0.014873316954923869,-0.10663971027066115,0.07427767525508294,-0.009486568228909785,0.019073331968973627,0.04834745676327939,-0.054342783901674778,-0.054633571228051919,-0.1147903542729856,-0.018430739758917657,0.08759392287400003,0.02983640310211705,0.07206307247591273,0.032828822367956918,0.03511480144787285,-0.03424367153201311,-0.04948379049121546,-0.03568440793759843,-0.005793594296557415,-0.033586575391171439,0.007132737617995726,-0.04280986414487243,-0.01250452729505829,0.05555821825425083,-0.08681178295526729,-0.01497619713535147,0.07410888136064126,0.04525700887967275,0.01897244651649988,0.04911230522838281,-0.01774444120697167,0.05527595246249545,-0.01349657683157143,0.07114541527782946,0.004758531050059559,0.05813792752559959,-0.015060503855270925,-0.012485342932150503,0.010090250629808357,0.026208745839292507,-0.02644917603791507,-0.020429532184947413,-0.008672659691761462,-0.0009248023743057607,0.014528850720276375,0.047406663949881907,0.008332198749744375,0.06410031928020113,-0.0017116216007915964,0.03100573674849964,0.004952155981135196,-0.042772016411326548,0.05610591174602585,0.03960875369009491,-0.017962258702436234,-0.04746388195750079,0.03731979430265742,-0.06962279960255008,0.011958880904075655,-0.021222854756146219,-0.0548898811922641,-0.016414646229784194,0.08628676538945048,0.013120727571766156,0.014920563010743534,-0.007062919031320655,0.05280821844010227,-0.07788346264426431,-0.08920912522625178,0.08296714987336217,0.02116997588873365,-0.019287257897156065,0.040148818793156109,0.01847119731616291,0.04199084347388556,-0.06517868001609852,-0.06459461419860947,-0.039718325589649858,-0.006589746475337211,-0.10208034960648738,0.08347016484557657,-0.022046962773207457,0.034980072159310957,-0.07919082081459711,0.005344324578968373,-0.026585547140863077,0.04622916848197005,-0.06088706325771082,-0.0005073966122306609,-0.04968161213349442,0.07515093733367207,0.06263352035295968,-0.0421256217970799,0.08792816578491653,0.008188150425855532,-0.013520956767824442,-0.0056585841197859579,0.06428343766442756,-0.01866311101431506,0.02038554103629011,-0.006714609663100744,-0.02304478051314861,-0.01218598013039381,0.01728487784704203,0.1110208393806276,0.007056624848196921,0.03936929642792565,0.07773186736057408,0.054913032178434569,0.036971451905261718,-0.007592304395551056,-0.0619135579817228,0.08973249010890767,0.09966400307068028,-0.05634287280104506,-0.008802580015767984,0.05025546817600501,0.051839398820291659,-0.06625843476139375,0.049098734364652927,0.02750556203922133,-0.02902783798403748,0.006008627528954209,-0.04056550307155678,-0.06194987121280366,0.025744876617616057,-0.05699929896316492,-0.05877461588185443,-0.05236781396005711,-0.03209683091091436,-0.020926856386068793,-0.020912766692144217,-0.013500975767803819,-0.04705882151613681,0.07211066161507743,0.05420951557116474,0.005503774402360301,-0.08969171212523607,-0.0324111951571344,-0.136370486562232,-0.04194047090145529,0.019809531922696658,0.06420130417433563,-0.010236163990266011,0.007723006275208866,-0.00023998777105427324,-0.016343285377955664,0.049921201618177497,0.0307390924557592,-0.04850181916105454,0.038680672139168269,0.007931812619939007,0.00789424828702949,0.053170931624272988,0.001564573412236644,0.007168958099413209,0.07887405452205197,0.1085149635547054,0.052729887335736417,-0.028926550977192466,0.05266989073538839,0.07136844604517026,0.03781614694883639,-0.0011352055419755075,0.05891430456400598,0.00464182267533642,-0.05543362762587009,0.05131579849656086,-0.04928529964774469,0.007621345812997657,0.08154249323480945,-0.01601748339882767,-0.07896376309472403,0.05292916922283495,0.037928603814821697,-0.02737158711420078,0.014757435994698955,0.08315935103157232,0.03930397798231022,0.16348362508871829,-0.018476797072600548,-0.018984738446887685,-0.01569885180376536,0.14192058762972424,0.041340232886306307,-0.052645001053793657,-0.14891919678862937,0.040411489284633419,0.02082752607427236,-0.03428817899019312,0.07345985271396412,-0.008560872219684633,0.025906700872116815,-0.004080126120032765,-0.016322748645279968,0.07828203680305045,0.07511174136132314,0.061711287257349329,0.05978838754375999,0.03271889589611052,-0.003201281651499785,0.10537648486027429,-0.005444440862900205,-0.009036555647861995,0.07392742479368915,-0.0935624539248436,-0.05380253529051977,0.017949054680893547,0.013896490211215652,-0.03500565889772729,-0.0459941362239945,-0.06094652228729361,-0.02721130474767432,0.10697612921780366,0.06560725592195718,0.05903043171232339,0.03938015309396872,-0.07580445959087469,0.0778489810743679,0.08596517995843715,0.05951985654816587,-0.08854077353168247,0.047499733128605298,0.07966187262054352,-0.04579725810705057,0.04165799514140731,0.002389422463684622,0.04070950876430188,0.09991078605828022,0.08507846876256768,-0.030419719536622107,-0.03771111879414486,0.04011854927780301,-0.07607073929932565,0.03805423072941635,-0.04574004098965783,-0.07626114383324084,0.1370090089240436,0.11053868081338404,0.10779036241731989,0.001046703491301703,0.04788917025653129,0.05442280290066987,0.025260049072336679,0.0515284878299269,0.003236080496179312,-0.016836042329041516,0.012915269057330856,-0.04892193094679899,0.009146610264908362,-0.000019264319424709963,0.0443902404382332,0.11848757983236974,-0.000885435403265446,-0.060214782647310619,-0.010258306662057218,-0.047361635572767128,-0.01295194387495621,-0.003434609757599946,-0.10517301683895183,0.1310471491136843,-0.008395466425864222,0.0021227311795371176,0.01949682401910418,-0.019936075879184949,-0.03411686710592384,0.07784539421860926,-0.05185156084517585,0.008609139140445879,-0.0028221391565985056,-0.00022863338087153822,-0.004466440979277922,0.011750043918168554,0.041250263051015968,-0.013090945982336245,-0.023057382468201844,0.0030401726818953119,-0.055214590328100988,0.02244584367463148,-0.03806376284778951,-0.060476552168297548,-0.028655582402150608,0.0017250415501258916,0.04054093651024689,-0.07843103162611046,0.011672688315227715,-0.022117911682557727,0.0017932168615785599,-0.006594852709064593,-0.034299346593861797,-0.02197817952744999,-0.11842227350677368,0.12041260660327455,0.04668969779376007,-0.03296710592024393,-0.05215036248006078,-0.021255781798554038,0.08404074605092889,-0.07227006082682525,-0.007744537312808246,0.0061671065089240269,-0.09944214979586949,0.043638306200821128,0.010184020950987066,-0.00825809938850936,0.04715546551372604,-0.035876726140928207,-0.05064765641921664,0.01448496446165162,0.012636822382283683,-0.0032445037984439025,-0.10430898499585384,0.03062706668855564,0.06338942539712118,0.0505696545968637,-0.05068849240994467,-0.03513350752212254,-0.03487942773763966,-0.05282368967788651,0.02248353211560951,-0.000208571107438943,-0.04284530457180904,-0.09352200398989387,0.028718309216130099,0.05211543458416615,0.03766972372317916,-0.006766934688466301,-0.0017214299482701263,-0.059825212494140588,-0.023704753972611928,0.03971881548671446,-0.030773686274366053,0.0146986759321757,0.019095782101291135,0.007746110400189491,-0.014277808693652909,-0.0411711199662441,-0.012742304706273543,-0.014582945301141886,-0.049250905774019488,-0.07513743069203774,-0.10971453702770472,-0.003592063415434431,-0.05768073835096617,0.019618312395926833,0.08058894516328345,0.02097595599698038,0.06599252132821668,0.009413356157196166,0.00030517775478601294,-0.021139214189223117,0.018287553302529428,0.016060726548530619,-0.006442982128069862,-0.03226790096842467,-0.033635508744724349,-0.06450630497662402,0.050339608585631568,-0.007138519921647592,-0.031278721695729327,-0.05659656160503619,0.08249384764366054,0.011464044938092585,0.038738907109759568,-0.014205179154984703,-0.10792461313814378,0.10002577611997818,-0.0168120876696969,0.038533858622686188,-0.04204416136383854,0.0718326480759255,-0.04299104235117285,0.0035228063171303008,-0.031331282449813587,-0.035616678532216398,-0.09900057512665789,0.02781835509247506,0.04350799705445503,0.044529190912711968,0.08431656192154477,0.03159537207050334,-0.0025542810675013777,-0.09112398088050008,0.020312312864498317,0.010909541017448177,0.017113417400453216,0.12437167679980761,-0.01654505265834289,0.0018090489993549048,0.013478091483114486,0.06412096534582253,-0.08206150736255424,-0.051308961943335108,0.0028579611455841786,-0.07744662464286818,-0.09996298662543002,-0.004419579639521218,-0.0281463305486401,-0.12133748880361492,-0.13566303995949029,-0.06490179677777565,-0.0023049659362425714,-0.03318999660125355,-0.06197637856756722,-0.0043900208849061779,0.017120847163691449,-0.09827942107548826,-0.04919887600716994,-0.028079265714981435,0.050727206731099438,0.04307591828830214,0.0862163867126217,0.036823993301299918,-0.008589753876195185,0.08598579010339186,-0.027605740864515676,-0.04192184199357996,0.020310219664294493,0.06366516228335485,0.013695852380424373,-0.029264596833787298,-0.036779031965571747,-0.030115441747115194,-0.04797935317555884,-0.0587174948225952,-0.03589174630739074,0.012096341727516136,-0.02427011247179621,0.06090870266150214,0.07791967561876986,0.011759623052824376,-0.04717742929575598,0.03951230760326185,-0.07908649115266314,0.06530938359707399,-0.005245002330058173,-0.014478478127809466,0.014168864456392212,-0.004781308957116123,-0.03673073346977312,