{"layerSizes":[400,128,10],"connections":[{"weights":[0.024680115201663259,-0.13036858170031039,-0.10357842176679506,-0.08060004777286492,0.02517667765568635,-0.16553441508183884,0.10667220882667501,0.29969028663235439,0.10152712466102088,0.03167846969264244,0.0655303516188963,0.002093449811999918,-0.10668476933236071,0.05861123552922365,-0.08061882690072886,-0.12124151796950239,-0.13989550967209525,-0.035144675398259109,-0.02178172375251199,0.05046059273755204,0.2031502331424374,0.08221157015987962,-0.053782636404517008,0.20382310821159306,0.20317442388258925,-0.05474621653541756,-0.04138696553460887,0.08429421306742091,0.12470702119864048,0.19186162953026662,0.0975356239511806,0.35440098854926208,0.2044277227506204,-0.15688042349923413,-0.15123182781597506,-0.22096642839561068,-0.20872344510585517,-0.04696554553389447,-0.058771432067335618,0.1344405693660065,0.28215090381436355,0.09912424432212953,0.05131238507576619,0.04179179831435789,-0.05744867904413424,-0.16103855161115006,-0.21561655108102738,-0.1355373999611983,-0.05468531698271524,-0.008889141521871808,0.0913123003808178,0.023610821865979529,-0.03545359332863537,-0.1527581988481407,-0.3447343157129973,-0.39055668114753619,-0.36430779025263845,-0.14457453743233668,0.004614501513975869,-0.05667770339578991,0.08173372303967586,-0.06770913260678792,0.009804680931533019,0.2142022298042177,0.008529787152828404,-0.10239672782599883,-0.018249409040924096,-0.1053876637294832,-0.4198208023439094,-0.25425064901422908,-0.18995438983596586,-0.021380176539115345,-0.17858754981315204,-0.10617258573627933,-0.08149892350910158,-0.16703756521822203,-0.25904647571063646,-0.0975340624506143,0.016088648227952374,0.0265910323611287,-0.15790205343134945,-0.007444922524394429,0.10735338282054281,-0.04635455432501772,-0.20637907842123405,0.012532044521985456,0.23961602822137663,0.13823148408542702,-0.05788300286157508,-0.1733831436234589,-0.050523415548880259,-0.04996324564409478,0.08928807310414219,0.10265758887748849,0.07147349463757466,-0.027078439987244436,-0.2061385082462059,-0.14087044438211733,-0.022500581567034416,0.0888785508955588,-0.03766627010837707,0.21931784984248263,-0.012459381025356478,-0.06492186234308699,-0.15782821700644657,-0.15720474252376338,0.24609106747432497,0.39775349111077376,0.21724370154491599,-0.45401005838531657,-0.0007898266359546865,0.228864844583186,-0.056230392117139139,-0.09394884290275346,-0.1106951986275706,0.030298067094592257,-0.006722222019641946,0.002611182782338828,0.11379295098419826,0.09766308540870832,-0.024732241140885834,0.1897025508277512,0.02092202677910228,-0.23669525001883136,0.06426881312411122,-0.03717984854134246,0.36180816284576269,0.10607130463794187,-0.16431660956469414,-0.1928669788272951,0.06992656508793685,0.09460115658016417,0.010947060188534431,0.013928358305290559,-0.2590595563577478,-0.23186587028169199,-0.2709667878183513,-0.005218361225264285,0.1688610559697346,-0.09657022414017778,0.009097590825536066,0.034979099498240729,0.06500216201238619,0.10152961542685972,0.22997779764843308,0.34448245646411165,0.22344719861065463,0.0650705527587347,-0.1206569057593822,-0.07155975179668094,-0.22374801710389337,-0.06431895883435383,-0.15518789654671934,-0.235965335262084,-0.3494636842951373,-0.29530704608363247,-0.12198704863281665,-0.232826106884653,0.22421726855006328,0.20020920916839445,0.034929887077163868,0.0004729034529535083,-0.12312171365136782,0.11269010208869804,0.06142194191729598,0.3930432723629288,0.24897605004557236,0.07388013012104954,-0.07915513645992477,-0.17272288390663188,-0.08984232625489468,-0.2953593340122433,-0.18972022792914779,-0.4277695589588212,-0.1486471712252636,-0.3491057511724768,-0.29848333171505056,-0.0616533146223305,0.4939434732668836,0.27502323417001459,0.10910142899664072,-0.22694626231136626,-0.12793639273422248,0.0824666276537033,0.3920883263751193,0.3057268767521005,0.14855128022935949,-0.01650955858531612,0.250805393839427,-0.047424429104829909,-0.3362665459709989,-0.11668476887381298,0.024284101497554456,-0.19252736900962437,-0.22315131279400686,-0.41723267921782478,-0.22468756829315612,0.05458007154300085,0.9485881300062049,0.5249049841852581,0.09051155651558356,-0.32223729928866387,0.12620556791980559,0.3090414618542169,0.20038268164998419,0.21662070456071018,0.15200113630530566,-0.34020472183906166,-0.09654558941792117,-0.2769581747513119,-0.06764256867263732,0.12814883304789338,0.010853267663206535,-0.12805827296999326,-0.18807201391349874,-0.3904884907537919,-0.1882360312291294,0.31353037109273937,0.8170533255801866,0.5983946411063318,-0.06396969772644952,-0.2559799454424411,-0.017031559268997095,0.07173599304424562,-0.190450936145707,-0.1444871948714118,-0.13388217129735215,-0.4553049814442083,-0.1825278275050303,0.1175442245858602,0.09671780593852834,-0.4643457910893123,-0.2845684192589254,-0.1692765959921546,0.2768737737555275,-0.33680626974318697,0.11261564190130005,0.6338199542864317,0.6384122269780199,0.16878062813975029,-0.3173232104032099,-0.08204244349416443,-0.1298806671710261,-0.18675301259174646,-0.026128107288827645,-0.08902349150001128,-0.029744494639826738,0.06773348260188614,-0.054779092404140378,-0.00289545278291493,0.09428197456209403,-0.07093010428417106,-0.27504390479929349,-0.030373841429453955,0.22961017335430995,0.0004204068162184479,0.3008579437455958,0.6778110246983655,0.14823313855647839,-0.3194856133080232,-0.09905940221821666,0.05539249864536553,-0.22462564774959657,0.04971880540333256,0.18271171193023179,0.35889820058445,0.23426108608604949,0.08176962559481976,-0.29669103295648227,-0.06496669685868192,0.05326031546935641,-0.28191940182198257,-0.17525339137434957,0.034094430555456998,0.08133788363603614,0.0832604646946766,0.45719383792588366,0.7512420884122013,-0.11328525916036676,-0.4464859454266566,-0.02790994104348015,-0.2728214299695927,-0.21455767921899109,0.17645886220643557,0.06249375485406007,0.010305346731651236,-0.005570283429979571,0.1621985534943114,-0.013117337126092564,0.013705443196019416,-0.07422125756937534,-0.4764168636679359,-0.281865703291877,-0.09132683185703765,-0.1050695831317882,0.0009783877609882827,0.29062408056440516,0.21674233055975468,-0.4051197041618295,-0.3740417021274402,0.005741057359876978,0.006502909554451523,0.017860067944823697,0.06698082892182406,0.038185088082704928,0.002213829197119135,-0.01743857861022707,0.05673118986732024,0.03942156362094859,-0.20163390589486089,0.1763152291071589,-0.1286667006815869,0.28473241947806307,-0.04064740835807613,-0.08501337362476708,-0.24096657444092935,-0.2078756355331248,-0.11634027771409732,-0.3167962222125223,-0.22376318421519485,0.026384281574000996,0.09685504971321163,0.13620506399636729,0.1822187244547626,-0.0012157016710809272,-0.018235401108658564,0.025235053957415156,-0.23031842391138217,0.05159171616550339,-0.08071633814711414,0.2577317485910649,0.1987187331853003,0.2784576706757061,0.43321689389961606,-0.012627674957785015,-0.07825909883945423,-0.2568486118514141,-0.24102577194430589,-0.07824127528649494,-0.10468239878072087,0.08642845416865279,-0.10610456487718945,0.09858110232973426,0.14486684896276856,-0.009572470440765271,0.09792990333731652,-0.09561598119338592,-0.07720803142243832,-0.18199514218982053,-0.13462151629255457,-0.10378232854279535,0.08386795441044455,0.009471539270235693,-0.012459738740808828,-0.058166796975463477,-0.08448710109175357,-0.18448866140922486,0.03161961701431937,0.10257215509225966,0.03842831264152347,-0.10189476153183688,-0.1780234773730577,-0.03361438598168931,-0.04823199009257945,0.16742002395287237,0.10927135228919922,0.014136331369462914,-0.018849670831041437,0.035955412110314808,-0.07080361721872695,-0.10504282823783788,0.23320977800994645,0.13994479508452627,0.0077346841750086229,-0.09007474190574219,0.0068404492577290739,0.08050405180929175,0.17636586009780393,0.07630798491413499,0.045670210459159418,-0.06298349645666968,-0.23378404978523138,-0.16081675672613866,-0.1685901862442363,-0.21577672044054817,-0.0941585764704249,-0.06658784531213169,0.04979326625956398,-0.11050651896078547,-0.08699974382529657,-0.08593171227852192,0.11014237629396726,-0.13259320802183167,-0.10408913099794799,-0.08554338603781889,-0.14784304232157625,0.1276981303900056,0.043111379338371769,0.19558574661759108,-0.04699243640842175,-0.21715034763363742,-0.11502316385762061,-0.045231930892229269,-0.25650474365158806,-0.04055297945657988,0.027684868553942936,0.10645176416394814,0.11019536444989869,0.12995283420576174,0.016306203972391986,0.07634129358816394,-0.0004646737047796034,0.13826431873960913,0.15994240432704738,0.05093040041076754,0.08148658088699318,-0.03357395835759452,-0.025410094865731617,0.08957088056333326,-0.0850382111547088,-0.2159042337119205,-0.10646666938239563,0.04072858030188536,0.01351910009697893,-0.012094877295457628,0.0034600215859585806,0.05170271022286337,0.08430847724155495,0.1885283502556056,0.29164260764089858,0.18250962835581223,-0.061639714005611998,0.057217866691634828,-0.017158168667620389,0.05538875352615016,-0.13590779398225967,0.030236691632727146,0.021526669486388675,-0.04884719709546401,0.06619755654793749,0.031877602632944177,-0.03660044086507843,0.07515411854879364,0.16578911752678533,0.1511883731560419,0.10134968931280858,-0.010551504941511359,0.07359665368537268,0.012940617126877274,0.1896727690672929,0.04155353101220141,-0.0767285571137421,-0.15794843291844153,-0.02567490331676147,0.18128534433318808,0.0003102691673201016,0.06467318151453543,0.12467381354715426,0.13930628693645664,-0.16935016414953878,-0.0041141731873142639,0.02815468906590014,-0.028476658296092896,-0.0032054016607168417,-0.14817343694517846,-0.08252186289361928,0.24161514964911788,-0.11109586916932264,-0.22094302289322113,-0.04169228536134722,-0.12174176353140426,-0.11436738210542595,-0.2091298228829086,-0.15911175232050357,-0.04756813471937555,-0.04947777973606764,0.26454595014670498,0.17557163665166856,0.10353838953305894,0.17586932055070793,0.12175149164934036,-0.045064522712534919,-0.039377377077921837,-0.17860540919533139,-0.19895631117053856,-0.20047248744210476,-0.07413673573788726,-0.022831918758931436,-0.11604648696647242,-0.20650801493121002,-0.098700150306155,-0.15118695256718529,0.007162670993619517,-0.1921118332560528,0.05400938271855329,-0.11879790411840002,0.014905018852499105,0.016174748486085228,0.14786335058581974,0.19939046280778975,-0.0010206276137574346,-0.08467455805087,0.05978476183124357,-0.10675362173588707,-0.2966296126836931,-0.15464631493380413,-0.11433597018634943,-0.1009179786536613,0.017309324409651169,0.0020612241619542158,-0.19258272334082733,-0.12715578033570699,0.1400061856497141,-0.27173876332557037,-0.20619161486297139,-0.11411702613388385,-0.00774421559270223,0.020354893475552185,0.12199921927115216,0.058340276310923918,-0.14846964041110909,0.04062167084968993,0.0730531189370314,0.1280233372851625,-0.28209880211968188,-0.0758235222691659,0.14111212336868743,0.3317023692725056,-0.07340805046124396,-0.14940706135808194,-0.043833956222047127,-0.030221346214413547,-0.17294150057867445,-0.22084410501309707,-0.22601081154191708,-0.12338758272355698,-0.14973915366019775,0.01674338178638293,0.09858215344668668,-0.03246083069090913,-0.03632816347227255,0.08772698469803131,-0.09999999509468984,-0.03292842026176146,-0.18895938413807795,-0.13844815208943157,0.07037234943409898,0.019096104508487648,-0.09949209958250124,-0.35515500521486867,0.18300869521382488,-0.027041736695111026,-0.3590625299751558,-0.31721253222504605,-0.1782167880989533,-0.036341511764790817,-0.23179951135768796,-0.1693377076887975,0.165580207914247,-0.08140125594223002,-0.03225311907196403,0.011986356721018388,-0.020223853800376138,-0.1567990798467537,0.03891036905527504,0.02215028721989055,-0.1948900671814893,0.06385647196741372,0.12066109631941698,-0.240637237104643,0.04551575959437981,0.10232497459081248,-0.022668356620148705,-0.04355569051509437,-0.04645086870908883,-0.18980754515825483,-0.20671370861633948,-0.1519933395585573,0.06455006775009137,0.07480374019476814,0.04252821403920895,0.08900264723221178,-0.0055457938615340088,-0.01077822879177937,-0.08747256475684462,-0.053539702886112,0.20895933686429536,-0.12121846251940626,0.11056129778181985,0.19041886303653289,0.3369874007751966,0.135551987466781,0.3007688817427077,0.1432621532134302,-0.10372340972659053,-0.3835122428002438,-0.19038892371828007,-0.1997497347458239,0.008740965278933607,-0.00858189998541847,0.012066384252843602,0.26517029857380028,0.0952313021290844,0.2811012739617922,0.1645549712498724,0.15411892429674407,0.04158760966085194,-0.0935173223448166,0.1682510621524344,0.35666499683707755,0.1772281781032422,-0.10933616263109743,0.4595358169090611,0.06484281068770649,-0.10646717475119705,-0.23844845128644846,-0.16804079114935528,0.038304878798051927,0.07612751999611049,0.009393174644025107,0.10396283084070726,0.14280879254101526,0.26348473196316238,0.2770492447967434,0.2452176635303701,0.21905177301676966,-0.07959820104207007,-0.08883516938001802,0.1375169242025743,0.30521699944470256,0.12476339579167967,0.22105136252886097,0.007798982995024435,-0.11123253597886643,-0.22860809621759183,-0.3766833435130823,-0.13320489577611839,-0.06142885312923347,0.017143848604558134,0.10979527571214351,-0.06474204010432307,0.05021980775566507,0.15052373211716994,-0.0038183268766347024,0.03559534507930952,0.026695583566159289,0.20262451230570045,-0.14355209088980495,0.09477503222033906,-0.09771634556381229,0.04538012600631091,-0.0021511217798202049,0.04145757860666506,-0.18853453059195,-0.2184838990626536,-0.12126321632745806,0.0212328415740547,0.07454391239041954,-0.162712108905639,0.02010676627887865,0.07897969389979127,-0.10519238789167482,0.04636394765081854,0.027738712630420566,0.06713750316961584,-0.314863431738877,-0.1422479714405297,0.3698404157195516,0.18491254052860488,0.051322878680490558,-0.19084982453289965,-0.20074022468521975,-0.19849936347353576,0.02427587992004449,-0.07289246044274782,-0.03401448564437014,-0.08723891803295633,0.10253209988202618,0.023447624473635417,0.04944343505465172,-0.10762641631824546,-0.09891520596270072,-0.11394668522714859,-0.06422195707691518,-0.03244066777447199,-0.07676309849410949,-0.02274805203049328,0.015774243058102528,-0.00357357117555992,-0.4158784358693871,-0.0493776798120258,-0.4527572908342807,-0.22545662273469464,0.25606402907297989,0.02197491653825785,-0.06181812477864836,-0.19893286400142883,0.07401529021070358,-0.08099771926536943,0.0320037614482725,0.009231267493874065,0.016865572395617376,-0.10237530282065773,-0.10673047646033723,-0.15980495363442599,-0.2676054866358942,-0.3136167962618631,-0.17512945198542263,-0.1878491037434855,-0.1723346890278174,-0.15291846840502044,-0.26482526381196228,-0.1485894717424809,-0.08256434520554414,-0.14695359633116818,-0.08338894716779302,0.03587882674901235,0.0181950408050537,0.013446212620007467,-0.049115024783141499,0.07787954081916954,0.07369001252038159,-0.06946832964512177,0.13850599920372323,0.08411869065941538,-0.10377545541370668,-0.22351862555873656,0.12783113104635783,0.03803206915511581,0.2330893240811396,0.08461918806954698,0.03209307585792643,-0.16858172423571189,-0.13955801547054387,-0.07214340356400523,0.0765687009246188,0.1344821067251202,-0.03303771818512581,-0.07747258014270218,-0.03520239160454853,-0.04491178886154216,0.206179070017366,-0.028239492365494377,0.0012248623073486496,-0.05667482993071392,-0.25232643406543739,0.13089872294260883,0.22836504237593445,-0.20876444538818796,-0.08221405420695743,-0.0822408585030598,-0.09108903269263238,-0.13603864353253718,0.046819007354213428,0.12925005825818162,0.2263749965809627,0.18624378583065918,0.0014203027956234455,-0.022847799823022674,0.10762692946265147,-0.11582524191815877,-0.029815087942605953,0.016161143406708487,-0.02434844509685056,0.14006591070291486,-0.018165312544543206,0.06005938028377039,0.020988350810369494,-0.10352574626871741,-0.07262365523515227,-0.12549274760126254,-0.12750836934777999,-0.07418907819505187,-0.07318162238872941,-0.035337061704072827,0.20710554445480976,0.22124913073545209,0.06769048627624445,-0.025987621564540338,-0.15895678924391766,-0.08906378004295582,-0.08370061649929309,-0.10131634469370007,0.11478391249308125,0.14064382333024909,0.026959608005431257,0.06328941649212698,-0.03861076329155643,-0.028636733840676368,0.22290298189038539,0.007846136574298633,-0.13202419228147126,-0.04575417096028785,0.17432173420842599,0.2723828263238812,0.005150206957264034,0.11373071854365449,-0.04284172380566984,-0.15001484719868206,-0.052332541216302128,0.11792757250199168,-0.03889895706834797,-0.06527241766237352,0.12055810001784204,0.3211476473122955,0.2478974195533989,-0.015208953481541913,-0.020072327141738408,-0.0682965949716406,-0.19528462008312717,-0.22085256885617736,-0.05507790984166875,-0.2249810417100904,-0.09685833550926365,-0.0428467842608275,0.0714846007463934,0.06875006288191646,0.016713093461252744,-0.1057300771466398,0.09014074071923171,0.1207672740618535,0.18447506900119418,0.11697165033075266,0.23730723066724283,0.1276114931212469,0.024305838033920215,0.004610462588966063,-0.045576972162868937,-0.02763573802111278,-0.2090849807172327,-0.2208597564702451,0.059528700504507658,0.11410554140360031,-0.011899527708821419,0.1716711555304628,-0.018266069159560765,0.12147219523195949,0.11168560658889482,-0.265376070609133,-0.10099642837172809,0.20336318597251797,0.14572937133008158,0.08692924853916047,-0.10456032832879539,-0.01794549557625826,-0.21540744612450489,0.06628588503585488,-0.013700028115081267,0.25790327530399556,-0.07464363376239351,0.12601166886545818,0.26624772090649426,0.0362458689141296,-0.15022514781102745,-0.08925592284293227,-0.023300493405734966,-0.009735208293450626,0.15033253996661739,0.0006277525459764809,-0.03236722913787599,0.1556352197363517,-0.16324992265851386,-0.0696543611800741,0.047092118790798307,-0.06495982610652718,-0.16665324846542335,-0.13737013421049536,0.06762467498913365,0.1762044563837918,0.13095759288789189,0.29185183517738796,0.43946368776398067,-0.17319080209997829,0.04195143964383268,0.11239159861190422,0.20626732779953753,0.1198838653886192,0.08042014295192564,0.14251547542174992,-0.0918481890326935,-0.07963083915660374,-0.11641726786947292,-0.07175124359146336,0.063891649657467,0.10097083983693309,-0.10728993312966466,-0.17674939044555389,-0.09468771337516753,0.2795486234066434,0.016468275442266854,-0.04708833350783434,0.17390147789162564,0.008926179068889068,0.13060145205485558,-0.026137479024172448,0.20142721298094866,-0.0913833212076764,0.23126061652257777,-0.04738261756391289,-0.09281047260423864,-0.14066850336322093,-0.10035090469471379,-0.009943393869226158,0.0009616003122645936,0.015661901952665877,-0.23707288604753269,-0.2479630145969776,-0.39532833085664889,-0.16532878470379043,-0.08070377227813187,-0.5064599775543626,-0.39188402279960607,-0.11691362798241059,-0.14592738982367663,-0.15404733201948035,0.247911152434018,0.23369458129479846,0.0018236380175158656,-0.32206735654075316,-0.057804856717377627,-0.15128215086191325,-0.07239153970338366,-0.09543343361357136,0.05980656322503093,-0.148177281324767,-0.2963741576272666,-0.47255094457869198,-0.4977218947520623,-0.39156132398563689,-0.38683661312691877,-0.2439401792712632,-0.4980407892221902,-0.061328550391081159,-0.5081726717435809,-0.27887282280009426,0.2803531552616841,0.32994943394604378,0.2756462204481169,-0.09690853053946964,0.018787720059733946,-0.05869997256040452,0.09394841419895576,-0.24360425517686569,-0.030332982480469098,-0.16150766182865754,-0.2230649844023763,-0.024784562463734687,-0.29390222929451628,-0.49845722058401906,-0.28431131725688016,-0.2117860708012392,-0.49515840930000395,-0.4544833954510197,-0.10750090948121533,-0.10390514211404842,0.3737610159643845,0.5816937464179917,0.25273567080445205,0.1266584110797816,0.2906699125925794,-0.03301245587428263,0.3618416999553657,0.34533414612572496,0.18229829885634606,-0.09998278238812282,-0.11511040186906885,-0.04291744366602071,-0.22602765725082916,-0.36434479067101796,-0.0017650373759519867,0.23116134414934703,-0.4284069071546139,-0.18108412843959979,-0.12602319123312695,0.022917992170565068,0.18662845442660778,0.24978190486937289,0.29754910606557247,0.38878502764631536,0.27000271711278187,0.0382098351860504,0.046935579139579759,0.2552650233512396,0.20180150868117328,-0.04865190577403509,-0.18536700160658735,-0.24303518276597653,-0.38941185697219479,-0.24882610892019633,-0.10829462715330278,0.010408901133094506,-0.28360704307749448,0.09293288402387444,-0.2893604342069899,-0.16113069505813658,0.18987045753665919,0.47173683247800665,0.4613398035854699,0.6045761131662808,0.2627058549322895,0.1983120555791381,0.36501725250560948,0.42495776214261757,0.017978993545088745,-0.1311056389631251,0.012911846657054303,-0.23751972444567105,-0.24106308869706268,-0.1740288722804237,-0.30198436355719629,-0.1798330784861717,-0.16405677441547768,-0.218189449990213,-0.2655524121342062,-0.34693570454612729,0.11486147107677455,0.3444374163695245,0.4856891229946603,0.30383092457674296,0.2509715933000564,-0.02015222517957912,0.2632654355038562,-0.03183500327784268,-0.18288922219618848,-0.2298486109552303,-0.3932228930649157,-0.1435202349091325,-0.18700175003991663,-0.3659306937285233,-0.27392618180131425,-0.39424811002918538,-0.021432832152898576,-0.1476947156728842,-0.12493240688305282,0.12858210202958005,0.2948515699371459,0.4733866468123401,0.0820312136959346,-0.08499536820717778,-0.05962517813503332,-0.1207900071992855,0.3987460819442459,0.2955665654132579,0.14011163571682837,-0.11062683340882594,-0.16903822473525444,-0.0021824617914339118,-0.2371080742477954,-0.29380388445869107,-0.3427777321952513,-0.14804485499505336,-0.28158629400947318,-0.4381869562206691,-0.30155107726998306,0.5634445560169689,0.5227840107779467,0.23193050466447993,0.34869202282509856,0.060405343792542209,-0.10122778942796598,-0.19362211914944048,0.24915625600847589,-0.03277862810832313,0.1106105257531552,-0.25625300817014065,-0.3130505832216001,-0.24697808284004764,-0.049267487700525868,-0.2025032357722714,-0.1476649480586269,-0.18265882007236143,-0.1573336415754398,-0.4775186431281534,-0.2146565709164585,0.10335538531899415,0.3872671347943527,0.2166506802317107,-0.045629414374906539,-0.014319108088519483,-0.1429390913514163,-0.05732155741081039,0.10661604592330837,-0.05414466459609039,0.008242020976961098,-0.16083778235993655,0.014876449718781927,0.21588043025117027,-0.039108745909979477,0.15538107901617766,0.10073870383973636,0.10969792991111147,-0.30316227057574959,-0.1922134256108686,0.049203080918950089,0.21064475447272394,0.9103063705858966,0.3927958415774853,0.14077550568559894,0.16955389409801675,0.06465479803654703,0.019162224277370546,0.36691290653847527,-0.0031392606351971785,-0.18906268217804562,0.029115663391662547,-0.15255716833814574,0.4480853415196926,0.3148971724345741,0.36167556539925707,0.443763489712721,0.2225070573951523,0.02720789277286118,-0.18446295920074413,0.004543267702553474,-0.08102156799728748,0.16316328992930169,-0.051369750801169827,0.16034557381348717,-0.1568870091348168,-0.1609217589243427,0.20966688985081539,0.3219910884719904,0.006353234278031464,-0.3136692925285315,0.06088042341186525,-0.00608399731606581,0.2049633732755856,0.24200884872285284,0.16855734086746047,0.05364997467223029,0.3874901919479996,0.27305117347040677,0.2927742666036178,0.11860754286941688,0.14657810674011644,-0.3055544734340387,0.037875587055391467,-0.08262587331743675,-0.062445788513047158,0.001593996487691582,0.158671510751449,0.1393663016877367,-0.0964341640649852,-0.07620838602763523,-0.11777211038939307,0.05655747325673613,0.21635789413007035,0.1092546762821259,0.12349571817992837,0.19333844739516246,-0.1277216309781383,0.2360220143734399,-0.23018733998443914,-0.08989669908154331,-0.2129125190243832,0.08301233508417547,-0.13573649670659386,-0.2933563908074836,-0.16629889726804493,-0.2799400289088472,0.18898946170032297,0.0066662204493037149,0.13756517693499888,-0.028406804894728287,-0.08048383475571043,0.1223684786597365,0.2463805626746578,0.29297051444605368,0.3908397905045574,0.2659716902755867,0.4123954742741854,0.19213958330903775,-0.044774282630116579,-0.10450754125460003,-0.2389882623284134,-0.06162779977751453,-0.15247154343847117,-0.2547355377168312,-0.18663310753850682,-0.15729886133036534,0.11840805744940553,-0.02893555045594685,-0.09703559564999619,0.10091151287765568,0.0037741188380010527,0.26451402707848128,0.10322919139132829,-0.03355066077400992,0.011747135091510273,0.043930853610503337,0.12658992068892165,0.22568200310689855,-0.17697304109542293,-0.20465577183344986,-0.18754158897209578,-0.2769658708771988,-0.1500139383125112,-0.014475335260935526,0.02966413988435491,-0.10001796711082294,-0.016882534813818584,-0.01434167780964622,-0.1644030208422246,-0.05040945871621832,0.03517618310603863,0.055539334811555759,-0.10094372765098622,-0.037056389166165149,-0.04861769173075592,0.03586859980548239,0.06366140283264248,-0.00401555811784454,0.08812566376978926,0.14447008445660318,0.13430111202851553,-0.017299029988554455,-0.025618004491214528,-0.05229653560923904,-0.035837635820601437,-0.11724374215661111,0.012117858691179045,-0.027405102520944765,0.010004301307611725,-0.06144560961825573,0.02494671315243021,-0.06641125882174713,-0.011107648393609648,0.014919030076902675,-0.014015762144752888,0.1472315299248867,0.020567713283273338,-0.07954822764189458,0.04415870292638557,0.15587241957927207,0.10001536808864406,0.08346628532437542,0.0009705211135285649,-0.09172636619431707,0.0803477596261471,0.024665409519170919,0.020731130319416054,-0.0008331267904349638,-0.07928880034408853,-0.038726127474566097,-0.09715355972207904,-0.01704872805667413,-0.06668289431304005,-0.027065769600095159,-0.05059536876676887,-0.0916837270337352,0.10404973808792625,0.0345191035455479,0.2689635946478027,0.2954896933154092,0.06431257331957907,0.0052679076814037529,-0.15981285270185426,0.005957214979321828,-0.004614484937011478,0.07299483061758827,0.03909531285961213,-0.06563965067871769,-0.03865445860396223,-0.003918069985185877,-0.015491637035478245,-0.11460892994084533,-0.04154748468091738,0.008684566606349335,-0.04143178658040778,0.10612739018950236,0.07613196752111783,-0.07252992701940664,0.19820819489802733,0.2564391843570411,0.1846131695636619,0.20632926376487024,-0.0943809162916347,-0.03907955419057681,0.13005022610670748,0.23386815944191884,0.0130996759615599,-0.049170344186844527,-0.06901319778114569,-0.03815335803071204,-0.07696476252675917,-0.1596044395300705,0.05760160687723017,-0.01720736078209504,0.02491406413915601,-0.019454084439939215,0.1396646831883975,0.018545356503978404,0.20646809542219733,0.2774158593427136,0.09668822756900304,-0.0029094242563933905,0.08638795879487947,0.23733846546675695,0.19940287574270147,0.17454061873539626,0.051421151712566389,-0.09078460061941847,-0.05735268486126556,-0.1402306577228558,-0.0950094010806719,-0.021186723661452284,-0.07311286714269927,-0.13078604507052009,-0.14967562861989709,0.022289718865678658,0.0808143572979784,0.01131285957531543,0.11512888879301162,0.13777595723441087,0.00717612442222764,-0.06746217066302883,-0.16905062797205595,0.08383122492075926,0.18426979842316563,0.12542743257247933,-0.032721606021757238,-0.12172611357533558,0.004035616497802405,-0.10669176928537276,-0.1816387950585056,-0.12303793446681259,-0.132255863357997,-0.06586781119798206,-0.04101426603002156,0.08683659434376888,0.19801397909936656,0.10270654829080527,0.18907077554990182,-0.10361525265067004,-0.14930900120361124,-0.21534726898705623,-0.024865492593039216,0.22547516403946858,-0.03872869780727189,-0.0041072752633788309,-0.08981811498639261,-0.06393192506568452,-0.11247957917427351,-0.029803493103390534,-0.1402160444026391,-0.11763707858420113,0.12103594211465085,-0.23471351433675223,-0.24691278809143669,-0.20357957346724588,0.1759782392985551,0.18134403920336293,0.1426778394722319,-0.08622179535609945,-0.006053641302685536,0.06266274563217068,0.2061028805418172,0.1279804516819624,0.21832240813391932,0.09345117939831872,-0.0525227298673602,-0.0281117718260064,-0.18847847302896196,-0.08090580687549033,-0.07787542210677911,0.04882016546699027,-0.06256844421421667,0.05390664567033069,-0.04783768342575408,-0.18655697869279226,-0.14738927003682623,0.12929733633120239,0.16485150756775453,0.1182951078229583,0.025818008220322987,0.1470983735749195,0.18390759419443573,0.14249155937191719,0.3486562817849056,0.06423352675960678,-0.006352309671514561,-0.08304253404942097,-0.00592108081165431,-0.04818006423811064,-0.14092186335458363,-0.14694016140727893,-0.015165310110148343,0.10343664991371786,-0.041494568108217669,-0.1258774011191612,-0.2603231719666186,0.05560552642388477,-0.06475913582648577,-0.22736048315593666,0.03706992878649385,-0.0839053030642167,0.06939188839884865,-0.036194874645972856,0.15275602174603906,-0.09077618929130045,-0.07559708722106994,-0.13327307877485485,-0.014165720492943313,-0.005058048701890529,-0.10998161519736655,-0.14130732446384507,-0.07158116551843341,-0.12928198637710909,-0.13037484940912975,-0.2839807098408232,-0.04326929759410358,0.13731576634798563,-0.11070521922944077,-0.0847993287011215,-0.004751520692976015,0.014000781466449862,-0.10764429422681701,-0.13475740977355836,-0.06891226969127955,-0.005976271714828258,-0.006916765525476349,-0.018050941081287697,0.00908166851374655,-0.05630191335647144,-0.00591263630309255,-0.006957124394482088,-0.025624213311887333,-0.06853096107496644,-0.1484011501377535,-0.28530247151167206,-0.20165956302851868,0.13752357956323395,-0.1294008866322945,-0.05207199280877197,-0.14512638012968183,-0.16591662111741579,-0.06288545129582302,0.036908960523968959,0.007567747845616049,-0.010802414259190076,-0.08951766015714817,-0.011935914128855063,-0.009018582315411708,0.038584345299688408,-0.06240734850274258,0.01255287907062184,-0.11745806668164762,0.042984833627584078,-0.09090466054114657,-0.16276498863466239,-0.08161321616166718,0.05576900870569485,-0.141344776745288,-0.09339707400678837,-0.24018792426730896,-0.15612502378790239,-0.03725621310980864,0.11604229658759709,-0.049281339385369948,0.18018746270836273,-0.053569349234412619,-0.1722759367360007,0.07951098316340102,0.10886021849240665,0.019553060734965864,0.07396058321124718,0.12787203382660174,0.028114043795451773,-0.12875584258940499,-0.15231732667160784,-0.03969487793775657,-0.05491252127707423,-0.009751451199867019,-0.055607458676983068,-0.07530058972597215,0.08034002620333959,-0.057998907048878878,-0.019268130881655168,0.017356047576914794,0.051978381123846287,-0.07584348915949972,-0.05574364111296666,0.007352132421450231,0.06761487275339032,-0.004519855457911753,0.12664409521822668,0.06420340001012195,0.08444488172252311,0.04424521349601559,0.07365287947983983,-0.025008243306718596,0.09161559933290832,-0.1398146638781885,-0.21776305888691625,0.006140574340116507,-0.14371161642302666,-0.0062813143833459418,-0.07513328463717553,-0.07474517894836599,0.0013575006780473215,0.05352514371966097,-0.03686651189688802,0.049960960886085977,0.04122667067558063,0.037886201274261548,0.03432630727063083,0.06143545707902407,0.09052155734100335,0.01232968313921823,0.04735484112180574,0.16748528865489105,-0.00537260450663467,-0.11927126268595945,0.0423732553855758,-0.11668056391890455,-0.05990546771818938,-0.2473010897376368,-0.037710675028687048,-0.05855134420432745,-0.095916945498729,-0.02479649449549866,-0.036278285500582509,-0.04406683869684209,0.0134299645286768,-0.06413240048183376,-0.08720928529978957,-0.010662193692447305,0.009106074596252394,0.13538674215550179,0.17668000528026166,0.004763803187015796,0.017243635318046944,0.1400200369781642,0.04768535324324634,-0.016540667203752584,-0.03756798787723591,0.03858939865663018,0.03934441737268363,-0.034857481510427699,-0.05071844375981929,-0.03929395544910293,-0.07069835591400232,-0.0284222932874018,0.03572358195951884,-0.12921802469162098,-0.0396313130531152,-0.09558026267247724,-0.1440706083478197,0.10893082524415006,-0.04601628191409738,0.09424894833438473,-0.03206105222470494,-0.013096626876526427,0.0697177592221288,0.12146245487452952,0.06000002080873649,0.2741412144355435,0.11014815864121445,-0.13461531586497933,-0.083155271527822,-0.0764682576096433,0.028582347088952754,-0.07596624178457244,-0.021860330978907578,-0.07302336926769705,-0.13589071733720346,-0.05345261605890142,-0.03786476338158522,-0.008629090676659393,-0.02460125308529976,-0.12046111432796482,-0.09756868590350194,-0.022964005564028557,0.16039811123100326,0.03420517891712203,0.14658293826036243,0.2204503127205557,0.08197692611199739,-0.04311453488552503,-0.061257521668244999,-0.09395673137289494,-0.08218933325631994,-0.08139108360634247,-0.045675522750015729,0.1075307659650357,-0.12844990255478887,0.04081645413578092,0.03888341736828335,-0.03233436884749913,-0.02246123542336055,-0.017711892825296607,0.017216259618194259,0.1262878444464742,0.10359039946825645,0.09730191528651557,0.051905939736141,0.07640439909098125,0.0641745551622233,-0.03441444890715362,0.019014352016339058,-0.029970725722687429,-0.044293730314423487,-0.1542345202151408,-0.02347295093156777,-0.08687136218385094,-0.07067859516287495,-0.1319678826226016,0.18935320304764576,0.08590543343395882,0.2150023607493607,0.37451977508880349,0.2849258105390058,0.07998642896292532,-0.18936239212909,-0.07023216892854074,-0.034795133553025058,-0.0172450419365288,-0.04828791552330333,-0.0740687804167838,-0.08683387367219256,-0.0614172592248243,-0.06302913608217102,-0.03627786102776547,-0.044165438109696978,0.06378727736509279,-0.133684301157133,0.09440079838337987,0.2174451211729379,0.3663884420151621,0.28012401684781787,0.32688737132415349,0.2108864601613647,-0.051857602341944527,-0.09235324499093822,0.0074189920540343079,-0.14541165001520543,-0.022920626299956609,-0.15136596881127946,-0.01292068026177412,-0.03753788516789992,0.15762051155394583,-0.12129229698653844,-0.011892354073763089,0.034893532675579989,0.11798307644734571,0.211649857120019,0.25090780162270628,0.3032530310473918,0.23352485035525873,0.14936315894950365,-0.011070213034540424,-0.2390743343811275,-0.16695445909305535,-0.1003999148352885,-0.006104061599574544,0.034742640698170738,-0.24849715450862693,0.0023936251217270508,-0.14583107415060707,-0.15574599729410375,0.042414023040498228,0.221332767184247,0.024200816189074715,-0.21913652512548305,-0.18906934472136048,0.13086881459676645,0.4205595606809894,0.2187720822556117,-0.01093366138274979,-0.2136879468171781,-0.1460900251970694,-0.2403689918656536,-0.27414893567154516,0.07524974867585657,-0.00920755124627574,-0.03673339841020226,0.09056300182371162,-0.19812606732864,-0.1973138549291691,0.025047779440542239,0.15618268474284598,0.03642792012865574,0.05595162135480198,0.10442860610150073,0.12968862827929066,0.14301259889966135,0.13167170118414379,0.08457448324351934,-0.15436339208531345,-0.297309836825507,-0.20391780464222326,-0.11213407940860454,0.05994782899935297,-0.3666597789880115,-0.12124413719673047,-0.047632560830574609,-0.18334019330730939,-0.11607234657081002,-0.35103053245685997,-0.10193489834425787,0.07040765125163236,0.17049912858840569,-0.1907169852919238,0.036728250771748818,0.179323649964079,-0.25995219273328148,-0.0651468642995838,-0.13859371337020352,-0.23961575164922553,-0.2768086948388376,0.1711064367948166,0.029274646441876816,-0.09561813714956684,-0.17833136923034907,-0.004571421692350043,-0.10115740274793783,0.24837319769007888,0.2011015463568653,-0.13262207016821224,-0.07507286488509077,0.07306242775338265,0.04167607649823027,-0.021188414103814666,0.031723083826155348,0.0436676711883261,-0.058156999807072239,-0.0690656284616233,0.028367843264107727,-0.3388331909338455,-0.14295085109786169,0.123773832838731,0.0063385332519389219,-0.07439323955618242,0.11938111424637875,0.1301090617625729,0.08038748088051023,0.11653268378595776,0.011657641732231146,-0.06359892114263204,-0.11469730520962676,-0.015805254522044636,0.043427136813043328,0.1790767422705827,0.306306503023487,0.17403400930435515,0.026507803940594888,-0.060090179840104649,0.26021626115503956,-0.19023334980419014,-0.13107400416774854,0.08739454314542426,-0.20239037627069107,0.053440024571575889,0.03872817368036008,0.10049603317250057,-0.032578669240989868,-0.019835188738741757,0.04404561525371495,-0.18083049386021336,-0.1903645459962066,0.020468291990400197,0.43013707110274587,0.20748935480722406,-0.06482817841487484,-0.07516527956022162,0.1761740871968115,-0.00742437925410579,0.08023684302651912,0.16538646249582873,-0.09093997506223914,-0.024613821566318557,-0.19347978850861365,0.23037526096568329,-0.24585609939205034,-0.019576687834211495,0.010125684149294179,0.20837358845574104,0.297751736844408,-0.2832676984614003,0.10375273859155411,0.07284966707712029,-0.18480513830126117,0.2927400028962426,-0.07846911856585603,0.0799998279309262,-0.008090753660389555,0.0219634846482039,0.1900992101729998,0.18199052372555794,-0.00506567833237214,-0.26956015195643159,-0.015279817058420719,-0.16369047462961479,-0.1013831734533406,0.35456087572631486,0.1740224652627548,0.4637245560165221,0.0900329178386955,-0.14327791506355909,0.15359421438537075,-0.16682550184582346,-0.16362881933504146,0.03270631065941134,0.1118686546826233,0.23177295751288327,0.07648289220861553,-0.2070697310404971,-0.0047013337159426018,-0.25995869697230647,-0.26293785720616377,-0.3095488933375648,-0.16025604907793343,-0.1084459003333417,-0.11624637310909931,-0.024411916795585656,0.22519096906617515,0.5820595922373447,0.41115358661424558,0.031182242356268598,-0.09756494814151094,0.10848231880160898,-0.022242274042039556,-0.20213360076903445,0.09617481565787262,-0.016135452454260854,0.25780325461289696,-0.13002239818608178,-0.06662472715885208,-0.27588457494689769,0.09531217324143637,0.043414993051815699,-0.08395363050805209,-0.20772417903625138,-0.13399904303152466,-0.2642248467648203,-0.00798046027855423,0.4399441080185698,0.48149468332081615,-0.03787511230293304,-0.006771414437915571,-0.09790012614851576,-0.12566692209883738,0.006496248624871986,-0.001201618171092209,0.0486628955104177,0.22642941758083508,0.3146571073471814,-0.04236558805102225,-0.1053803671871387,-0.28112383919781117,0.06967602498946195,0.006195082842825846,0.21731724703858913,0.04993326132890436,0.16008346885259126,0.2004761856355077,0.25418185152210145,0.25194953164886238,0.18924803820871245,0.029255235591211686,-0.07683828787855464,-0.20883603256493736,-0.2976929398613694,0.2654427585604776,0.3486127710832221,0.14103888694454698,0.06225507784286886,-0.18754969556649288,-0.0565628985442633,-0.08643467882713561,-0.3708284013976032,-0.28929856713134169,-0.27243701998316957,-0.3890423970068334,-0.20309458695765385,0.2463939649023341,0.35096354984423019,0.12223082543311871,0.23917233716772827,0.13738431122293458,-0.26815501886877848,-0.41308012469238877,-0.22477707129236003,0.10886604236771644,0.1729326543177931,-0.06272533484641076,0.09677192033628338,0.0456381733684834,0.22099896133317263,0.07287594142411984,-0.26152682553610587,-0.34302039645331808,-0.47797896199661207,-0.2191351031434838,0.0030381800750448409,0.18243007577158899,0.04039458664241901,0.1934664849694851,0.1613098707369808,0.1779937967380199,-0.13827392762314584,-0.2127495060122236,-0.2104027534783463,-0.22409107022448838,0.13060679748519206,0.13404011378918488,0.12230067549960107,-0.14418888855381985,0.12248385553889361,-0.08964035224038897,-0.07281987422080408,-0.18974590032625694,-0.17048173013605964,0.08237007328655606,0.2841779382291993,0.26508095093057928,0.16650704866032427,0.09302994589779158,0.2694005393911501,0.018764839503604408,0.12787239878637716,-0.12232706473309599,-0.12808854819977318,-0.21394094332788708,-0.01665289855222297,0.25508584456645319,0.25760525881809817,-0.0941915670937909,-0.1051654970520132,0.002314133149197003,-0.09108740372580906,-0.26061666994816198,-0.31832229803333986,0.2058394559154085,0.022791380363122797,0.2079139345170663,0.04693345138885458,-0.028817553307148255,0.03548343339979233,0.12743481997307144,0.11670583407346506,0.10035011217646188,0.11181836056606609,0.05499644215896113,0.10107435067202451,-0.16787443539423348,0.06489522304752632,0.004220898032385567,-0.12985483483344735,-0.050973456762743608,-0.07329655894046502,-0.01035732081256483,-0.033002995518864697,0.24239118100390653,0.1667411507181847,0.27865239784372128,0.23490877891202367,0.07927096127689505,-0.12766549292799166,-0.058671030723855977,0.011249843271057164,0.09233275573872693,0.1261015065563268,-0.06338702162581786,-0.17693635888437299,-0.25910887459209899,-0.20968883042081838,-0.21874307982646133,-0.17454639985121946,-0.04823614961943097,0.22340423914697558,0.405669792944505,0.45551913041723066,0.5398969835651907,0.12681984835115274,0.06078353350803762,-0.11653291653620987,-0.0938871131736453,-0.23660434125321837,-0.2632757381185689,0.15244116446158935,-0.09455197897171124,-0.18417659572963886,-0.17202212514434699,-0.2564437069333283,-0.19877058176880472,0.04624976199416151,0.021146004162958186,0.23551364430767439,0.06507479185505734,0.22415031347085016,0.29335261790972208,0.015074489669342401,0.07588995212333633,-0.004650246877749028,-0.21040512149850383,-0.2583985986135801,-0.1856895697130941,0.005922529198360204,0.11506740959013232,-0.040551238502393987,-0.0019938533826533114,-0.08169938460361705,-0.0330412243222283,-0.0006215671293527232,-0.07935796659572016,-0.06618498986845604,0.08885852075609902,-0.08258525489052877,0.03492390154235669,-0.12533111663334396,-0.028480785199656839,-0.0188174052821437,-0.0308562409425698,0.027965755801131876,-0.03949769295705653,0.022759613453340097,-0.042517882923269318,-0.0029881153558787307,-0.03023119447999827,0.08642449177990172,0.07010782390379694,-0.03912964201836211,0.004117239573074458,0.024685322170954525,-0.056548588400684298,-0.01375707604662541,0.0309885100701405,-0.014897041376713235,0.0729098801085381,0.03163899128887637,0.0006214304016156359,-0.08887878557784088,-0.02272163342724185,-0.022874154861818268,-0.08442420551567662,0.04675031585831173,0.03659492678102726,0.01584464686712886,0.11596776781044312,-0.09395898214036003,-0.01866506356482944,-0.015080236333042287,-0.01983602776830638,-0.1133034981676022,-0.04443484554634232,0.07258038119884754,0.0064367734053935288,-0.03432247954557545,0.027666251207844315,-0.03865995208346926,-0.03088377442649614,0.012696694212851776,0.03771910774648093,-0.04887883386856997,0.003622995570145814,-0.074118418643087,-0.020174539389943369,-0.0199479564166823,0.08603056063949721,-0.01889706520525386,0.008837561605273195,-0.026708115577112589,-0.0037088240163626856,-0.0885168561123096,-0.006940584978938432,0.19678586426936163,0.08843678996140095,-0.06358043403667384,-0.01960010067724429,-0.014668777007711043,0.001738149495312746,0.06065440547589986,0.0013044067611613282,-0.07582646006922669,0.01983604674867766,0.05192287511148956,0.06284184671528535,-0.015903437946942005,-0.031061134390623334,0.02603160685265707,0.026525776194643109,0.09926227089588713,-0.0400056345232114,-0.10670336071874735,0.004089842424418262,-0.0008460386323526369,0.053295732103710958,0.05037224253033289,0.10957780778382018,-0.07310383834451376,0.03900789072520927,0.013538684236933555,0.08690282552047252,-0.030811808977751783,0.11084424133315472,-0.03268593319689011,-0.027126668621061998,0.05547421011487444,0.00293830684726277,0.052887026741025969,-0.030175237571155337,-0.07495437415521762,0.0041880068701404759,0.04756144156169671,0.05295391635037009,0.02468555314308633,0.04355603170901847,-0.006005066975805779,0.0054089452131594159,-0.03132850894092406,-0.044214709319066038,0.06334723325081236,-0.04257420114251227,-0.08112642348411779,-0.12639969595597187,-0.01441066141053618,-0.04360717802009801,-0.015035164863324305,-0.058359024271241569,0.0002596972124015063,-0.040424793220019007,-0.014881368935399061,0.005395131940834734,0.046035310594914839,-0.041412281819832277,0.05185520255116878,-0.13473127682573858,-0.041499602320229877,-0.10086924471373696,-0.035799000185148577,0.039313678814040398,-0.01732613250138368,0.12931135270094405,-0.09554154209002018,-0.02167111891856169,-0.05823249517967547,-0.05745195053996336,0.06313585013291649,-0.0832681737367613,-0.09881920728471884,-0.10221838049389774,-0.03508659308496906,0.02793270917287862,0.051884134908747627,-0.10150609330177113,0.006436046557771248,-0.08788680599480635,-0.029673209095250249,-0.01383869276044243,0.028056770329826194,0.003676822467658472,-0.044862164919100017,-0.14962508246412563,-0.07475658754373539,-0.05683515140780705,0.004336738246137716,-0.08357911071860765,-0.015582989872948017,-0.011086257035998812,0.03978267173648964,0.021805781452981195,0.05353234462138864,-0.06951146777559894,0.120290042428995,0.12160294931317624,-0.04426335578129513,-0.09868711538493347,-0.04900426855111849,0.06502231244307123,0.051025311277851068,-0.0020745177487005576,0.015902473750237856,0.0523968817139177,0.004047382900164678,0.004565644514201137,-0.04205028166152239,0.06291283693426947,0.09774706074005255,-0.07108564548514118,-0.03642248196182114,-0.018730837785766429,-0.019387330552766106,0.13672170818110067,0.06112417289411007,0.016843298988552997,0.1383415031435153,-0.03496312280776389,0.05972822933073786,-0.07041055413947498,0.04484032004992534,-0.029736456679391143,0.021591118458180734,0.03347384058566386,0.13145393665896458,-0.025603758187185568,-0.07152955654618404,0.04445879470282259,0.0006009176617113577,-0.0899404480253785,0.015579579578675486,0.07607377015519568,0.02730707455271306,-0.08800686410882405,0.018388692315767006,0.07461022329576392,0.011852329879292667,0.05217932213838058,0.02425716190357375,0.01982316653445977,0.033912635177727339,-0.0021992433149394627,0.015307602190741685,0.0006565829848401126,-0.051635685607721377,-0.017476439811679655,-0.03691992711270938,-0.03477275100160534,0.05950650006865661,-0.03077537160623871,0.06435021380093678,0.05492493324565551,-0.00723629101050827,0.010622728337718416,-0.038458731188339288,0.019609285313766303,-0.04495186335119573,-0.04657400268572228,-0.03041168274826833,-0.029480437548641864,-0.021485320612903783,-0.022293741956128076,0.018613823919007959,-0.06277869726453732,-0.03500712362219243,0.09306743769102183,-0.0847989495239722,0.012146368011501836,-0.035114921596419688,-0.0005648831694900621,0.041123516583225449,0.013944097775305992,0.04157963104871409,0.007109114031327483,-0.029101581217200968,-0.1209651319207179,0.04364539257268328,-0.10591864594307662,-0.01571532599793598,-0.02423592181014863,-0.08713144838635809,0.11662100665942869,0.062267652418097677,0.024511435392115666,-0.015641028771361654,-0.03650890253844653,0.02181614029517921,0.08201828801735195,-0.15130891511144896,-0.0018653567040606628,0.04974033160477618,-0.023615497001034825,-0.022571962952329006,-0.022259588753206693,-0.026378789730174987,-0.044450751132457947,-0.02421318002414929,0.0001386553646043853,-0.03161249389968297,-0.08920737022244245,0.0036340375150958755,-0.00502440836426708,-0.058927082730400866,-0.010501966966957639,0.021331310181680654,-0.015490745846966525,-0.00812374895816106,0.018086458743906458,-0.09910358241143627,-0.06161359538664316,-0.02098071267756482,-0.04587523970872984,0.12138065844927733,-0.0400380473172735,-0.040411276788997547,-0.018347806220269968,-0.0636205802743815,-0.09353083461453388,0.010965399114314649,0.042218881979757118,-0.033125128412089057,-0.011786051071877557,-0.0002292014953489702,-0.01663751415557677,0.04722849637200176,0.004285888151142696,-0.02575906615956234,0.042775924572516599,0.02884529089564826,0.051562289344804976,-0.10095333269697443,-0.015551856387219589,0.04194547302851294,0.05723077919632549,-0.04843111083914961,0.0026961608306370536,-0.09988390120776306,0.0333777859680957,-0.04468285727569395,0.022760469802864278,-0.07905473309415484,-0.0403655662867129,-0.06054860545336345,0.01747720748927961,0.0722143733053624,-0.00030273857925037503,-0.06501737250867292,-0.006792933694806923,-0.0621458857740498,0.017385051885982558,-0.04036616957248604,0.08390221502957142,0.0787918867258314,-0.03159381637454322,0.049834689481025828,0.0244677842902497,0.10400543606765284,-0.050706565925947969,-0.03638888235238523,0.020764878230912419,-0.004381710703993648,-0.05883883338001163,0.03226064301895702,-0.038793433303450499,-0.04178102577066618,0.003097862274609708,0.03166825768719823,0.011431222354808212,0.05864757209100676,0.026349886169316534,-0.030090992690998718,-0.08949948180054467,0.007913262765421498,0.06135752683548636,-0.05298680454649547,0.016933447122472326,0.03561110158307034,-0.13457773244407365,0.07477426711712428,-0.03148312302632684,0.07626452047086854,-0.011541468790000512,-0.042251817888623987,0.019495577127229697,0.01474932639334754,-0.04421410185756038,-0.0030027175784048275,-0.0773666475733816,0.12455876773471661,-0.10488270233309605,0.04428192071905597,0.03482855687113508,0.028231244812500994,0.009901023477326129,0.02278366047384299,-0.02124547959151306,-0.015762960424121527,0.03415296217851096,0.018784125727536434,0.0780600830425396,-0.0977032568197976,-0.08042045235042103,0.1074460491886368,-0.033302131233923098,-0.0171512007226271,0.04164815345657417,0.009872774573836823,-0.08967142181590891,-0.006692115026328139,-0.03952690260967469,0.029582903504303566,0.05806160332140607,-0.007541481165068388,0.007473591707981862,0.019678027021343148,0.020994986196608058,0.03395565569764979,0.009470413065340952,0.034556461067827098,-0.06047035355751762,0.05640320298744469,0.01482774658776528,0.003981628120829826,0.04789440772177911,-0.04557612392994924,0.05646107274706859,-0.022454072532715045,0.015663322507472756,0.027706473668069107,-0.02010416050978417,-0.25714468242129248,-0.1581323142435243,-0.1339610972102867,0.02278561685999192,-0.05438292470117749,0.10851666931868798,0.32479996660074147,0.10472183350464805,0.10251479752441978,-0.03558047002238929,0.17799614057383299,0.2628022514403872,0.10692192040284553,0.07230312865976411,0.04270560249889896,-0.2716414854439273,-0.2520637246563384,-0.14588190683495207,-0.014824274529306138,0.21374043494526075,0.013840427909979126,0.08669584658902259,0.0368606674290864,0.25544620079906429,0.14136751559247738,0.29923109567009417,0.197694498854328,0.15611442478177463,0.023892875620299154,-0.1385729021692089,-0.044535440954967548,0.15993266528802767,-0.13381060667413476,-0.26058761971870256,-0.007200902197075167,-0.03758598554815719,-0.06415696380799208,-0.03971518057315303,0.035660035434129228,-0.033812129572662327,0.06254987362487494,-0.09179755077538922,0.11840369037145454,0.24335097833977513,0.20802731701375097,-0.04368123244325978,-0.005598697367129621,-0.11691669798927497,-0.018983877444207904,0.038977790909674698,-0.03443949859740906,0.325833205233097,0.00044055498629440645,-0.21009256538042704,-0.2237873732623198,0.09432189253972152,0.09084609132965521,0.07050954233804126,0.03925984095699759,0.17389793246059638,-0.06658657424231025,0.4679456616945399,0.24898711147572814,0.1319229540181189,-0.01678566748730958,0.20591936348884697,0.3965093484720264,0.36356341819063789,0.12422830016008037,-0.17004715243065583,0.07678887616909872,0.31857920897704958,0.1034843942123856,0.19434651384126756,0.02095224744528219,0.03809774285476413,0.20383289694041996,0.030982327599231,-0.002053960395052067,-0.04456332024553882,0.08879837093800019,0.36066142833045236,0.2826619449728405,0.17047906694669358,0.05593099564454108,0.44961314161803198,0.3626859370838088,0.22704331224461059,0.5199512708284689,-0.08921502553583505,0.4364413671208644,0.26773275244613506,0.09245481194814377,-0.10340553468573091,0.14050926991699135,0.16154705870347123,0.056142281274496209,-0.25047485812013028,-0.25151791667507158,0.08392277597235047,-0.14098416417213367,0.30740345654896708,0.03417254124834303,0.04665895557447138,-0.003422092195604393,-0.02595853115735451,0.2134582874465471,0.3655124328953852,0.25302083858848758,-0.048815114776216379,0.17533214541137225,-0.024554580824597193,0.13954635407373679,-0.2409557368289597,-0.1784798424674069,-0.14231090785858997,-0.04106953930155394,-0.2777743521086738,-0.09822468400336132,0.06374705917297295,-0.14896656726860917,0.2809026679561646,-0.10648315335949725,0.2995930288294858,0.20908381799571675,0.3336475434567143,0.2822240679413016,0.3041347274923915,0.23227624452615648,0.34401275042238119,0.31914814539510386,0.0633487019879827,-0.08318277738919311,0.0784197071222856,0.1339930870857436,-0.013147726397708339,-0.04896774415264759,-0.401552797831659,-0.26465397420140676,-0.0721131378467809,-0.09926994186060018,-0.05392834128792003,0.16604584877336887,0.05275585311303955,-0.14474277817628718,0.12295066389705144,0.28230168814323605,0.21052602125294296,0.3071558444724547,0.014313193171028268,-0.0674081366477037,-0.04744526096684788,-0.38882759507777456,0.1143293360622768,0.05972627549722138,-0.00796590364618774,-0.05823568912009414,-0.0371555369808473,-0.23370616810387943,-0.05126933753555184,-0.25720915406980296,-0.0014361389348308437,-0.05870618964045927,-0.047279436166736358,-0.023207678018221567,-0.00484958907304764,0.33071763053392946,0.30042448483441566,0.3720356154129089,0.38130380187961807,0.16221361615778324,0.006645063040040541,0.028420419316765454,0.0756905579517874,-0.17310391112037552,0.028623806923611416,-0.018404735086453646,0.0119370231867963,-0.0363985540965625,-0.24579123638420806,0.21060148030463664,-0.16134776157103956,-0.23663839014104166,0.10870747781752525,-0.04016406785159142,0.21562179325548423,0.20988763728114666,0.25692317917387355,-0.13127756237486144,0.44165868047832149,0.1581309540717648,0.16971448970797779,0.3026132866520983,-0.16735090071078599,-0.1410374759964829,-0.05369517494820204,-0.2537176333659593,-0.0024738985200470988,-0.1536926807202223,-0.22796966634354164,0.1751638081416132,-0.04446699146959984,-0.2720773643967136,0.1338596187999907,-0.19418890936544165,0.24757184107280126,0.3763340053425692,0.3561362515733275,-0.040874069586772237,0.4202652241763135,0.19710212902272188,0.11679424337365369,0.2996364875714613,0.19853759459576068,0.1539135404375739,-0.042848115730521958,-0.26256720555669557,-0.1611518935035321,-0.16260770324347247,-0.17803104898562556,-0.05181376476695005,0.19561724135027148,-0.0017929838631700034,-0.04628276032251096,-0.13257092784954375,-0.04031148006251334,0.2268758969355648,0.1170601439819176,0.09105552154556744,0.4554831207309838,0.12563292132319293,0.27137876066096186,0.4357703540680198,0.01556073695045532,-0.22609193698411784,-0.12802477797178359,-0.23686685699535599,-0.18321759755466658,-0.1737082752608271,-0.20115877981529657,-0.1489295562205251,0.00596442318253108,0.2586916715782269,0.23333712027769958,-0.1633447852780221,-0.18381994586462753,0.02453492855720184,0.02719936732284497,0.28463612245967975,0.3193453285617666,0.25096133698426295,0.16002277876252084,-0.08407998903394928,-0.1615619054207802,-0.3204436833086615,-0.07453689730218796,-0.06128413500094631,-0.1303309995319053,0.0014563461563423084,-0.11474150424670134,-0.14335384808487468,0.1876320216526993,0.1439500654825616,-0.14854265843070964,-0.19051139509422164,-0.18458651079889128,-0.5086149490406924,-0.13275835235406806,-0.23900098599794598,-0.12790325086353486,-0.17446989223145083,0.13332244776619116,0.06169678074788027,-0.20936684524796135,-0.17705674647137865,-0.08040850571164501,-0.08101702150741679,-0.18299880755879473,-0.038116045042525258,-0.12170470503892156,-0.09051009585434171,0.13269129319753196,-0.036406323743267268,-0.12740440854018973,-0.046355233407341229,-0.15582840922569989,-0.1471487375608998,-0.27480514057929447,-0.3091717526982981,-0.23163698677132803,-0.13477083976162949,0.09773956106687833,-0.20653884788265235,-0.12749726715830349,-0.34453376675489336,-0.2234653427117682,-0.22676163433848382,-0.21512015803132615,-0.21924094687641,-0.081479743560178,-0.2106022377869056,-0.002858226134656456,-0.11802301499535277,-0.061502421335240937,-0.28680000624785076,0.02634866691620057,0.13314274852183043,-0.14074137660387593,-0.14927733931072749,-0.10849919094768383,-0.219844105756059,-0.17281060957132819,-0.05202357078884358,-0.048250115766477,-0.18555279880653884,-0.20638660044062194,-0.282646616549732,-0.27542608044698488,-0.1305344502050163,-0.10180068608872099,-0.03442947210193832,-0.05447990319095035,0.04476824494043717,0.05938228258787981,-0.2696350523307707,-0.23747487685303074,-0.008727544499606837,-0.016774665494516406,-0.10653626326845107,-0.14894938267496767,-0.14672032213620063,-0.2863740401129084,-0.09410376426733216,-0.12933637997987264,-0.1593272737498673,-0.20566295700871765,-0.30056284549648989,-0.16147302466417236,-0.1587322259069966,-0.11055527771981692,0.0020351010002917534,-0.02331252483799689,-0.17592454063773564,-0.05244834823738051,-0.03217629979466445,0.07635570389064382,0.08908633355531506,-0.00020459580368615817,-0.07389614486738164,-0.027997910826197769,-0.1040064327693142,0.018462615095679793,0.028987530910280839,-0.299082580534575,-0.2926730108078712,-0.22972357092084137,-0.2560102842242418,-0.17493608356843297,-0.20430930673584828,-0.1839106249350777,-0.03781218634419059,-0.13968000916729876,-0.11750382420803111,0.02385499327312367,-0.11499145011194284,0.018039452472999475,-0.11193339371533423,-0.08063312413409145,-0.21373057603209703,-0.10876747097569545,-0.18877487675527913,-0.1302504715587121,-0.22228929584404934,-0.19946046152019715,-0.19458597997613759,-0.09116841169347342,-0.06895379910517752,-0.045182231291505798,-0.1944192337637824,-0.10295181182691579,-0.16015475590193627,-0.0649506148204763,-0.14573764674210333,-0.16735592532804723,-0.20204140210307873,-0.2005259631964559,-0.1159217006051395,-0.2195834763253976,-0.19510494507765475,-0.3493413483601285,-0.11529920339821993,-0.13210040421873082,-0.004658514152488561,-0.16607936922337855,-0.24630211306296946,-0.11960075628500809,-0.20352848382814169,0.014543605702539355,-0.048954191641572709,-0.08646644882097636,-0.10577098333300543,0.053176694894876749,0.09421189224822987,0.05096944872413906,-0.10283957165810442,-0.21363341751139573,-0.1650359424490447,-0.26949428987764675,-0.11086239943812042,-0.2874666599437101,-0.4312438773583321,-0.1845450955613397,-0.12426869342940103,0.02079969498230767,-0.11015335818238452,0.04095944600954315,0.13527685065859197,-0.08464981929428588,-0.014506912029779296,0.03289834575451015,-0.18616569111445409,-0.11429614189411863,0.2681816878226436,0.17220154842401906,-0.25653045646989089,-0.08864766635651994,0.07046677279757216,-0.22997478330554536,-0.33918986509238965,-0.5409226837879279,-0.3471209964055003,-0.42970305937463496,-0.2918987452536329,-0.12225815371642669,-0.20868977163353345,-0.11699229137364167,-0.11445672864994845,0.07213271850233803,0.06229164558460503,0.00725708481647604,-0.00524420528733346,0.12705356571166213,0.1501450602043366,0.048075355323577848,-0.22165084040287257,0.23519261887672958,0.4834626824655335,0.19267947920331125,0.295343048110593,0.04718636985806649,-0.30555244645816706,-0.5723965530522572,-0.2835249531040615,-0.0832906524113306,-0.07675773973446877,-0.1939601184134512,-0.10574695452467004,-0.005541786635950432,0.11107542604597032,0.04997984349154237,-0.11737150846703466,-0.015199360804464756,0.10794410890549647,0.27667814995482317,0.1508390236932075,0.06642424400747853,0.45285717266088468,0.17626878864484805,0.10512176407197785,0.22441672742151587,-0.058763163934491709,-0.08734243865503871,-0.1594054802621753,-0.22733842762775517,-0.11162328972112844,-0.14824022668630219,-0.22091140244153854,-0.1405896527855127,0.04445262303523612,0.09699322759652045,-0.10036931598010603,-0.16829003651007258,0.28239167085380975,0.24858384222971328,0.2647129106755945,0.17487069395727629,0.2520049692866197,0.11336581756216459,0.18982116287589696,0.36074312815506856,0.03247404164266878,0.04759632142212276,-0.4114316085357588,-0.06923858588611579,-0.06557831173625067,-0.18656314071674108,-0.13733629501469794,-0.040783726395107407,0.08382975904535659,-0.025832886881257148,0.05475404154153575,-0.24554288748116297,0.16179226994328647,0.07880108336401838,-0.06962043556950456,0.3141154350734069,0.227690479310186,0.29745003521875726,0.39698550499141829,0.3344013001061858,0.20704129137452025,-0.0022322815813639337,-0.13141536685347955,-0.14642094609166804,0.04884018686043125,-0.04301024530060243,-0.08839470920928025,0.02094988429895163,0.02161165418894309,0.02594032215051775,0.1216370431995254,0.07580528142218125,0.1229760340938086,0.05572122683950933,0.05728139489219392,-0.09789890199222087,0.02680874331783329,0.38903959949168456,0.17685341678685646,0.15372439030483774,0.18541755161705573,-0.1200705504659395,-0.011198434384936899,-0.14226407078776899,-0.0002656628436737539,0.08855441423863669,-0.18957113228035284,-0.016966263965400787,-0.09063665998610507,-0.0050330982125179599,0.08916781579427886,0.08383380803823146,0.10722848056519657,0.14454828788528363,0.18715850526649295,-0.19036756739447734,-0.2527867222045202,-0.12732114073087046,-0.015080323190064391,0.19682431841903748,0.1603675623083686,-0.10490009162264152,-0.028704464209466344,0.0804211483883626,0.04174700359390763,-0.0034260575862968287,-0.002304061562884471,-0.0911678967179112,0.04016735235555231,-0.0094480662932887,-0.093883681405748,-0.05822197590758647,0.19066624258115429,0.2858924851493287,0.6196346087319882,0.029340471407940075,-0.14117931071999938,0.129942029027382,0.009171963971394618,0.21088666285488756,0.019272439878514813,-0.01795287497366734,0.17821090979928326,0.012780239217403936,0.16733980894790249,-0.05163448615455905,-0.16357315262939096,-0.19796108953962353,-0.13613308096700314,-0.04085343295359342,0.05606988038762977,0.08370579910540573,0.37662830338910527,0.19700920773123305,0.3553720293471383,0.08942271103891624,-0.1045801993272769,-0.05858230525040209,-0.11707439245024593,0.20172928069693228,0.2981053223815138,0.16550317594071124,0.08035994198502687,0.143450728882186,-0.21193171911936413,-0.13270044124361259,-0.17179820499629024,-0.24900656849545423,-0.00882220205652532,-0.01290891597846193,-0.20530079745476438,0.07361334277382363,0.4101227484835552,0.38026066049935339,0.24743264639973568,0.19197428989282665,-0.04957378126414358,-0.04083267980367225,-0.12211182471704045,0.028709799410233797,-0.0695900563950736,-0.06887452571287894,-0.20095830372547064,0.03547157394176899,-0.17814310097476547,-0.15237263477360869,-0.013246477876969473,-0.1967030915599667,-0.18419966684267675,-0.02369626038121355,0.24038946747095209,0.3537900142197491,0.2659982643956902,-0.06018298787942655,0.12597885126524328,-0.4156872725953881,-0.3471522774150594,0.15118607504475616,0.18538391795300916,0.11265246089361429,-0.11888765849981044,-0.0696448616756376,-0.045088264172506348,0.03666192300809385,-0.12282346493497053,-0.2175513963611383,-0.0749144804934662,-0.07040054489663789,-0.12997437528499748,-0.04308587883699818,0.3350732058369142,0.10915550293999361,-0.07551312985420208,0.19542681324931125,-0.0424345900701238,-0.3003455367023618,-0.5299099904362541,-0.21254656032425038,0.17020489785557373,-0.051997342966935217,0.17505040799420955,0.10724572606143643,0.21706710169668914,0.06363955223294367,-0.14422670770727626,-0.13960466155078098,-0.03627365679832223,-0.0739385713905282,-0.14365582332284727,0.1748718112023127,0.2582176750530119,0.18285605335089948,0.16234870479349509,0.3355061473376363,-0.21429612895290768,-0.18529931232368189,-0.2882486396948435,-0.30034701961762297,0.11189599935107085,-0.09667688246055842,0.2585625070681247,-0.1574585293468817,-0.07573677747929494,0.1343928812246234,0.014941588298749103,-0.2640163891053725,0.01581399783769673,0.008250241634029165,-0.11141531614103365,0.02675718417593135,0.09052702754635511,0.14998182179771245,0.02608619176677187,0.1897677129604761,-0.1256188785599713,-0.2738569470022672,-0.2424044436619975,-0.06630399738303986,-0.07110310099915025,-0.2605589552109953,0.031840707581359827,-0.2111440020961898,-0.28145901894781508,-0.18395466791025248,0.0056830178490583859,-0.021274745328200913,-0.024352618491430047,-0.07659216290474438,0.03060867979290577,-0.11441433287953572,0.022802584926336954,0.08836811300730756,0.03997848835139927,0.08334684457134382,-0.06775107821209063,-0.021081335126702136,-0.03256303187333313,-0.0895405885043595,-0.07422119897819415,0.089031882270163,0.0997763913017221,-0.07928721329616959,-0.04863323908747552,0.022596604381839529,-0.03320709929973271,0.02814504132849948,0.1561880467537545,-0.026818038060594786,-0.06691921348386212,-0.02549877293027782,-0.19726341460263834,0.13643264844879,0.154499819813505,0.2328737335801158,-0.005880006684641461,-0.06732014286192782,-0.01860269477120052,-0.029217994154695609,0.012927401821692157,-0.01929259936847953,0.19969007419651908,0.061194457182629068,0.07273589100636807,0.011480578855100532,0.04464400810494736,-0.008466221354470586,0.1822340063207914,0.011084020741165019,0.016336340897370816,-0.03747558149429093,-0.09912206635128354,-0.011441119853877136,0.08900912514908328,-0.05740717189137339,-0.03405644374900306,0.05431121890875833,-0.15544553700780446,-0.02888775488774728,-0.04231694182191537,0.003742407388968353,0.1891814874897003,0.05844862116103371,0.07208159987991325,0.06439871245595887,-0.051747860763332566,-0.0846382182253206,0.05211228983478174,-0.050938885919571148,0.02611220747026854,-0.005816248516608965,-0.04312553332481057,-0.16710999235500643,-0.0839722214845587,0.05256435405272869,0.01641252118659886,-0.028342734031185546,0.14689875513288359,0.027876915670009017,0.002900420788283961,-0.007990987786492713,0.05320057113282111,-0.03418708988671477,-0.0423084569809284,0.1731430589549848,0.07245796194746696,-0.05848153276328667,-0.012186773039413972,0.11214409708115762,-0.023131806859874039,-0.09900310609628933,-0.03642603066098703,0.004666962014458326,-0.05027738945282998,-0.06791968936685668,-0.07401584519294403,0.1094309240152704,-0.08625704835743235,-0.19645687517188568,-0.12628223381203744,-0.16161889145204134,-0.04721140428386036,0.0035735022758693398,-0.0792752484927398,-0.034347547451221507,0.010313309398738218,0.023671524104869957,-0.1216384304456011,-0.0696967427635758,-0.07816957505509409,-0.02393591846304799,0.1628326540502535,0.006874312538369858,0.007644386538178971,0.11457997334823675,0.15791508375430383,0.09102857227203322,-0.05515288013142865,-0.09240608982099961,-0.041000042481520098,0.0011450273639812415,0.14942693855008794,0.2477975260330721,-0.11432171160847195,-0.11752229860272104,-0.08109380876288697,0.02998972659966286,0.08924579158040617,0.11638833544504956,0.07862136802568756,0.02718934820712546,0.09298536941865893,0.09405879629662328,0.13285885342958693,0.0891146781770909,0.15412181870439874,-0.08062393218559733,-0.32568477744598708,-0.1954381977629784,-0.07353626697793268,0.023579867937665076,0.153565251180398,0.13272376067055986,0.20457881226065428,0.05845350364594545,0.19997219570378917,0.17134062531318793,0.015417543324362968,0.007804270189705615,-0.06458519612209704,0.07655496115387083,0.02050217834811323,0.13230814063279645,0.11373378282049994,0.019884343072514144,0.006514380690017987,-0.020521079809129946,-0.05032331582334733,0.0007341676130535081,0.003088980007494536,0.2532499577714866,0.18797639955764795,0.15674770143976228,0.08022960955536193,0.003014101022825588,0.017953315071761998,0.18579529047632077,-0.1303105596044633,-0.0953697337565272,-0.09768071592814422,-0.08106511312562048,-0.16417567498249728,-0.11087790671845098,-0.06668966454906755,-0.06087672729316163,-0.04719986622404019,0.09259476002789713,0.06929087857748459,0.16724886271433965,0.11396533766291629,0.24531712407753665,0.3816292649584033,0.26874241635933668,-0.05026154980660808,-0.05552087656787452,-0.07161949369610238,-0.08746975539850624,0.141848807042064,-0.06757272139294533,-0.12547179148904764,-0.11565942759982101,-0.03841675054180541,-0.17859825379783468,0.19333359860690683,0.06951968049632365,0.1743468742375715,-0.1440978249481643,0.009409806481004951,-0.014545648785608417,-0.10186443008133354,0.06486603608645243,0.30992054573094826,0.3803364684554107,0.052002171827981547,-0.19100514384424745,-0.09912461152808963,0.08125402537551675,0.07519054657674863,-0.157076513721112,-0.10893853923544035,-0.02846673023914061,-0.02822241691200595,0.013650802015351477,0.03708367432903708,-0.011455079003363836,-0.04697065980864775,-0.06773226680921651,0.027047759605851344,-0.019542511832087017,-0.17135403159961588,-0.09977003484937232,0.33053529133220096,0.3031827524803605,0.13997679705224123,-0.05397404753172973,0.10284843806873771,0.12123038909491746,0.07652528422456626,0.07378348137340107,-0.09308334355981979,-0.128576149212405,-0.038702207386540007,0.014391252204396826,0.06992882770961055,-0.057227075982064907,-0.11087080465182059,-0.2066486108273174,-0.1312822408673984,-0.06758569652260381,0.013358719396293585,0.17188144836256084,0.4170455388203992,0.24129123324273597,0.014970936574495586,-0.010220166090919336,0.06007134390462566,-0.02644757179636719,0.05389707743836469,0.22839876765871279,-0.013516195462254221,-0.021300642462130583,-0.039918853796935018,-0.005477615389009734,-0.1927358546564663,-0.1607260088580385,-0.16960606231538517,-0.12300637572989373,-0.1957571714481358,0.0671032241343384,-0.05940477798232605,0.1591698721627999,0.22230944158210293,0.03630560092099699,-0.20663853338039615,0.1421247348545682,0.07767917628737534,-0.08874905312216798,0.09157163599865996,0.05502594341558725,-0.035919863514886306,-0.06962100125717567,0.029092974316145896,-0.1582923533009626,-0.13878642428460007,-0.03350842651247179,-0.07699546577703995,-0.32952398136972496,-0.15751284526258473,-0.13783668323911625,-0.09353032194105816,-0.208012402025479,-0.08540281666525697,-0.09024077156724358,-0.030529756827933336,-0.07595952522687678,0.18922586285633098,-0.014184376310012206,-0.19861587126719558,-0.03922985981570557,0.06821090324547849,-0.02923787243779503,0.058462268620615088,0.10707462389404385,0.00139935887425737,0.012009865874195664,-0.006266058732469203,-0.039435835774408217,-0.033219967566421589,-0.058109270248527539,0.0032588860186494796,-0.2584443896198322,-0.06672643475219949,-0.1447692007281498,-0.13938572382729476,0.052907119216195088,-0.11569266769925739,0.13215702352563478,-0.028635567099305698,-0.07041621020706895,0.048432250992911377,0.16614205589940954,0.014798073032871258,0.08562766563941472,0.17147273045395007,-0.1213797813312422,0.003368670688126327,0.05924045137166495,0.10475016077982329,-0.004499939842245111,0.10976788438294077,-0.1698560067296849,-0.1886453212799257,-0.06301028603854017,-0.04094975018453086,-0.10006031160508176,-0.20701821408596728,0.02507447184159847,0.041778046252674557,-0.0278472724114148,0.11735494327661317,0.084448741838714,0.021698976699687037,-0.04573237746907373,0.08225599956522674,0.0799197329649798,0.03187710053164603,-0.03322376070578447,-0.12618832040098847,-0.0719545966304233,0.015854786195381139,0.042464190044903028,-0.0547691024190089,0.02331361609943573,-0.0692797965379421,-0.13701860905521535,-0.0658505222300409,0.1476811311342705,-0.05365294422734784,0.002218432440390176,0.04651945118727332,-0.09638754197925577,0.003661311672143645,-0.004723746249487371,0.04107029462963771,-0.07654897164520075,0.1622851471620298,0.07352110564491607,0.07389617330864297,0.0021084270004290697,0.12374464982675095,0.02965506770190376,0.19858475311142663,0.018169332241682266,-0.1460968540295312,-0.160279979852569,-0.01982851065879324,0.18376898866242126,0.05730078907167355,-0.038738827774311628,-0.04650724997706187,-0.023477453986667744,-0.058600207946687517,-0.10197060484185693,-0.13844882112520857,-0.06686873072562023,-0.008946093938311044,0.14291848167695737,0.08248529137272826,0.06175886403714158,-0.00011633761275151886,-0.1032655538802647,0.039034835973433868,-0.020904512633268123,-0.17229422113501043,-0.004633716361092261,0.11525165825164662,0.15989120038055894,-0.002615728671232855,-0.040681506742447557,-0.010437247012983433,-0.009011259532357678,-0.006739304426836315,-0.03895967636506533,-0.04918246933545424,-0.03453616655973815,0.010488804073998317,0.18797018573912697,-0.09116175946274904,-0.05117275726488172,-0.1068370533218813,-0.1351273078119846,-0.10167159553455824,-0.24108507921889478,-0.018179653529121578,0.08240292953911702,0.09969602685776413,0.16869044549788354,-0.005037984853431819,-0.07296265757986882,0.017508861704460755,0.024181671430887044,0.01831650150373305,0.11968752567547114,-0.03516725449825319,-0.10503836444450256,-0.025300685191534917,0.04380262973146415,-0.09274377679427976,-0.04958670874834199,-0.06581095925571938,-0.09314625603732427,-0.15322069256495869,-0.14224159873353788,-0.0037014117194834248,0.0473206522610064,-0.22795878196196679,0.026494514590896375,-0.11107816849656668,-0.03204256325598257,0.017587216861839156,-0.14571000699255919,0.07354706258862873,-0.011739460031154536,-0.09470689560235986,-0.09326679082423262,-0.14777742709955,-0.10005240438193491,-0.08714053150142549,0.07030487469481839,-0.15897884624795145,-0.046212637785898468,-0.061052653614867339,-0.16575860169054119,-0.13670864420800775,-0.026956740855228205,-0.03696819765511319,-0.013188636720719387,0.017598303153641864,-0.0343180302212798,-0.05679929971012386,-0.14108929494598097,0.04249070347938072,-0.06683845020953551,-0.01586123348722416,-0.10571154706423458,0.12345251907356313,-0.009373381090259427,-0.01536048720100062,-0.047842124064379629,-0.1074789495315292,-0.1402685603189493,-0.14032807479458674,-0.10123209452708701,-0.0186645631180878,-0.06628726990269493,0.0410407162187662,0.026866890635560509,-0.045102300170549527,-0.09863233855251426,-0.09058255113617414,-0.07798721371339107,-0.024991944311268205,-0.006078314965447782,-0.05797968471201247,-0.023567167409443019,-0.07052076132727098,-0.05827435412388894,-0.05865659025305943,0.10461051726346975,0.09144110541267479,0.12292248457984374,0.12612590971418015,0.08845679662789248,0.051935461025768878,0.008826419504040622,0.02569609814993622,0.10687368899156115,0.008913263833362473,-0.05845855515253184,-0.07001964422227478,-0.12737817788820997,0.028723880058858499,0.06628001415715326,0.07594117784673346,0.07393438884262112,-0.07099439744573409,-0.08073845328511224,0.09307102121816907,0.016405826952405189,0.07321395233371367,0.12620550696439579,0.3269379812788082,0.06011619162449375,0.1095646305635232,0.02553338308158777,-0.06916650601888835,-0.10234462818232773,-0.003455817633702619,-0.003470393347138279,0.015510564323786194,0.14179063668053464,0.02784262008900878,-0.14665972964024669,0.10229044220579339,-0.09112813800318998,0.08786778355095551,-0.05385478324379577,-0.03226400355073192,-0.04937015683409976,-0.05461636292325981,-0.1052217996190118,-0.02725678655616213,-0.1785831427150062,-0.035140542902517269,0.10377878977256613,-0.1460632925479702,-0.11076458479815947,0.16915803631848595,-0.10758413385499127,0.017728070899242298,0.030506876123366147,0.030486995832096774,-0.03512151778827293,0.15160161598937514,0.17895980052735334,0.20686338019935347,0.0203891113907693,-0.06853371240916394,-0.10794780187926152,-0.025937114406957747,-0.06520861808010024,0.19908452239812494,0.03380165272143326,0.05385004167208574,0.1378776711708787,0.10675929174871846,0.13115372386173888,-0.06251552627538953,-0.0423034401677042,0.06405213194706716,0.09682173870982727,0.10216780044524093,-0.06903228188803463,0.1488857633207522,0.27139887638980417,0.09857064763726464,0.09024547247126433,-0.09180994354192868,0.09005454593716098,0.06098473250962084,0.05888217744183162,-0.03491454060774854,-0.06506155709768623,-0.12380444967609566,0.08018583970180486,0.5101773929596469,0.3534948285896788,0.018349799766221955,-0.1811750067143286,-0.17945150837048536,-0.07849275568562271,0.0916430294649963,-0.03956037849114755,-0.052624099363547647,-0.08519297102126543,0.11309211858705756,0.12493444915363827,0.11608461323659307,0.1675574604411971,0.12940144222670756,0.16623089198938588,0.03235823783764761,-0.09775219371027753,-0.2652803741510436,-0.17317667880503027,0.017000040296935839,0.19254133267709676,0.017613667076659433,-0.04372101654061096,-0.047333043310956,-0.054881408464748569,-0.10284026674896252,-0.13553169475620895,0.0005210674834561793,0.04449852855331568,-0.19709198823068739,-0.049483099341392878,-0.12288965954701627,0.24366408151870473,0.22171054559068013,0.12699476264677538,-0.06340483912009426,-0.08188764884885923,-0.2289168511015285,-0.27119704302732769,-0.00790618419936295,0.2386029103114815,0.43169446054534119,0.015515462636098663,-0.04305401098178741,-0.2668373036543165,-0.1656484062941168,-0.25149687642146786,0.09400959236912629,0.2170370687885306,-0.03554494802093651,0.2482698384395763,0.09668637873950092,0.14950080585480128,0.07851242407115591,-0.07432128185526044,-0.4943955847950066,-0.1581642560190102,-0.30321686625018059,-0.1674242061788708,0.16466183027925147,-0.02141066364066457,-0.015514877289207176,-0.10857671066790407,-0.21959452504669828,-0.2755610744757587,-0.05961420381398767,-0.020631014924945274,-0.17906084030763187,-0.0678003835656556,0.34252310724365189,0.34975635624474396,-0.3023126498027465,-0.15066847289348174,0.08177444048538427,-0.18864430387488893,-0.4374761041381499,0.0029039252850028599,0.04381285818916746,-0.08347249928325992,0.01103557170715314,0.09181231585392956,-0.12096900997498095,-0.34876087505625699,-0.22747238319655106,-0.28441988660208847,0.2689925221301007,-0.053796812645896408,-0.14474436357372923,0.09276367212426291,0.23774254212851676,0.13041135480639155,-0.11007442467209849,-0.10661434862430373,-0.02703324942070403,-0.02618673578526067,-0.23579395360287387,-0.2070175679700587,-0.21700783473216779,-0.10665660768697843,0.28311029859836669,0.07482303587069568,-0.06760826477133653,-0.2159325502100251,-0.3996653417662083,-0.39753242814298309,0.3040232474840429,0.07592139880083597,-0.08478386121093525,0.20984449934580516,0.09308400349544012,0.07508123515745696,0.2014747181819467,-0.07151213804376962,-0.03531122303168634,-0.2806562370204604,-0.11648537547822002,-0.22541390784328253,-0.17551701617563968,0.040496438501580658,0.11914355211457838,-0.0023724051177812148,0.09685656511406524,0.11320774600363351,-0.2618289736042139,-0.26575759654662498,0.2820235790725278,-0.06365926885026688,0.13376823994757629,0.1294058138679684,0.022147287258309304,-0.041687856522448957,-0.02524509465994173,-0.19836847537629447,0.012318569958170099,0.11376742660151433,-0.20537229988873016,-0.045929681304793277,0.007524334127328677,0.3737432824412991,0.2915236407349274,0.33936934109358515,0.319896162404288,0.1749000945453285,-0.12851318797093876,-0.1407337211055568,0.06851191146271427,-0.035205101114117318,-0.0023704064058977095,0.09895641210436464,0.07453244082658264,-0.16647839459370729,-0.1603122577930422,-0.3155794005406694,0.1137071409216322,-0.08680297247852241,-0.11751658198643587,-0.3033869657356449,-0.0024950456526934736,0.5419264427869394,0.026954651891762928,0.13817399473471049,0.5119652918153699,0.07014365442228067,-0.09529645383306311,-0.15981545179814886,-0.036089491186708389,0.07647238700377802,0.12275575615349654,0.07220084610567912,-0.15769260409234044,-0.06678860244237665,-0.21769373050002614,-0.08468868529315678,0.27330531095276436,0.05285095957181953,-0.18329271345667476,-0.4058240877040045,-0.0846841660983188,0.23358152366488067,0.0682125848536779,-0.17410079869899948,-0.030845722772944636,-0.029035549698828605,-0.03994310549621392,-0.25202548043981756,0.023179894726791714,0.20392679507346149,-0.0005400695888308506,-0.002939477097886007,-0.3272839467670605,-0.10666356892837117,0.17081982605254834,0.1955896778478816,0.15716898997143159,-0.16203979539898034,0.06154279392015097,0.025626189153304545,-0.0005749407238543235,-0.03327911618005735,-0.3969214506234083,-0.20535863210864795,-0.20379032097422546,0.025780862262449166,-0.09299539349443654,-0.05183453158262645,0.10400984836451957,0.3344059590023807,0.10916867249355025,-0.03284439071637154,-0.1786419478419581,-0.35040832872338836,-0.24693577194628703,-0.15224601330216343,0.11222489022628467,-0.062254528104662507,-0.03498851210895599,0.31827518354822717,0.01373745019159308,-0.22907073984433866,-0.35478193849421899,-0.3000298280736302,-0.18909610450436363,0.08283126778639757,0.20074462172642014,-0.030215165610996333,0.07150761342244727,-0.06899489277557376,0.08546326973986045,-0.13679533317167578,-0.3077707994544609,-0.4623988570887,-0.10945757531701693,-0.3308806605937309,-0.023812995003712625,-0.23130159154398534,0.18279665006223154,0.17729952382432666,0.07870806919332567,-0.26243806957763,-0.27443265767638388,-0.24085148146738315,-0.35391215077456769,-0.2512574874464808,-0.021926484574536666,0.17971200974599733,0.08196110404111186,-0.027223402523231259,0.044493976490126877,0.004973390728987879,-0.17798114727577908,-0.13296021235001197,-0.13045663200662997,-0.35444060368923888,-0.2652245306089381,-0.21228042892498778,0.13454085734651215,0.33192771756617747,0.10920182093334147,-0.2262292831366268,-0.17293260346284407,-0.12749077072292334,-0.08507748380855843,-0.28842132516330507,0.09924729138700908,0.1909657972954654,-0.08179160001559963,-0.20288237107202929,0.01483727988710408,0.07800782712708017,0.014226855208450873,-0.05453932663129134,-0.2079353160180074,-0.12716831633837956,0.06589178291651417,0.15404268651060408,0.4331472314853233,0.5797706412195562,0.09805859340447439,-0.05127864810282629,-0.21691253837786884,0.06061403100271608,0.18366191533162386,0.16361510756813714,0.047194897901028477,0.05148559845568396,-0.1545451896237511,-0.11949622815509042,-0.09319407544306206,-0.08936781898137837,-0.16408290317246655,-0.09737580980268891,-0.5013004634063187,0.007952226822511547,0.34525882038112207,0.3574175871457674,0.48983719385558668,0.17749131032234925,0.037377611990147,0.0197261360957894,0.024695924587249109,-0.039573030947001399,0.31316246391151006,0.04989797491133254,-0.1320692912297509,-0.06995881244540564,-0.2589155322276567,-0.09262932545881768,-0.22381224592427455,0.0599097416785237,0.12148571561203783,0.1775589981766555,0.11710473139442319,0.2661092176063082,0.09322462174203869,0.06291544969890338,0.14702860223849099,0.2445011691312559,0.18631389717934564,-0.3216902332372187,0.051474955592134,-0.02125169736354691,-0.08927867066092522,-0.2862155903029278,-0.03991114349636856,-0.14162317732114813,-0.10817284397128095,-0.14933931378934493,-0.16651655265931179,0.02942787960564623,0.24741958219507197,-0.08790435119985214,-0.2523122238937401,-0.2284173019343378,0.04145773662349302,0.12554473809683179,0.3435423639835449,0.21155954358731039,0.40667149016150397,0.2407682237265096,0.2200814015463039,-0.1460184657939627,-0.2658992663172209,-0.07954805911222766,-0.27732505540541788,0.04104646697091367,0.16669880266444807,0.24960315707809145,0.198208025841655,0.14940661015906163,0.09963182232670966,0.044062305161854917,0.039322725089042349,-0.1152196915596523,-0.04006155032887301,-0.10893457179813157,-0.008555785760827476,-0.0770925496853672,-0.013306146089127124,0.06450873677375477,-0.0013219979835068182,-0.13315409777835197,-0.05480789910606529,-0.02411867217485044,-0.04085681836460315,-0.013689229324903456,0.15966445285820472,0.14601935600601885,0.13173404568551176,0.0434027510470024,0.17615710745022254,0.00023440995382704644,0.10112937924631295,-0.0799630056563184,-0.21109576045783805,-0.21049660498233259,-0.2271817472408557,-0.21382537567575816,-0.11771679318369347,0.054027024816293307,-0.10864574687618109,-0.10995288456717768,-0.013842877604997988,-0.03333541036782875,-0.07841479347311087,-0.018390270945040617,0.10197108047595435,0.006016700816881289,0.06628751214716351,0.12051333101077674,0.12073811102061866,0.2792121108973823,0.32733111967925279,0.22175960153802655,0.07249608096188612,-0.04598429142029012,-0.13072601225876699,-0.2705811256511557,-0.06049616650639272,-0.14768534922794236,-0.14501039483832194,-0.0888013286991609,-0.15224032255413887,0.05016508584123285,0.03769044978857416,0.025871562172971368,0.04454019843021796,-0.09709058227528071,-0.058950416901681196,0.08813557511639728,0.07798566092117161,0.10364567988714162,0.3043216058496201,0.020386604699074424,-0.019344936025145547,0.12543396880456257,0.020662871077250356,-0.1819417761679949,-0.015386165878764966,-0.06610616699673798,0.09123981094308192,-0.09252964619034973,-0.16050055599911892,-0.03249023501177814,-0.05498193960624258,0.04153577641230585,0.15132644333839236,-0.30193864064956896,-0.1848281145880268,-0.03710841727899456,0.08045853909741949,0.11826114084527087,0.307895662238025,-0.019002381538164617,-0.2786769302092871,0.14744350206974375,0.10922779122666485,0.1108195589756165,0.020695026737301379,0.04807083729650781,-0.0155943719122532,-0.08748414543604367,-0.18794105482958635,0.07134160758999655,-0.03481494758587672,0.1890525353861209,0.024476781675091078,-0.2199822798136614,-0.22798718936594998,-0.17179517497512779,0.05559217463642204,-0.027591171922672677,0.25324289488702236,0.19691406966820619,-0.17347603135337667,-0.03069914704511327,-0.056936094513776337,-0.02770300958660111,0.0762110803899939,0.07387464156768969,-0.0518567195194424,0.04899929030437153,-0.06056141061498456,0.05563188564769067,0.1252518586564136,-0.08561770753764628,-0.08911694734762733,-0.3003449728679905,-0.33720102235243945,-0.10517988679318498,-0.03528953326146724,-0.05380170452557627,0.11554344201522429,0.14517672266092206,-0.0720410096226543,-0.19608294477322239,-0.07854513848882655,-0.11203359192529716,-0.09673001074405609,0.02513379412611521,-0.19278725886007465,0.11630901161924767,0.0016846983900208034,0.1351298148294187,0.06643531127873122,0.019808469948156779,-0.058229810585239429,-0.13342749220308576,-0.0969474948892442,-0.11384029242418739,0.040209799440182349,0.00047333595451722375,0.0393069952138554,0.16443352915902965,-0.13737686298050537,-0.025042421846509775,-0.12667674589277704,-0.318121334120065,-0.17991294248595117,0.023629380046861417,-0.10954821177399846,-0.27628927172258896,0.004070789779102307,0.1647199765602754,0.00283565434496773,-0.12362786206927658,-0.15629789081661939,0.0661167264574259,0.14762113421121784,-0.07829874307455918,0.07224266127576329,-0.0010034767398567058,0.013136051683811953,0.12479509948024545,0.018904897483573124,0.06199899587025657,-0.35645604941126088,-0.13572900123443747,-0.10840543342938826,0.043728469484558548,-0.1268151689592964,-0.031202915738117535,0.038559465396958297,0.13882765341357704,0.07015588975847106,0.038359157441536177,-0.03771391355447028,-0.37595596335379707,-0.06594394284078008,0.04277838583872964,0.18254375890727879,0.027367653573115864,0.13082584091586026,-0.1487745159458164,0.07125247794249706,0.14357529182124438,-0.0790590962677257,-0.07887302591291343,0.21400588198126437,0.24263014488510005,-0.06960074629014823,-0.12107152636187416,-0.09127612755366908,-0.060896013566445587,0.053391791238362847,0.10256139763525552,0.07799013120689713,-0.05152141440879746,-0.08657546017961655,-0.13979286967305275,0.15953793454338117,0.24018763187023904,0.10561714334428611,-0.02440679154376406,-0.16126385570554734,0.05785786949761338,0.029421380563561879,0.14178874617633989,0.19401061236443579,0.10319712310279607,-0.15604496639192809,-0.1733427435635295,-0.1990272632224308,-0.06000267286808678,0.06386459147593805,0.10399776564834806,0.22358238527632533,-0.02185990841082444,-0.018085163301728919,-0.21194516102186312,0.24671681190656825,0.02599677818462443,0.08375066219196627,-0.00883484825127402,-0.059794278318652197,0.06410629391771285,-0.14193655331428105,0.054658587534780169,0.11134529904463851,0.1817410235023071,-0.19262461878044774,-0.25767921877796426,-0.18773116046670097,0.032561549135467156,-0.13378294871253477,-0.041543729276740038,0.19424354780311188,0.10416688805472406,0.01967400264040165,0.21047006933295396,0.29749348205048556,0.31814278031106849,0.0964634327192409,-0.24954468768907027,-0.21760780522944984,0.3613621212050912,0.3134260501654864,0.043628746280359797,0.007854279153559758,0.27136963250498205,0.09365619583007069,-0.18050110860323718,0.03414884572990075,-0.06034685234510773,-0.15220647191653242,-0.284784174382844,-0.03600802606045577,-0.23873693039044448,-0.15740860660734649,-0.0007973603708840841,0.004276766786764827,0.21565596812988764,-0.02070360294332498,-0.021291931514645588,0.03288696168211323,0.1658974992985248,0.20102550052995087,-0.0033480835099681789,-0.013253380891460424,0.05690947888222221,0.08796623422478402,-0.0477566975779006,0.18315890512984765,0.16601290426254315,-0.02895841027203311,-0.14181278797975559,-0.2652590668813558,-0.23171070858832705,-0.14880356476077195,0.09504661957228256,-0.10060333040950917,0.06448022056116758,0.10450730432480217,0.21980369635903802,0.06830561490627299,-0.1617294196744992,0.03939491965232656,-0.00804138679594839,-0.12273226119011663,-0.09867542116344105,0.018273637035779796,-0.005945694835897291,0.07467587884213815,0.08022003262110646,0.03843470256840634,0.01753321889707184,-0.26610977029353335,-0.2728713579280603,0.024733560517176704,-0.06636046192829255,-0.12288444430868896,-0.13894787727956835,0.028870654340023465,0.2492333125620285,0.05720991698308364,-0.2129764553884503,-0.06023288125268582,-0.1565459606531081,-0.32821117411729458,-0.12929694251641023,-0.03531406462012267,0.08028739062632631,-0.013533926434504984,0.13474189625710199,0.15950955157787378,0.02004336227581337,-0.17459881631970829,-0.11796032918253624,-0.018075447118420384,0.041766988077796527,-0.18534121989936085,-0.09443574631843288,-0.06207473652401377,0.111460195936576,-0.22477752147170949,-0.2511324670010942,-0.2776612349735119,-0.163675884835903,-0.351252478417654,-0.15986995088710619,0.10492519310745702,0.0017786204265238318,0.2727058308754688,0.14557998105428833,0.22318362459549838,0.058839912000074278,-0.06131424900013367,-0.008700013855641032,0.000060271451866502704,-0.03503299225657075,-0.22761629445004193,-0.06090901090192648,-0.11834384283922822,0.0467762237289963,0.006794998294467941,-0.17699939046954034,-0.2974353050836805,0.060844637510088,-0.012013732919879545,0.05996088864651414,-0.07367207830972696,0.02291598691809653,0.1425355765892057,0.17709981418378466,0.15520728827599579,0.044862332722429159,0.004225742526104899,0.058894374123664387,0.09534970911373454,0.05446917888356351,-0.14134983720997527,0.005413176265766276,0.14753365912865835,0.33205905305898217,0.14871031004042818,-0.15438175423274326,-0.03592232258088644,-0.16322355189915659,0.0027729892054135058,-0.10682424747066509,-0.06769965475795734,-0.10723383801740187,-0.02292522534176523,0.15831764835322646,0.27868374225290457,0.17590119573976499,0.16522227524428505,0.20640554161210984,0.13256442422582424,0.04549686440254587,-0.11558957105810304,0.12699858072406398,0.18679817986410339,0.1824084798379712,-0.0542846393733342,-0.10689217312945058,-0.18459688830486746,0.058335037416395719,-0.07295032080136846,-0.03739544647809311,-0.10283144778036264,-0.07729720914358764,-0.1570208020333611,0.021397530819254035,0.0731318184639014,0.18785021479938225,0.05233473560987107,0.1412203095175472,0.02266774104064819,-0.0293427790356494,-0.012592072934142575,-0.05613944965898355,0.036067453414225399,-0.006394036093183479,0.04051731458390027,-0.01844854239169425,0.043142772200589488,-0.03511083549319138,-0.037922263381992619,-0.17671786241525265,-0.02614673275289547,-0.15487357461386973,-0.03732209787752234,-0.025706735357959904,-0.05569165420013649,-0.07673980282076958,-0.028441948518456825,0.053581675581681257,-0.13125031936335719,0.07252486690735653,-0.023739490506673897,0.010855715667684398,0.08140321087905896,0.0685469080981736,0.00951427269782491,-0.016543901859456139,0.0786007332009343,-0.02968049872794292,0.019597399851250979,0.07470242576351015,0.044185026506576508,-0.09381505786421028,-0.13463218905902378,-0.05412348721805163,0.0011757307366308578,0.034508577590483219,0.02002953421860445,-0.018310618670615839,-0.010316735991345597,0.006274496208007991,-0.08356411868468262,-0.1095805041369966,-0.09399279765099188,-0.158016830906553,-0.16105817836415463,-0.05517678833467627,0.012455129270186109,-0.09931013982942093,-0.09649793647563085,-0.1332115907183717,0.005010181718685355,-0.14084065211930395,0.002613248816513207,0.07464021946697452,0.015044570811192843,0.06935778973885261,-0.009500407498094395,-0.017740035300075439,0.054158739434160548,-0.0563987006122609,-0.020372265433368853,-0.10993975523388577,-0.1742541831728036,-0.16161610056728308,-0.08040732842035567,-0.1650896208655191,-0.04106474154027767,0.04292060036345612,0.19369572716314918,0.15660115973469555,-0.055823175383996708,-0.15837117219938819,-0.08084188318947713,-0.057101584454635697,0.126813431358947,0.03314663993247167,0.013038796602082516,-0.03264997716595989,-0.12016627498949589,-0.1616752771581664,-0.04290166350051618,-0.13625430488534782,-0.19525159911811025,-0.06065211873553233,0.19903420422673946,0.015486056167833766,-0.023603795718344309,0.06335250520529806,0.26912925863750156,0.0694223283378444,0.04960872637589123,-0.014208865230044875,0.03973929653281075,-0.010592957077356634,0.044687706800156667,0.09677512952486345,0.06421699073115163,0.039605356846547038,-0.010815370899831386,0.06367186442901937,0.07816018494804297,0.1364383139673747,0.12309067235969716,0.10091392303605046,0.27003577832250599,0.08762632288879265,0.008158522821035509,0.11650438934711446,0.2290616625717441,0.006491267881836749,-0.07332227869683268,0.05079753282666684,0.026879417579464147,-0.002369308562090872,-0.04571745062850617,0.04367859529703052,-0.07427835232057693,-0.09312192905526327,-0.06027764646928828,0.1743253761643736,0.0872940174606151,0.22232517400971653,0.2578036994749787,0.030386793357533784,-0.1365680783032311,-0.14235434475103218,0.12799941113537273,0.18705877140582292,0.1770062470821603,-0.16028942834010427,-0.14226758099723398,-0.004189696181551205,0.06819893874007117,-0.020348201909782757,0.005179196181109276,-0.014431732379646049,0.004089350702042913,-0.16209041433645986,-0.06070502523798316,-0.13637594626720185,0.038404839290094,-0.009440262294154045,0.02673645621783722,0.001429221018118657,0.013732757003881029,0.1948126694607803,0.06976804736551967,0.13571398120134793,0.15793690247832377,-0.05268949235410842,-0.04050282013971201,0.030873833048699035,-0.04898957703733615,0.17969911905488859,-0.12917715890505147,-0.010651605167075647,-0.043493806806179247,-0.20625762975790883,-0.2075167388009275,-0.14420021148283578,-0.10336419054584689,-0.009331535029554788,-0.06773487004106184,-0.03389651520519104,0.20250783631421408,0.077139436227272,0.17853605163561654,0.21037274741789273,-0.09234038720578479,-0.2458202344415311,-0.23811937131097453,-0.016723921846874227,-0.02398771545209375,-0.10292856296371236,-0.00705973009051037,0.09790284035499213,-0.2409837713503906,-0.19651875493777036,-0.12564186318108795,-0.14857878784737955,-0.2177706870729249,-0.03448257884358994,0.002874681691903831,-0.08001222992291811,-0.0317851649141677,-0.14254478349463746,0.30771435771864649,0.14393436700112623,0.11965032394268499,0.09229330580344296,-0.17800684127160797,0.0945341594606949,-0.022996789516638594,0.11102157223614748,0.05134057137442021,-0.04675853348940559,-0.1421285828408254,-0.1570956650648356,-0.09471616739436253,-0.04576052272188567,-0.08645347956127812,-0.017692672628110488,-0.17132253187073277,-0.039538779421766739,-0.012907927750744146,-0.03052862545224576,-0.14892305051513736,-0.009258935606316472,0.09961606207831808,-0.020301073226848017,0.027627987983578539,0.0422790766677058,0.006431653607378297,0.1955729512559855,0.2960702129336735,-0.009542156695950065,-0.04423821830189196,-0.17030950045531399,-0.16661836716939996,0.0011573411269974028,0.10346090455929284,-0.042180601347920277,0.09878262540588467,0.15419715728553799,0.1806211996558876,0.12057002884685117,0.051783649995621679,-0.18614657602838959,0.009349645294954403,-0.028706729125752934,0.09592695490917588,0.1212779005777833,-0.1138713341813834,0.07567817592335308,0.05263500971239308,0.020667042943691213,-0.10034513862831929,0.02775849842146423,-0.0808841654692874,0.05858274779751204,0.09931454507602479,0.0982607997540806,0.22066859162469333,0.13547174480016356,0.07228466277189803,0.14413723353974507,0.015820079012460729,-0.05181129725531514,-0.08507571010571881,-0.020587996722713655,0.15917159865466408,-0.01894594468689097,-0.06699304099983782,-0.1925922131512552,0.017929291416937555,-0.019350887008269217,-0.07438597293983225,-0.11991123091682432,0.13732203376828973,-0.024265290428165648,0.03260830419628051,0.11875595735816128,0.12312955025419056,0.1424988117130051,0.11736760392415412,0.19472243214039507,-0.09781292838622474,0.0321404328414793,-0.07986087270445612,-0.00776359350406057,-0.04110048130965839,0.06163251078705369,-0.00608942978676573,0.03922877741757053,-0.0795866041268361,0.09970389681083906,-0.030121699584340346,-0.04279110566814557,0.006505490953979392,-0.11406180919093388,-0.1769964919861223,-0.2545378145752123,-0.22029962696012668,0.029749895363127535,0.05844629769137387,0.12613177786389347,-0.13295057502722017,-0.0882163681651224,-0.118854662383328,-0.13308478902334443,0.025834278999913798,0.0479410601729262,-0.07320732930890237,0.029748355019438366,-0.005543261383303347,0.1238876300235065,0.027488083584794526,-0.11206429977522733,-0.14538338552821707,0.07879707134093883,-0.20826439840200054,-0.18430375351027218,-0.17318732616173067,0.0794354424170688,0.2372287586970003,0.13143966016330975,0.04016882605147494,0.022852890655384117,0.09354372412105347,-0.07161591299072338,-0.007474767848756881,-0.17405823164276544,-0.06067858278162319,-0.025289583522830576,0.08829755687776649,-0.00599561054724348,-0.08182218681872308,-0.06724999572390878,-0.006103626557094409,-0.12218870684357559,0.014638814964735656,-0.13627972759269928,-0.05154398861490566,-0.08643396814065119,0.029543546460575649,0.044509764010509027,-0.07169493158298013,-0.16243027710640824,0.053094526338720037,-0.09307611538442766,-0.04367468820040989,0.07643368896604186,-0.049660270582476049,-0.02081882538538392,-0.11221899982446601,0.02330135911260436,-0.06109927827810127,-0.16163649358148028,-0.06447771388682029,-0.11646856266477997,0.011290767610268744,-0.045208669750753317,0.0031699883565259976,-0.0974349799767012,-0.05975775645368225,0.11401158654794032,-0.13119666217670584,0.04302101281565766,-0.021023424190944104,-0.0007798297284155493,-0.13460197213937184,-0.1333432436980195,-0.23410892674674067,-0.07168573295771004,0.029239795170645057,-0.029915869663752927,-0.07306087843422164,-0.019938176218470047,-0.13533302537105908,-0.13359755623904419,0.02413002629522339,0.02534948733705312,-0.033007004786298459,0.1417655542369467,0.08160286634657255,0.04815408294306786,0.060437801743237238,-0.039928416502622,-0.09990180306512021,-0.08380890854591154,-0.08983864254301116,-0.16899446570990987,-0.050173384729820438,-0.11413649984577545,0.012117297015899373,0.051234022000209458,-0.0028566973148354609,-0.040708018922540539,-0.13252695311486155,0.002180491509025557,-0.08132359908693204,0.0382443204071615,0.07527342723186462,0.12576488510621848,-0.007621327075750574,0.007070361529300383,-0.07688310123768445,-0.06677012810584296,-0.07401791909568516,-0.1020751937799141,-0.0617286734038693,-0.014898382780534157,-0.06819888525057624,-0.05103676203816461,-0.11254481953986206,-0.00952847348642181,-0.041509585260834317,-0.14213937874979788,-0.33828495617150519,-0.1599604711699391,-0.060018564504451737,-0.2339369784106155,-0.13265702389991608,-0.046199771307217838,-0.06340485253741737,0.05498091174950516,0.11456296264974697,0.0343172714745595,0.026848471893243833,0.15059986093760292,0.2571417498290051,0.13690674500174228,-0.037553297193267467,-0.24230793622891098,-0.027370538291672389,-0.1745463089645345,-0.09739811277893995,-0.14308624567280335,-0.3199989637327785,-0.1365539900417906,-0.059925877911530669,-0.06240967854045471,0.09503851554099026,0.23663392756904573,0.29050402040154996,0.1457026344858957,0.5448470496009663,0.2001306399793765,0.25480979942552836,0.1474148130723156,0.34299189670848048,0.39409804176775167,0.38952062346690616,0.13761229985677893,0.01269048389086894,-0.24514512044907217,-0.005643404096974117,-0.10338411489877905,-0.08279294004206259,-0.010442352711406388,-0.07569802801571173,-0.1961577425602334,-0.04243542332527247,0.126316143557129,0.12129369779578839,0.3121597688849205,0.5165030934899483,0.15913218075210704,0.09921896321683656,0.41126245675890629,0.4985393336834753,0.009604999175449296,0.1459320489623679,0.010476420313040155,0.048973909620428388,-0.207105520059959,0.01536571312773775,-0.14889183261529885,